nep3 3 Cs Pb I 
cutoff 8 4 74 14
n_max 8 6
basis_size 8 8
l_max 4 0 0
ANN 50 0
  1.5732225e+00
  3.5745609e-01
 -1.4026275e-01
  7.6373480e-04
  1.6475347e-01
  3.4490603e-01
 -2.8397939e+00
 -1.7155706e+00
  2.1044896e+00
 -9.6714437e-02
  1.0431684e-04
  2.4113306e-06
 -2.5096709e-01
 -1.0266015e-04
 -7.9850413e-02
 -1.0546436e+00
  1.7605653e-05
  3.0262435e-03
  1.1047741e-04
  1.3951914e-01
  4.8404089e-03
  4.1613883e-05
 -8.9394256e-05
 -4.4397305e-04
  6.7784972e-02
 -8.8659028e-05
 -7.0810691e-02
  9.0768393e-03
  2.7618997e-04
 -4.9230668e-05
 -3.2020940e-05
  2.5032688e-04
  3.5211322e-04
 -8.5270242e-04
 -3.0616167e-04
  1.7256318e-05
  5.0790510e-05
 -1.6603614e+00
  7.9209246e-02
 -6.4269030e-01
  9.3293041e-01
 -4.1014051e+00
  1.0488164e+00
 -7.2036481e-01
  6.4542031e-01
  2.5485361e-01
 -1.0472790e+00
  4.2854857e-01
 -1.9056508e-01
 -8.0988848e-01
  1.7392273e-01
 -1.0847757e-01
 -1.6421575e-02
 -4.6185282e-01
  3.3842978e-05
 -3.4305479e-02
  1.6795391e-04
  4.3419155e-01
  4.7712310e-05
 -1.2125648e+00
  5.7681687e-02
  1.3339137e+00
  2.6272541e-01
  9.0838432e-05
 -1.3141329e+00
 -2.6100532e-05
  6.3644499e-01
  3.8719279e-04
  1.0251286e-05
 -3.8462249e-06
 -2.9331411e-04
  7.9236401e-05
  1.5951614e-01
 -2.0142978e-02
  1.0717462e+00
  2.4097002e+00
 -2.5296204e+00
 -7.2151494e-01
 -1.4120475e+00
  2.3299007e+00
  1.8180118e+00
 -9.0664580e-02
 -3.3376330e-01
  8.9822155e-01
  8.9919358e-02
  2.1379753e-03
 -3.6597890e-01
  2.3536782e-01
  1.0759822e-01
 -1.4417691e+00
 -1.9541409e-02
  1.1551661e-05
 -5.6336794e-02
 -1.9709816e-02
  5.2021322e-05
 -5.9421745e-06
 -2.6741472e-01
  3.2256238e-04
 -7.2642207e-01
 -4.4272622e-01
  9.7410016e-02
  4.8412457e-01
  5.0498560e-02
 -1.1909057e-01
 -1.8023866e-01
  1.0955199e-04
  4.3345580e-04
 -4.2358983e-01
 -1.0890052e-04
  3.0149251e-01
 -9.8895895e-01
  2.6416688e-05
  2.6123191e-04
  1.1996680e-04
  1.9753419e-04
 -6.8816771e-05
  1.5944441e-01
  3.4323435e-05
 -6.2565893e-01
 -1.3214529e-01
  1.1861638e-01
  6.2111882e-05
 -5.3430791e-05
  1.0254743e-04
  7.3065603e-05
  6.2692807e-06
  1.1831116e-04
 -1.0828234e-04
  5.4150987e-05
 -5.5236496e-06
  1.4274793e-05
 -1.8182831e-04
  4.3092418e-04
 -1.1546924e-04
 -1.5074054e-04
 -8.6352062e-05
  6.4851381e-05
  3.2738451e-05
  1.8780082e-05
 -1.7391819e-04
 -1.3534361e-04
 -7.8148478e-05
  1.3230446e-04
  2.2489468e-04
 -1.0813932e-04
  8.5879132e-05
  2.0051810e-05
  6.7944129e-05
  5.2562680e-02
 -1.8923779e-04
  1.2074583e-04
  2.6860058e-01
 -3.5038136e-02
 -6.2665695e-01
 -1.4616378e-01
 -1.5323050e-01
  5.8312566e-05
  3.8472977e-01
  6.7924750e-01
  5.3542036e-01
 -3.9666584e-03
  2.6970953e-01
  5.1670790e-02
 -2.9576154e-02
  1.1531901e-01
  1.1252373e-01
  5.8868033e-01
  2.5196546e-01
  1.5612313e-01
  2.5996653e-04
  1.0563368e-04
  3.3682600e-02
  1.8494509e-03
  7.6458496e-01
  3.8577256e-01
  1.8617885e-01
  1.4731963e-04
 -9.5678595e-05
  1.4615592e-03
  2.9039347e-05
  5.0982881e-01
  1.3207096e-04
  6.0239330e-02
  4.9271239e-06
  8.9529567e-06
  3.4452596e-01
  2.1970023e-01
 -1.0150369e+00
 -4.4157508e-01
  7.6270527e-01
 -3.7154183e-02
 -1.0288951e+00
  5.7028413e-01
 -1.2926010e+00
  6.0602542e-02
 -7.7351475e-01
  7.8846169e-01
 -2.6491609e-01
 -9.1461264e-02
 -1.3444720e-01
  8.8262928e-01
  4.0143474e-05
  6.8127823e-01
 -8.5042695e-05
  2.8629041e-01
  6.1785990e-01
  1.0752027e-01
 -1.9008214e-02
  2.5281402e-01
 -2.1513468e-01
  3.0877909e-01
 -4.1472685e-01
  1.9592699e-02
 -4.2445146e-04
 -7.3854744e-01
  4.0100938e-05
 -1.7491246e-05
  4.3938172e-01
 -1.1516237e+00
 -1.5214212e-01
  9.3208916e-02
 -2.8830692e-01
  2.1689337e-05
  3.3639935e-05
 -4.4511027e-05
  1.3593174e-05
  1.3722345e-04
  1.1164858e-04
  1.6324100e-04
 -4.5614124e-05
 -1.5109998e-05
 -1.1254794e-05
  9.7458018e-05
 -7.1404938e-05
 -5.2147021e-05
 -1.6552582e-04
 -1.3572081e-04
  1.3183313e-04
  4.2487023e-05
 -3.1689116e-05
 -3.5449200e-05
 -5.8990270e-05
  1.8946212e-04
  1.7470618e-05
  1.0634441e-04
  9.1410577e-05
  2.7548180e-05
 -3.6840011e-05
 -1.0257764e-04
 -8.8810681e-05
  7.6583819e-05
 -2.3836993e-04
  7.8909768e-05
 -1.0086432e-04
 -2.3360655e-04
  9.4497344e-05
  2.0266751e-05
  1.2387380e-04
 -5.1495575e-05
  5.0695515e-01
  1.0077211e-02
  1.5793574e-01
  3.1072851e-02
 -4.9196818e-01
  5.3031647e-01
  8.6279559e-01
 -1.8039741e-01
 -8.9850181e-01
  6.2141812e-01
  1.5780253e-02
 -1.4912608e-04
 -1.1320972e-01
  1.8566234e-02
 -1.0061174e-01
 -8.6990684e-01
  1.5084818e-02
  7.8115231e-01
  1.2527671e-01
  5.9893637e-06
  2.1704944e-04
  4.0203416e-01
  1.1878384e-01
  8.6510748e-02
  1.4282261e-05
  3.5365015e-01
  4.1731861e-01
  1.1232140e-02
 -3.7282366e-02
  1.1148539e-04
  3.0653081e-03
  3.3310372e-01
  6.9608986e-01
  7.3343001e-02
  1.8588066e-01
  1.9988255e-01
  1.6311133e-05
  1.3759199e+00
  4.5765784e-01
  4.4125283e-01
 -7.8045309e-01
 -1.2152835e+00
  5.6204665e-02
 -1.0817297e-01
 -7.7610493e-01
 -5.8144450e-01
  1.3319276e-01
  6.3383102e-01
  7.5047746e-02
  1.3252413e-01
  5.1629497e-03
 -5.8185007e-05
 -4.2820874e-01
  2.6241308e-01
  3.2367980e-01
  4.3499845e-01
  6.5036917e-01
  5.3412430e-05
 -9.3272189e-05
 -1.2564281e-05
  1.3966744e-01
  4.0764060e-02
  2.9809657e-03
 -1.7177631e-01
  8.4738529e-01
 -1.8362355e-04
 -9.1841096e-01
  2.2454900e-01
  5.7885724e-01
  1.9690001e-01
 -3.5121176e-01
  5.3479522e-04
  2.9061136e-01
  1.9617078e-03
  1.5221077e+00
  3.2638550e-01
  1.2749181e+00
 -2.2121160e+00
 -1.1790715e+00
  2.8220189e+00
 -1.8269782e+00
  2.9094791e-01
  1.0705606e+00
 -6.4738575e-05
  1.4258377e-01
 -1.8294184e-01
  4.1423517e-01
  3.9504740e-01
 -2.2879946e-01
  1.0141705e-01
  2.7383998e-05
 -2.6382247e-01
 -7.4057090e-05
  1.7154476e-04
 -6.0423987e-04
 -3.0566558e-01
 -2.4617671e-05
  2.0414998e-04
 -7.4045107e-05
  2.7329076e-04
  2.8681487e-01
  2.5043478e-06
 -3.2148525e-01
 -4.5610362e-04
 -6.0497527e-04
 -3.8771035e-05
 -3.7032634e-04
 -7.2542485e-04
 -4.2381485e-05
 -5.4310856e-04
 -1.5550660e-04
  3.0681531e-05
 -6.9423135e-05
  1.8999919e-05
 -1.5431793e-05
 -3.4364147e-04
 -8.7231696e-02
 -1.8920851e-05
  8.5820830e-06
  8.5417960e-05
  1.9561225e-05
  3.2272907e-05
 -6.4349828e-05
 -6.6908142e-06
 -1.4331112e-04
  7.7673787e-05
 -1.4800731e-05
 -1.1165255e-05
  5.4982993e-05
  3.5837362e-05
 -2.4533947e-06
 -5.9491151e-05
  1.7679561e-04
 -1.9748403e-04
 -8.3275409e-05
  6.2535044e-05
 -6.3201725e-05
 -1.6330477e-04
  5.2108226e-05
  1.1798455e-04
  1.4509613e-04
 -3.1017233e-04
  3.3052434e-04
 -1.2601892e-04
  8.8665292e-05
 -1.9279720e-05
  5.9070542e-05
  9.3403040e-05
 -2.3437151e-01
 -3.9041615e-01
 -2.1782301e-01
 -9.1462195e-02
  5.9567440e-02
  1.5600055e-01
 -1.0526878e-01
 -4.9480647e-01
 -1.8439566e+00
  2.1826203e-01
 -3.5529795e-01
 -1.4282982e-01
 -6.7138338e-01
  3.5675552e-02
  2.7538458e-01
 -1.3058515e+00
  2.4851681e-01
  6.2261148e-05
  1.1051706e+00
  5.6587654e-01
 -6.2092964e-02
 -1.0756782e-04
 -6.4061563e-03
 -4.1227907e-02
  6.2042940e-01
  1.9366969e-01
 -2.0698080e-02
  2.9202127e-01
  9.2152953e-02
  7.9172947e-02
 -8.7888529e-06
  1.3042457e-04
  2.5608301e-01
 -6.9037214e-02
 -1.1806790e-04
  2.5934437e-01
 -3.8594890e-01
 -2.5798276e-05
 -7.4781419e-05
 -6.8522408e-05
 -1.0683440e-05
 -5.0894771e-05
  1.0884728e-04
  3.4771292e-06
  1.2408796e-04
 -3.8390019e-05
  2.6537247e-05
  7.6798155e-05
 -8.3515093e-05
  5.8201553e-05
  2.2953023e-04
 -6.9138569e-06
  1.0708499e-04
  2.5175506e-05
  1.1632575e-05
 -1.3189508e-05
 -1.8006715e-04
 -8.4866158e-05
  2.2553015e-05
 -3.7144372e-04
  2.5632493e-05
  5.7388825e-05
  2.7073958e-05
 -9.9021483e-05
 -1.8506141e-04
 -3.1910703e-04
 -4.7068912e-05
 -6.9763882e-06
  1.1385861e-04
  1.1001332e-04
  1.3502618e-06
  7.0841168e-05
  1.4262648e-04
  1.7619583e-04
  4.8375259e-05
 -1.0790043e-04
 -2.0931594e-04
  2.0141379e-04
 -1.7657016e-04
 -8.8794070e-05
  6.4448795e-06
 -4.9196220e-05
  3.0119528e-04
  1.8145192e-04
 -1.0477236e-04
 -9.0115456e-05
 -1.0323356e-04
  1.7046531e-04
  2.1491682e-05
 -2.3186344e-04
  6.4438587e-04
  1.5159404e-04
  1.3108653e-05
 -8.5245971e-05
 -2.5309384e-04
  8.8111061e-05
 -1.4193845e-04
  6.9056849e-05
 -2.0374473e-04
  2.4803463e-05
  8.0650687e-05
  7.1836010e-05
  1.1239240e-04
 -2.0849415e-05
 -2.1938671e-04
  2.0811234e-05
  2.6049698e-05
 -1.9348525e-04
 -8.0276131e-06
  6.5204047e-05
 -5.7992649e-05
 -2.3367244e-01
 -1.0326610e+00
 -2.8209531e+00
  8.5888588e-01
 -1.6425874e+00
  1.9532409e+00
  7.8247339e-01
 -1.6700739e+00
  2.1092255e+00
 -9.6664041e-02
 -1.9427727e-01
 -1.4761239e-01
  1.1981478e-03
  8.7121689e-01
 -1.8102413e-01
 -5.6793153e-01
  1.2384425e-02
  3.6869767e-01
  1.7155884e-05
  4.7740370e-02
  9.3585122e-01
  6.2345083e-05
 -1.0934440e-01
 -1.4933018e-01
  5.1645482e-01
 -6.4787239e-01
 -6.4151555e-02
 -8.1541516e-02
  1.0057140e-01
 -2.9690389e-02
  1.3826129e+00
  5.7020988e-02
 -1.9206855e-06
 -2.2482604e-01
 -9.0700381e-02
  1.4833894e+00
 -4.2610344e-01
 -1.0816650e-05
  4.1096966e-05
 -1.1330992e-04
 -9.5739333e-06
 -1.7879158e-04
  4.6344543e-05
  5.7659425e-05
 -1.0685030e-06
  4.1535081e-05
 -1.6528193e-04
 -1.5389528e-04
 -1.0058045e-04
  2.3683981e-04
  1.1406862e-04
 -3.1889947e-05
 -1.8702958e-04
 -2.3823401e-05
  4.0087318e-05
 -1.3048790e-04
  2.7058668e-05
 -9.8196186e-05
  2.2708312e-04
 -1.6922602e-05
 -1.0037029e-04
  4.2266682e-05
 -1.7795179e-04
 -1.1292704e-04
 -1.6401979e-04
 -1.0569520e-04
  1.6446882e-05
  1.0524031e-04
 -1.8190618e-05
  9.8755365e-05
 -1.0301259e-04
  2.9842773e-05
  1.0589571e-04
  2.3620957e-04
 -8.9073199e-01
  1.4425468e+00
  1.2722353e+00
 -1.0006979e+00
 -4.6695095e-01
 -3.2624295e-01
  1.6474348e+00
 -2.5220981e+00
 -2.5061958e+00
  4.9413746e-05
  2.6776012e-05
  1.7841246e-04
  2.6523551e-02
  9.8839458e-03
  8.7978475e-02
  1.0110904e-04
  4.5080984e-01
  2.8817347e-05
  9.2528549e-05
  1.7384732e-04
  4.6862995e-05
 -3.1736109e-04
  3.0762476e-01
 -5.4139849e-02
 -4.0017050e-05
 -8.3033510e-06
  1.1733883e-05
  2.4787968e-02
  4.3982320e-05
 -8.9907163e-01
 -7.0737973e-05
  9.1993221e-05
 -2.1500792e-04
  4.0318411e-02
  1.7849346e-04
  1.1623360e-04
  1.8674494e-01
 -1.0426969e-01
  1.5374449e-01
  3.3210847e-01
 -1.4146089e-02
 -9.1844362e-01
 -1.0755827e+00
  4.0419117e-01
 -1.2758783e-01
 -1.9336897e-01
  5.9506285e-01
  1.2404010e-04
  7.3865918e-03
 -1.4403835e-02
  3.0401174e-05
 -2.9656009e-04
  1.5803774e-01
  9.0404635e-04
  6.9150694e-02
  4.8348214e-03
  3.9344379e-01
  6.5909946e-01
  3.9308776e-05
 -2.4690424e-01
  6.4933735e-01
  1.8643621e-01
  2.1132542e-01
  6.6692598e-02
  3.7119842e-01
  1.3094037e-04
  1.7901157e-01
 -5.6264187e-05
  2.4660537e-03
  2.8804916e-01
 -5.1575863e-01
  3.7378959e-07
  9.1553020e-01
 -3.9584091e-01
 -3.1533283e-01
  6.5279776e-01
 -3.4769088e-01
  1.7080709e-02
 -1.4996615e-01
 -4.8353487e-01
  4.4052829e-03
 -1.1074181e-01
 -8.3280392e-03
  4.2642141e-06
  1.3992521e-01
  1.4108265e-04
  7.0063613e-02
  3.0821607e-01
  4.5832049e-02
  5.7562659e-03
  2.1636003e-04
  2.0134602e-02
  1.7175071e-02
  6.4237267e-01
 -3.0644584e-04
  4.5618773e-04
  1.3074143e-04
 -4.2981980e-03
 -6.1812747e-04
  2.4631456e-05
 -9.2944896e-01
  1.2500210e-01
 -5.9544851e-05
 -1.9444123e-01
  3.6803511e-04
  1.8598454e-04
  3.0487582e-01
  3.3166640e-02
  1.7012977e-03
  5.7948910e-04
 -2.1635375e-05
 -7.5254059e-01
 -3.0230373e-01
  2.9687083e+00
 -5.5216603e-02
 -7.9701102e-01
  8.2870281e-01
 -1.6973905e-05
  3.0622058e-04
  2.9045708e+00
  5.0648249e-04
  2.1212624e-04
 -2.0908497e-05
  2.3253648e-05
  1.3979799e-03
 -1.4379056e-01
  3.9621290e-02
  5.1726520e-02
 -9.4976828e-02
 -3.1926760e-01
  6.9363186e-06
 -2.2048707e-01
 -4.1838500e-01
  1.2024166e-01
 -5.0379743e-04
  4.3127187e-05
  2.1291457e-01
  5.3921097e-04
  4.5689830e-01
 -1.9886753e-05
 -3.2638115e-01
  1.6897470e-04
  2.5355240e-04
 -3.1486011e-01
  1.1811786e-04
 -1.0680241e-04
  3.0863041e-05
  6.4952123e-01
 -4.3977568e-01
 -2.3952348e+00
 -1.6795528e+00
 -3.8125172e-02
 -2.1217541e-01
 -8.3342594e-01
 -4.9822405e-01
 -3.1462961e-01
 -1.8456970e-01
 -9.3821123e-02
 -4.5855435e-05
 -8.2444340e-02
  2.2717640e-01
  5.6697041e-01
  3.9121142e-01
 -3.1762884e-06
 -2.5387753e-05
 -7.6127115e-05
 -2.1406163e-04
 -2.5681335e-02
 -3.0991146e-01
  1.2927165e-04
 -1.5340617e-04
 -2.2456524e-01
  9.3235125e-05
 -3.8344297e-01
 -5.1812930e-03
  2.4530871e-01
  7.3506770e-04
 -7.7817506e-01
 -1.6753486e-01
 -3.0694668e-05
 -4.2159685e-05
 -6.3010834e-02
 -5.3077728e-01
  8.9248824e-05
 -4.2969160e-02
 -3.8163800e+00
  8.1483966e-01
 -6.7283535e-01
 -1.1542946e+00
 -2.9518254e+00
  1.1041255e+00
 -4.9154961e-01
  2.5733390e+00
 -1.0267813e+00
  1.0709633e-05
  7.3728972e-04
 -1.4848338e-01
 -1.4494047e-01
  1.8009731e-04
 -1.6683636e-05
 -1.8807829e-04
 -1.7712652e-03
  1.8232022e-05
  3.4072576e-04
  3.1935555e-04
 -2.0727272e-04
 -4.1772018e-05
 -9.5489930e-05
 -2.3194663e-04
  6.6287398e-02
  1.1450132e-04
 -7.1690418e-02
 -3.4923822e-04
 -5.0446870e-05
  6.6741958e-04
 -9.2644506e-05
  4.0236930e-04
 -4.0402115e-04
  4.9103228e-03
  7.8069861e-04
 -3.7934929e-05
  1.2292204e-04
 -3.4053835e-01
 -2.7314699e-01
  1.7150646e+00
  1.8533540e-01
  7.3701650e-02
 -1.5755832e+00
  1.4068048e-04
 -1.8010448e+00
  4.4017356e-02
 -6.6749889e-01
 -1.0931065e-04
 -2.4016146e-01
 -3.7512286e-06
 -6.2948704e-05
 -2.8316031e-04
  5.3334558e-01
 -9.8724371e-01
 -3.2792956e-01
  4.9290282e-04
  6.1710121e-04
 -2.1346584e-04
 -7.6983953e-05
 -1.7886396e-01
 -1.9765139e-01
 -1.2873502e-05
 -2.5267946e-02
  3.5623491e-01
 -6.3892617e-03
 -8.9138903e-02
  1.1751857e-01
 -7.6634967e-04
 -7.7514768e-02
 -4.7836802e-05
  1.6964351e-04
 -1.4388082e-05
 -4.6396458e-01
  2.1126456e-05
  9.4398136e-05
  2.7993046e-06
  6.2141306e-05
 -4.9850794e-05
  7.8572746e-05
  1.2760417e-04
  5.0785915e-05
  1.0975230e-04
 -2.3826954e-04
 -2.1672227e-05
 -1.3148462e-04
 -3.0072031e-05
  1.5646480e-04
 -1.6461065e-05
 -1.0541149e-04
 -2.0999215e-04
  1.9237674e-04
  4.9429495e-05
 -9.9236597e-05
 -1.3231633e-05
 -4.9423554e-05
 -1.9617236e-04
  1.0311996e-06
 -3.8520534e-06
  6.2977822e-05
 -1.3072531e-07
 -8.3560539e-05
  1.2102484e-04
  1.7664237e-05
  6.2542967e-05
  1.4980853e-05
 -5.9665081e-06
  5.1775012e-05
 -2.8436244e-04
 -3.4451670e-05
  7.0642032e-05
  2.1616399e-04
  6.8775010e-03
 -1.3317722e+00
  3.4286994e-01
  8.9311533e-02
 -9.2299598e-01
 -3.5003138e-01
  5.7604951e-01
 -1.0375826e+00
  5.6586367e-01
 -6.0198778e-01
  8.2966167e-01
  1.7842202e-01
 -7.1609151e-01
 -3.6406830e-01
 -6.9181985e-01
 -6.7458224e-01
  3.5320621e-04
 -1.4409338e+00
 -1.8136362e-02
 -4.7317418e-01
 -4.9934861e-01
 -2.3960933e-01
  5.0272584e-01
 -5.1197793e-02
  1.2176552e-04
 -1.1839793e+00
  1.6392059e+00
 -7.2041619e-01
  9.8928744e-01
 -6.2886214e-01
 -1.4168439e-05
  1.5360399e-04
 -4.2723477e-01
  1.6563562e+00
  1.6384538e+00
 -2.5254438e-02
  3.3968699e-01
  1.0502291e-04
  2.2939475e-01
 -1.4511537e-04
  3.4477303e-04
 -1.6870154e-01
 -7.9514217e-01
  6.9949906e-06
 -1.0812621e+00
 -2.5686899e-02
  1.8554984e-04
  1.8294908e-05
 -5.3208016e-05
 -1.0371872e-04
  1.9535518e-04
 -3.4613855e-04
  2.1355858e-04
  6.2499865e-05
  4.2849555e-04
  1.4954105e-05
  6.9505717e-05
  5.6392819e-06
  3.6779413e-05
 -7.7635501e-05
  5.3130981e-04
  2.8817756e-05
  1.1165779e-04
  9.8352029e-06
  8.6175889e-05
 -6.3886058e-05
  3.6778896e-05
  4.6665857e-05
  1.9813631e-05
  5.3379120e-04
  1.0388939e-03
  4.0608134e-05
  1.5884746e-04
 -3.1116942e-05
 -9.3152367e-02
 -1.5894032e-01
  1.7529076e-02
 -1.3485901e-01
 -1.2330568e+00
  5.8631344e-05
 -1.7820027e-04
 -2.0139033e-03
  1.0781302e+00
  2.2417684e-01
  1.9987717e-01
  2.1874929e-04
  5.2729023e-01
 -1.2705033e-01
 -1.4709217e-04
 -2.2526480e-02
  2.0368671e-04
 -4.3624936e-05
 -1.1892114e-04
  1.3132823e-01
  7.4154776e-01
  8.1551472e-05
  6.0032471e-07
 -7.4276577e-05
  2.4383295e-04
  2.1376682e-04
 -5.0252730e-01
 -4.8552427e-01
  2.9288920e-05
  9.1386549e-02
 -1.0955726e-05
 -6.8658563e-05
  1.8683638e-04
 -7.4295312e-01
 -6.1853200e-01
  2.6010780e-04
 -1.0611354e-04
 -3.3674374e-01
  1.1040757e+00
 -3.1483501e-01
  9.0393024e-03
  8.6540407e-01
 -4.0736187e-02
 -7.7130628e-01
  5.0452869e-02
 -1.4271952e-01
  2.2825602e-01
 -2.9691008e-05
  1.3037497e-02
  3.7084970e-01
 -5.2498229e-02
  7.8468307e-05
  2.4441463e-01
 -7.4663600e-05
  6.1175961e-02
  7.0088689e-05
 -8.1813967e-05
  1.5974286e-01
  4.3343304e-04
  3.8084527e-04
  8.9130114e-04
  6.0457517e-03
  8.8130116e-02
  5.9210166e-02
  3.0982992e-01
  2.6534723e-05
 -1.3903143e-04
  4.6825921e-04
  1.6673276e-04
  2.3633650e-01
 -9.4251084e-01
 -2.7901784e-01
  9.5505580e-02
 -7.6590572e-05
  2.9777288e-05
 -8.4833191e-05
  6.3647472e-05
  1.0879138e-04
  3.3608372e-05
 -9.6126169e-05
 -1.8590072e-09
  2.2047813e-04
  7.7693956e-05
 -2.2261425e-05
  3.8526261e-05
 -5.8546259e-05
  2.1428812e-05
  1.7899674e-03
  7.3151125e-05
  9.0895082e-06
  2.1438603e-04
  4.9966940e-05
 -8.7624481e-05
  2.4736228e-05
 -2.5756710e-04
 -9.7744807e-05
 -1.1817794e-05
 -2.1812835e-04
 -2.2785814e-04
  2.2537215e-04
 -3.6004189e-05
  4.8679598e-05
  1.2718934e-04
 -1.0758902e-04
  9.6668955e-05
  5.8800557e-05
  6.4490749e-05
 -1.0547418e-04
 -4.0413252e-05
  1.3088755e-05
 -7.1959563e-05
 -2.2959842e-01
 -2.9731855e-01
 -2.5523111e-01
 -8.8075894e-01
  5.1264077e-01
 -2.3933280e+00
  1.6896520e+00
 -8.5950071e-01
 -2.1607403e-01
 -7.6025820e-01
  1.8576939e+00
 -1.3857961e-01
  8.6951189e-02
  2.1524966e-01
 -1.1237554e-01
 -1.0588139e-01
  1.0040461e+00
 -7.9026344e-05
  8.4848347e-05
 -6.3545644e-01
 -5.9061438e-02
 -1.4937951e-01
  6.7022347e-01
 -1.7542425e-01
  1.6525628e-01
  2.2045635e-05
  2.5230449e-01
 -2.7169472e-01
 -2.1698742e-01
  1.3746965e+00
  6.8959635e-04
 -2.4105686e-01
 -4.4064829e-01
  5.5777270e-01
  7.7284849e-01
 -1.3148245e+00
  3.5776049e-01
  2.2500180e-04
 -7.7934434e-05
 -3.0098246e-05
  3.0251374e-04
  1.0497963e-04
  2.5973104e-06
 -1.6837355e-04
 -1.2788249e-05
  6.8792157e-05
  6.5256994e-05
 -3.3807566e-05
  4.5097102e-05
  9.4164734e-06
  1.7488084e-05
  1.6349813e-05
  6.8788315e-05
 -1.4289698e-04
  1.0974121e-05
  7.8084804e-06
  7.3312374e-05
  3.2487478e-05
 -1.4745819e-07
  3.7657475e-05
  6.8884263e-05
 -1.0152908e-04
  2.5613601e-05
 -4.7121684e-05
 -1.5613981e-04
 -4.1661267e-05
 -2.4206020e-04
 -8.5723805e-06
  1.6265785e-05
 -6.9050388e-05
 -6.6946173e-05
  1.2321005e-04
  1.3532669e-04
 -7.0560294e-05
 -3.3397224e-05
  2.1440873e+00
  2.5545580e+00
  9.5533049e-01
  1.3738257e+00
  3.1115388e-04
  3.2355261e-01
 -1.4598780e+00
 -8.3293235e-01
  3.3284670e-03
 -4.5196417e-01
 -1.1645494e-01
 -1.1159538e-01
 -1.9171649e-04
  4.8219601e-05
 -1.1663313e-04
 -2.4768539e-01
 -7.5187447e-05
  1.8130169e-04
  4.6775228e-04
  9.5094042e-04
  1.1614324e-04
 -7.9857113e-05
 -5.4957435e-02
  2.3092820e-04
  2.5111702e-05
  2.7081904e-01
  3.2485012e-05
 -1.5644000e-05
 -8.7641813e-05
 -1.6809678e-04
  2.5506833e-04
 -1.3727370e-04
  9.4355786e-01
  1.0399913e+00
  3.6319365e-05
 -1.1617139e-04
 -4.7095022e-05
 -5.9773251e-05
 -1.1362285e-05
 -7.2470248e-05
  6.3556479e-05
  1.4720004e-04
  1.4977518e-04
 -2.3830049e-04
 -3.2265249e-05
 -5.3337168e-05
  1.4590580e-04
  8.5692809e-05
  5.8540274e-05
 -3.0400013e-04
 -5.3123575e-05
  5.2549804e-05
 -8.9464913e-05
 -2.4397350e-04
  1.1036446e-04
  1.3886625e-05
 -9.8008259e-06
  6.4538777e-05
  1.9807449e-05
  1.4048288e-04
  8.0259324e-06
 -1.4746968e-04
 -4.7332174e-05
 -7.7596793e-05
  5.5090244e-05
 -3.8910873e-04
  4.0386835e-06
  1.5574737e-04
 -4.1804149e-05
  1.6967315e-05
  5.2296118e-06
 -8.5272586e-05
  1.2692309e-04
 -1.2260159e-04
 -5.7992587e-05
 -5.9058952e-05
 -8.2084174e-05
  6.4936958e-06
 -1.3344687e-05
  1.3150345e-04
 -1.4544178e-04
  1.3232998e-04
 -1.0018535e-04
  2.4670167e-04
 -1.0491951e-04
  1.3040873e-04
  5.0474140e-05
 -8.7229528e-05
 -8.2060442e-06
  1.8359382e-04
 -1.3503795e-04
  8.5092666e-05
 -2.1966462e-06
  5.7443303e-06
 -5.3921278e-05
 -1.1182553e-04
 -5.5433560e-05
  4.7608326e-05
  1.6560109e-04
 -9.7582706e-05
 -9.0347254e-05
  4.8856218e-05
 -9.8714700e-05
 -3.0118672e-05
 -2.6593592e-05
 -6.9842317e-06
 -6.9059177e-05
  7.5578664e-06
 -2.8175204e-05
 -2.3498606e-05
  4.6709807e-05
 -1.1322944e-05
 -7.8313660e-06
 -5.1475636e-04
 -1.1117185e-04
  3.1899021e-04
 -4.4277462e-05
  2.1692422e-01
  4.1689600e-05
 -3.7364553e-05
  7.4408723e-05
 -3.2391722e-07
 -4.9220078e-05
 -1.5008749e-05
 -3.5032080e-04
  1.0569896e-04
  1.0806601e-05
 -4.1650553e-04
 -5.0070073e-04
 -2.6010862e-04
  1.2374308e-04
  2.0246739e-06
 -6.8908892e-05
  1.1453729e-04
  3.2670072e-05
 -2.2406607e-04
  3.1655852e-04
  1.3115095e-06
  2.7402555e-06
  2.1361448e-06
 -7.4071511e-05
 -4.4174245e-05
 -5.5300747e-04
 -1.7253509e-04
 -1.2281114e-04
 -1.0079558e-04
  7.1665410e-05
  1.5451250e-04
  3.9423769e-04
 -1.1105674e-04
 -4.0233778e-04
 -3.2293792e-05
 -7.3808296e-05
 -7.4350610e-05
 -5.6498175e-05
 -4.5145767e-05
  4.8569131e-05
 -7.5389129e-05
  8.8513552e-05
  8.7786262e-05
 -1.7643806e-04
  1.2236620e-04
  1.5433197e-04
 -1.1982821e-04
 -9.1920911e-06
  2.3269831e-04
  9.7502969e-05
  2.7916982e-05
  1.6933618e-04
 -3.8131006e-05
 -2.7512342e-06
 -1.8759988e-07
 -8.9141322e-05
  1.2067713e-04
  4.8118774e-05
  6.7946406e-05
  5.0399594e-05
  4.8963026e-05
  1.3191180e-05
  7.1530616e-05
 -9.0179228e-06
  5.9835027e-05
 -6.5054970e-05
 -2.6636597e-05
  1.1662349e+00
  9.4998376e-03
 -1.0724692e+00
  1.2967148e+00
  1.8329347e+00
  1.0121975e+00
 -2.1494862e-01
  8.6912668e-01
  1.8791239e+00
  2.8674706e-04
 -5.5671066e-01
 -5.9521788e-01
  3.3641547e-02
 -1.2680959e-04
 -2.5924493e-04
  1.2666270e-01
 -5.7214612e-01
 -1.6604908e-01
 -3.2180287e-02
  6.2851504e-05
 -1.1764881e-02
 -2.9878012e-05
 -6.9770646e-01
 -1.1395126e-01
 -2.7192874e-02
 -1.9327764e-01
 -2.2487939e-04
  1.4949325e-04
  7.8046041e-06
 -4.3493369e-01
 -1.2847570e+00
 -2.3856258e-01
 -1.4483145e-01
 -8.6974593e-05
 -2.3660795e-03
  3.9308623e-05
 -7.4083549e-01
 -5.5848289e-01
  7.3188454e-02
  7.0445709e-02
  2.3251939e+00
 -8.8339806e-01
  8.1418611e-02
 -8.1769582e-03
 -4.6331260e-01
  1.2956552e-01
  4.6392098e-01
  1.9927479e-01
  4.2839382e-02
 -1.2619347e-02
  1.0295945e-05
 -4.1367787e-01
 -2.7839962e-02
  1.0754384e+00
  1.1198471e-01
  4.6719870e-01
  2.2795057e-04
  5.2327074e-02
  6.5156055e-06
 -2.4846105e-02
  4.7590394e-05
  8.1471570e-02
  1.6841194e-01
 -6.2063162e-05
  2.0420406e-05
  2.3809227e-04
  4.4113858e-05
  7.7358917e-03
  1.6425899e-04
  1.2137170e-01
 -1.2390441e-01
  1.0761946e-04
  2.9822905e-04
 -3.0051920e-01
  6.2388790e-01
 -7.0713538e-01
  7.0168483e-01
  8.3754919e-02
  6.9616646e-01
  1.9385118e+00
 -1.3351259e+00
 -2.6582241e-01
  2.4389036e+00
 -7.0934303e-02
  1.2814385e+00
  1.3189537e-03
  1.4414622e-01
  4.4594654e-03
 -4.1020372e-05
 -9.0047890e-01
  6.7139429e-04
  6.3893362e-04
 -1.1370441e-04
  1.6189460e-05
 -2.8375725e-05
  4.5018754e-04
 -1.7442808e-01
  9.8280013e-02
  2.8660721e-01
 -6.7470493e-03
 -9.7819293e-01
  3.4426996e-01
  2.1284677e-02
 -7.2447036e-04
  4.1149640e-01
 -8.3699204e-05
  1.3528283e-04
 -4.8155284e-01
 -7.9430111e-02
  7.0746653e-05
 -1.7202849e-04
  1.2603488e-04
  1.3858076e-04
  1.0941112e-06
 -7.8814192e-06
  3.7511671e-04
 -1.5556123e-04
 -1.5097947e-04
 -8.9053225e-05
  6.6198496e-05
 -2.2769060e-04
  5.1504110e-05
  6.0632978e-05
  4.2028267e-05
 -1.4543795e-04
  1.1642375e-04
  2.7821882e-04
  5.2330218e-04
  7.7858138e-05
 -2.5780220e-04
  5.1460302e-05
 -2.6972205e-04
  1.4466472e-05
 -3.2815806e-05
 -6.5562490e-05
  1.6812251e-04
  2.4246923e-05
  4.1379455e-05
  6.7014707e-04
  2.3862800e-04
  6.8862952e-05
  9.9839766e-05
 -2.1937189e-05
  2.4953213e-05
  7.2879855e-05
  3.2293559e-05
  1.0083169e-04
  1.9613811e-04
 -7.1310424e-05
  1.0599505e-05
  1.7400096e-04
 -3.8625098e-05
  3.5761954e-05
  1.3622506e-01
 -8.6201562e-06
  3.7567627e-03
  1.5721454e-04
 -1.9341684e-04
 -1.5457030e-04
 -1.1700302e-04
 -3.1502310e-05
 -5.5748613e-05
 -3.2998101e-05
 -5.6237208e-05
  5.6222758e-05
 -3.2657123e-04
 -3.7718323e-04
  8.4999592e-06
  1.0418014e-04
 -5.1871499e-05
 -1.3668317e-05
  1.8402049e-04
  3.3127691e-04
  2.4009554e-05
 -1.9036395e-04
 -2.5280862e-04
 -2.4938482e-04
  6.3616659e-05
  9.4296935e-05
  4.2646243e-05
  5.4547818e-05
  3.4280205e-05
 -1.3351577e-04
  1.2393501e-04
 -3.0361833e-05
  9.2632510e-02
  8.1372207e-05
  1.3733971e-04
 -4.3035689e-05
 -4.0363282e-01
 -2.1546506e-04
  9.1400172e-05
 -1.4105104e-01
 -9.4340950e-02
  2.5151449e-01
  1.8048414e-03
  2.5990368e-05
  1.6713640e-04
  1.1684789e-03
  3.8219165e-04
 -1.6087230e-04
  2.4225006e-05
  1.9695007e-04
  3.6593978e-05
  3.2231698e-04
  6.9746828e-05
 -2.1371441e-05
  4.0701554e-05
  2.6547461e-05
 -1.0324590e-04
  5.0653638e-05
  1.2080117e-01
  1.0543790e+00
 -4.0879655e-05
  3.8025977e-05
 -7.9830170e-07
  6.8825239e-04
  5.0125323e-04
  1.5948986e-05
 -7.8885405e-06
  1.3578305e-04
 -6.3003041e-05
 -1.0684243e+00
 -1.5646580e+00
 -4.7429752e+00
  2.6327083e+00
 -1.7460748e+00
 -1.9696283e+00
 -6.3721673e-05
  3.1523132e+00
  1.4510057e+00
  1.4598146e-01
  1.6787925e-04
  4.8944865e-05
  2.4478662e-01
  2.3200350e-01
 -6.5780005e-06
 -2.0385110e-01
  2.2867362e-05
  1.4052760e-04
 -2.5925197e-05
 -1.6624618e-01
  3.0023155e-01
  1.1910452e-04
  1.6010581e-05
  8.9608096e-05
 -6.0216314e-04
  1.2254909e-01
 -5.6659758e-01
 -1.0308544e-02
  1.6384684e-04
  1.3660695e-01
  1.2385517e-05
  1.4870419e-04
 -2.9307880e-04
 -6.2295866e-01
 -1.1899254e+00
  5.7734749e-05
 -7.2131729e-01
  4.5178509e-01
 -6.4992547e-01
  1.1861571e-01
  3.2263466e-05
  5.6072569e-04
  7.3746657e-01
  1.0992127e-04
 -3.5971847e-01
 -8.7472690e-06
  9.4008956e-06
 -1.5962188e-04
  2.4874700e-05
 -2.6029849e-02
  1.8582534e-04
 -2.2859800e-05
  7.4218420e-05
  2.6112187e-04
 -5.1533247e-05
 -1.4396162e-04
 -2.0247026e-05
  2.5931968e-07
 -3.8849626e-05
  2.7730482e-04
  1.9784548e-04
 -2.0763588e-04
  7.0755952e-05
  1.3918671e-04
 -1.3310659e-04
  7.8974183e-05
  8.5438065e-02
  5.9790378e-05
  1.0288499e-04
 -2.6896769e-06
  4.5168163e-06
 -4.6134708e-05
 -9.0037560e-05
  1.4612688e-04
 -5.0907192e-06
 -2.9594778e-05
 -7.4901269e-05
  4.7174610e-05
 -3.0409096e-06
 -8.4864063e-05
  9.0488546e-05
 -3.5235793e-05
 -2.1315874e-04
 -5.4509808e-05
 -1.3671344e-04
 -8.6592889e-05
  8.1033038e-05
 -3.2699908e-04
  2.1367590e-05
 -1.1466914e-04
  4.3700729e-05
 -5.2292446e-05
 -7.4985473e-05
 -4.9331837e-05
 -8.7918277e-05
 -2.1921046e-04
 -1.7449370e-04
  1.8544593e-05
 -2.0061832e-05
 -7.1744827e-05
 -5.9219103e-05
  1.2125171e-04
  3.0903338e-05
  1.3850977e-04
  4.9575294e-05
  1.8099527e-06
  5.7492771e-06
  1.7487193e-05
  1.6006117e-04
 -1.3741970e-04
 -2.6113330e-05
 -5.3726217e-05
 -4.8091062e-04
  1.8550659e-04
  1.2724458e-04
  2.4382006e-01
 -2.6315136e-05
  1.4905233e-04
 -4.8426747e-01
  1.0375828e-01
  2.1748921e-04
 -2.0749206e-04
  8.6829896e-05
  4.5294698e-02
 -4.7280841e-06
  2.3438231e-05
  1.1685930e-04
 -6.2756968e-05
 -1.7757988e-05
 -2.3846104e-04
 -1.5106452e-04
  1.2162281e-04
 -1.0933017e-04
  4.5022578e-05
 -2.7807156e-04
 -2.0488106e-04
 -2.7056388e-04
  2.3455430e-04
 -8.3637127e-04
  2.1444538e-04
  5.7585756e-05
 -1.0550983e-04
  3.3295521e-05
 -7.7732366e-05
 -8.1784501e-06
  1.4239605e-04
 -7.0338405e-04
  2.4959850e-04
  6.0482347e-01
  3.1286544e-01
 -1.0977396e+00
 -8.8273567e-01
  1.4618427e+00
 -6.0935903e-01
 -2.6872122e-01
  4.0371290e-01
  5.9430671e-01
  9.2117757e-02
 -3.7235369e-03
  2.6051816e-01
  1.0630901e-02
  2.6492748e-04
  7.8282843e-05
  2.0378479e-01
 -5.4007494e-01
 -7.0345080e-01
 -3.2271238e-03
 -1.0093246e-04
 -1.9055417e-02
  8.2621431e-05
  2.0044977e-04
  2.5368165e-04
 -6.8827733e-02
  2.8797626e-01
 -9.5746902e-05
 -8.0413447e-06
 -1.3343176e-06
 -1.3687146e-04
 -1.9409581e-01
 -4.7359532e-05
 -1.5848747e-05
  3.7778614e-04
  3.3064661e-04
 -2.8540511e-05
  1.6615914e-01
 -4.3990737e-01
  6.4712822e-01
  2.3537090e-02
 -1.4309852e+00
  4.3306139e-01
 -1.4006003e+00
 -2.5734236e-02
 -6.0843050e-01
 -7.8793669e-01
 -2.1205288e-01
  2.8323224e-01
 -1.6437536e-01
 -1.9760111e-01
  4.8863530e-01
 -1.9455828e-01
  9.0641785e-01
  3.5049760e-01
  8.6817610e-01
 -1.2151365e-02
  2.9642540e-01
 -7.0102805e-01
  1.8489572e-01
  9.8372322e-01
  8.8072979e-01
  9.9547768e-01
 -5.1494110e-01
  4.1814128e-01
 -1.0999699e+00
  2.1593015e-01
 -4.5278877e-01
  1.3022687e-01
  1.4287690e+00
  9.5059931e-01
  2.7388850e-01
  8.0288790e-02
  3.1163096e-01
  7.7535188e-01
  5.3347269e-04
 -3.4779776e-05
 -5.3631975e-06
  1.8759395e-04
  6.7331915e-05
  1.6756688e-04
 -1.7948803e-05
 -1.0358192e-04
  3.0700056e-05
  3.5725432e-05
 -3.1326330e-04
 -2.3332839e-05
 -5.9358776e-05
 -4.8245445e-05
 -4.3461201e-05
  1.0122063e-04
 -2.1064446e-04
 -3.6192187e-06
 -4.3844158e-04
 -1.4267769e-04
  1.5672344e-06
  3.8115113e-06
  3.5476456e-05
 -3.1005839e-05
 -5.1268136e-05
 -3.8724545e-05
  9.3239280e-05
  3.1506726e-05
  8.7211163e-05
  1.1263521e-04
  3.2275955e-05
 -8.3054569e-05
 -2.5798428e-05
 -7.0379196e-05
  3.7913815e-05
  3.5905654e-05
  5.0306910e-05
  3.8606298e-04
  3.6190097e-05
 -8.8646175e-06
 -8.8500645e-05
  1.1584585e-04
 -2.0244959e-05
  4.0718747e-05
  5.8148853e-02
  2.8452071e-04
  1.5393291e-04
  6.4072068e-05
 -4.3452485e-05
 -2.3004315e-05
  1.0425753e-04
  2.9230374e-04
 -1.2598377e-05
  1.1743018e-05
  5.3632932e-05
 -4.6109119e-05
 -6.8824302e-05
 -6.0653139e-05
 -1.3057050e-05
 -6.6630128e-07
 -1.5715708e-04
 -2.8947245e-05
 -4.7963531e-05
 -5.1626739e-07
 -1.5751089e-04
 -5.8866910e-05
 -9.1798654e-05
  8.7153923e-05
 -5.8144396e-05
 -3.0134415e-05
 -1.2627194e-05
  6.3238986e-05
  6.0796803e-05
  1.2010767e-05
  4.0357009e-01
 -8.4748572e-01
 -2.1266138e-02
 -1.8018994e-01
  9.6151590e-01
  3.3369160e-01
  2.7541791e-05
 -8.0066687e-01
 -1.4344646e+00
 -3.9444464e-01
 -1.8312737e-04
  4.9084194e-02
  1.3970016e+00
  9.7140786e-05
  3.6165568e-01
  4.5132190e-05
 -1.5694810e+00
 -3.0106962e-02
 -3.5194793e-01
 -5.6660708e-02
 -1.6556090e+00
 -3.9561206e-01
 -1.7397707e+00
 -2.5776095e-05
 -4.1507593e-01
 -5.5594039e-03
 -2.9595728e+00
  5.0427216e-01
  4.3445303e-05
 -7.9742354e-01
 -9.4576040e-05
  6.3180184e-01
 -6.4707069e-06
 -1.5588896e-05
  1.6401366e-04
  9.4677613e-05
 -1.3040465e+00
  6.4964157e-01
  4.9736986e-01
 -3.1359068e-05
 -1.8150178e-05
 -7.7640660e-02
 -2.4747655e+00
  1.9796335e-03
 -5.6581641e-05
  2.2716792e-02
 -5.4824734e-01
  1.5302507e+00
  5.5625234e-05
  1.1542797e-04
  4.5808578e-01
  8.6733007e-01
  3.5918242e-01
  1.1297338e-01
  4.5319590e-01
  4.2310137e-01
  9.7440156e-05
  4.0000400e-01
  3.3655626e-01
 -3.5959950e-01
  4.5043606e-02
  4.9647465e-01
 -2.1005406e-03
  1.0158002e-05
  2.2053545e+00
 -5.9618727e-05
 -1.7090744e-01
  6.1900222e-01
  3.9464414e-01
 -4.2024657e-01
  1.1661358e+00
 -3.1574443e-01
 -3.3876404e-01
 -1.1027536e-04
 -4.2343840e-01
  1.9019254e-01
 -6.7328221e-01
  3.7928951e-01
 -2.9203580e-05
 -3.6773520e+00
 -2.4932386e-05
 -3.4901151e-01
 -2.6877997e-02
 -9.4214731e-05
 -1.2577628e-01
 -1.1434610e-04
 -7.7746326e-01
  5.3289187e-01
  8.2734799e-01
  2.9337678e-05
 -1.0704128e-01
  1.6726325e-01
 -8.8893229e-01
 -2.0586051e-01
  1.1442095e-04
 -1.7291763e-01
 -7.3390132e-01
  1.2541076e+00
 -1.9429119e-05
 -7.6855406e-02
  3.7051445e+01
 -1.0006142e-01
  1.0005722e-01
  1.0033684e-01
  9.9223959e-01
 -5.7208312e-01
 -8.5616136e-01
 -9.9237025e-01
  1.0005744e-01
  5.4698491e-01
 -1.0002910e-01
 -1.0005955e-01
 -1.0000978e-01
  1.0003124e-01
 -1.0006395e-01
  1.0001349e-01
 -1.0007221e-01
 -2.9320827e-01
  1.0001788e-01
  1.0009218e-01
 -1.0000079e-01
  1.0168581e-01
  1.0006902e-01
 -1.0167400e-01
  1.0003182e-01
  1.0001187e-01
 -1.0038676e-01
 -2.4788880e-01
 -1.0060749e-01
 -1.0000219e-01
 -1.0002183e-01
  6.5595269e-01
 -2.2849259e+00
 -9.3795913e-01
  1.0001395e-01
 -1.1388056e+00
  1.4333705e+00
 -1.0003235e-01
  1.0003805e-01
 -1.5151219e+00
  6.4285827e-01
  1.0040299e-01
 -1.0001432e-01
 -1.3213586e+00
 -6.9201487e-01
 -5.8656174e-01
 -1.0006418e-01
  1.0001356e-01
  1.5655291e-01
 -1.2207314e-01
 -3.0017817e-01
 -7.1784145e-01
  3.5440516e-01
  1.0001665e-01
  3.8680235e-01
 -1.0009778e-01
 -1.0000566e-01
  1.0007040e-01
  1.1038960e+00
  1.0001260e-01
 -1.0002532e-01
  1.0002793e-01
 -2.9066384e-01
  1.0013807e-01
  1.0028210e-01
 -1.0009658e-01
  1.7118257e+00
  6.4909697e-01
  1.0008324e-01
  1.0000803e-01
 -1.4558830e+00
 -3.0959136e+00
 -7.0329744e-01
 -1.0003255e-01
 -1.0002091e-01
 -1.0000534e-01
  1.0000427e-01
  1.0025120e-01
  2.3257038e-01
  1.6021492e+00
 -2.0166702e+00
  6.2417901e-01
 -1.0000055e-01
 -1.0002250e-01
  1.2198019e-01
 -1.0000655e-01
 -1.0002148e-01
  2.2414272e-01
 -2.2837073e-01
 -1.2530521e-01
 -1.0003319e-01
 -1.0002837e-01
  1.0002670e-01
 -1.2958783e-01
  1.0136146e-01
  1.0006130e-01
 -1.0000603e-01
 -1.0002375e-01
  1.0004252e-01
  3.4049401e-01
 -1.0000695e-01
 -1.0004836e-01
  1.0013350e-01
 -1.0002159e-01
 -1.1863221e+00
 -1.0003786e-01
 -1.0005349e-01
 -5.7534987e-01
 -9.8555779e-01
 -1.0012656e-01
  4.1486764e-01
 -2.5277147e-01
  5.3534639e-01
  9.2671031e-01
  6.6163701e-01
  2.2146776e+00
 -1.0003021e-01
  1.1262684e+00
  1.0000242e-01
 -1.0001484e-01
  5.4306746e-01
  1.0024076e-01
 -6.7961872e-01
  1.8147935e+00
  1.0001108e-01
  1.0001437e-01
  9.6999711e-01
 -1.0001551e-01
 -1.0000201e-01
 -1.0009855e-01
  1.0180284e+00
 -1.0001598e-01
  3.8094699e-01
  2.0873681e-01
 -1.0000734e-01
 -1.0139454e-01
 -1.0002305e-01
  1.0265432e-01
 -3.8007822e+00
  1.2334885e-01
  1.0000660e-01
 -1.7524254e+00
  1.5058410e-01
  4.7374699e-01
 -2.1359177e+00
  6.4971173e-01
  1.0004351e-01
 -1.4723418e+00
 -1.0001752e-01
 -8.9869636e-01
  4.1275677e-01
 -1.9176471e+00
 -2.6261958e-01
  3.7370422e-01
 -2.1555789e-01
 -1.0006511e-01
  1.0005196e-01
  5.9856945e-01
  1.8242519e+00
  1.2036453e+00
 -2.0371959e+00
  1.0013027e-01
  2.1783648e+00
 -2.2913432e-01
 -1.0000564e-01
  1.0009925e-01
  1.0001900e-01
 -3.0862589e+00
 -2.4664474e-01
 -5.9311479e-01
 -1.7463195e+00
 -1.4585049e+00
  1.0003590e-01
  1.0008717e-01
  3.3578488e-01
 -1.0005658e-01
 -1.0001208e-01
  1.0008191e-01
 -1.0012006e-01
  1.3617586e-01
 -1.1654083e+00
  1.8090868e-01
  4.4988111e-01
 -1.0000843e-01
 -1.2012643e+00
 -2.1416185e+00
  1.8727911e-01
 -1.1576889e-01
 -8.7299216e-01
  7.6136208e-01
  1.4152192e+00
  2.3324251e-01
  1.2036627e-01
 -1.4943402e+00
 -5.8008188e-01
  2.9431832e-01
  1.4753239e+00
  8.3205432e-01
 -8.5176557e-01
  1.0017584e-01
 -1.9702236e-01
  1.0776039e+00
 -9.0427577e-01
 -1.3813926e+00
  1.2064345e+00
  2.8583476e-01
  9.8949379e-01
 -1.7600039e+00
 -1.0002463e-01
 -1.0000019e-01
  7.6508510e-01
 -4.9486735e-01
 -1.5994035e+00
 -8.6038697e-01
 -2.6041417e+00
 -6.7555499e-01
 -7.7726465e-01
  3.0202174e-01
  1.3380252e+00
 -4.2008415e-01
  1.0029563e-01
 -4.1068605e-01
 -1.3901441e+00
  9.0812290e-01
  1.1707025e+00
  1.2916729e-01
  8.1918865e-01
  1.3652387e+00
  6.5841413e-01
 -2.7163321e-01
 -3.3693902e+00
  5.8769399e-01
  1.3978986e+00
  3.2197163e-01
 -1.0000185e-01
  1.0000156e-01
 -1.0003532e-01
  1.8405328e+00
 -4.5598629e-01
  4.1224828e-01
  6.4159834e-01
  7.0915961e-01
  1.0147550e+00
  9.5669287e-01
  1.0171027e-01
 -1.0006781e-01
 -1.0000131e-01
 -1.0008732e-01
  2.2290829e-01
 -2.3419259e+00
 -2.2819993e+00
 -7.2755069e-01
 -7.0687634e-01
  1.0007421e-01
 -1.0000933e-01
  2.4739042e-01
  1.0119500e-01
 -1.0114488e-01
  8.4046304e-01
 -1.0010622e-01
  1.0000115e-01
  5.4104948e-01
  1.0006746e-01
  1.0003238e-01
  3.2404330e-01
  9.4157815e-01
  1.5979029e+00
 -1.0954385e-01
  1.0000081e-01
  1.0279386e+00
 -5.7045352e-01
 -1.0002466e-01
  9.2989051e-01
  6.6491973e-01
  2.1533628e+00
  1.0008299e-01
 -1.9093188e+00
 -1.7626288e+00
 -1.1506398e+00
  2.1429620e+00
  1.2495625e-01
  1.0878719e-01
 -1.0002710e-01
  1.0166961e-01
  3.2603958e-01
 -3.5626206e-01
  5.9952199e-01
 -1.1779956e+00
  5.3278601e-01
  1.0004008e-01
  1.0013477e-01
 -1.0001991e-01
  6.0285109e-01
  9.3427241e-01
  1.7175788e-01
 -2.1054089e-01
 -1.0003892e-01
  3.3473092e-01
  1.4493321e+00
 -1.0029882e-01
 -1.0381316e-01
  9.4277692e-01
  1.1033287e+00
  5.0812793e-01
 -8.0227107e-01
 -2.5002792e-01
  7.8891814e-01
 -1.3671970e-01
  4.8093361e-01
 -1.4155198e+00
 -5.5837089e-01
 -1.0002207e-01
  1.9471234e+00
  1.1212939e+00
  1.2559388e+00
  5.2442133e-01
  5.4839027e-01
  2.4037297e+00
  1.5146950e-01
 -1.3882531e+00
 -8.6988592e-01
  2.3557231e+00
 -5.2130336e-01
 -2.6412973e-01
  4.2279643e-01
 -1.0001907e-01
  1.4976069e+00
  1.4389739e+00
 -1.0768597e+00
 -1.3995389e+00
  3.7783437e+00
 -8.4061742e-01
 -1.7801211e+00
  1.0046834e-01
 -1.0141574e-01
 -2.3322681e-01
 -4.5816842e-01
  1.0014918e-01
 -1.0011479e-01
  1.2155826e+00
 -1.0021308e-01
 -9.3241262e-01
  1.5403399e-01
  1.8167882e+00
  1.2207360e+00
  2.6559451e+00
 -2.1943024e-01
 -1.0005149e-01
 -1.0000692e-01
 -2.0675546e-01
  1.3287507e+00
  7.1856248e-01
  3.3600575e-01
 -1.0196706e+00
  1.7979330e+00
  1.0006382e-01
 -9.9682105e-01
  1.0317369e+00
  1.1443101e+00
  1.0000054e-01
  1.9165547e+00
  3.3722100e-01
 -1.8922911e+00
 -4.7507706e+00
 -1.0000136e-01
 -1.0016505e-01
  2.0417864e+00
 -1.1132731e+00
 -1.3491774e+00
  2.7280265e-01
  1.0029531e-01
 -2.8136337e-01
 -2.5512328e+00
 -4.4614670e-01
 -4.9034095e-01
 -1.0001919e-01
 -5.4208553e-01
 -1.0005055e-01
 -2.4124100e+00
 -2.2103264e+00
 -7.9231644e-01
 -4.9232140e-01
  3.8099504e-01
 -6.7150873e-01
 -1.0000086e-01
 -8.6416733e-01
 -3.9205343e-01
  3.5051107e-01
 -3.1782792e+00
 -1.9068875e+00
 -8.2830656e-01
 -1.0000929e-01
 -1.0032438e-01
  1.8222361e+00
 -1.6310742e-01
  1.0012342e-01
  2.8201592e-01
 -1.9057879e+00
 -1.0837166e-01
 -1.1130183e+00
  1.0000429e-01
  1.0000082e-01
  6.9772243e-01
 -1.0581652e+00
 -2.8103063e-01
  3.0462039e-01
 -1.9888863e-01
 -3.9915657e-01
  1.2691392e-01
 -3.1013817e-01
  1.0004184e-01
 -7.7151769e-01
  4.5338130e-01
 -1.7958183e+00
 -1.1592364e+00
  1.0005229e-01
  1.0001602e-01
  5.8977181e-01
  1.0004970e-01
  1.4613321e-01
  7.6667643e-01
 -1.0007998e-01
 -2.3012587e-01
 -1.3259217e-01
 -1.7452064e-01
 -1.2125994e-01
 -3.8482287e+00
 -1.0000081e-01
 -1.2605617e+00
  5.7954913e-01
 -1.0007615e-01
  3.3368013e+00
 -2.8276103e+00
 -1.2142932e-01
 -3.0814338e-01
 -1.0199908e+00
  1.9675833e-01
 -9.7031087e-01
  7.9339784e-01
 -5.3539592e-01
  8.7086308e-01
 -8.9897186e-01
  1.0042417e-01
 -1.0000028e-01
  1.7850293e-01
  7.0308793e-01
  1.0007241e-01
 -2.3579147e-01
 -4.8398358e-01
 -2.6594973e+00
  1.5517541e+00
  7.2589201e-01
 -1.6968197e-01
  5.1415235e-01
  8.2156223e-01
 -7.6977229e-01
  1.5999340e-01
 -1.0000030e-01
  1.6184084e+00
 -5.6232119e-01
 -9.3215817e-01
  5.0608605e-01
 -4.5551130e-01
  1.4425787e+00
  1.0199459e+00
  1.6764495e+00
 -6.7586911e-01
 -6.4659750e-01
  8.0813617e-01
 -4.0112057e-01
 -4.7110441e-01
 -1.1600204e+00
  1.7860962e+00
 -9.2909271e-01
 -1.8998138e+00
 -4.3784794e-01
 -1.1664371e+00
  7.6983815e-01
 -2.2924354e+00
 -1.0002615e-01
 -1.0346176e-01
  1.0453395e+00
 -1.0004546e-01
 -7.3415041e-01
 -1.0000233e-01
 -1.3168759e+00
  6.3174176e-01
 -2.1574304e-01
  1.0004915e-01
  5.5502141e-01
 -1.0006199e-01
 -6.8839508e-01
 -1.0705414e+00
  4.1891578e-01
  1.6756694e+00
 -2.4740794e-01
 -1.0008163e-01
 -1.0001287e-01
  1.0001693e-01
  1.0000569e-01
 -1.0001845e-01
  1.0000052e-01
 -1.0004728e-01
  1.0006138e-01
  1.0005075e-01
  1.0002391e-01
  1.0091554e-01
  1.0000443e-01
  1.0000031e-01
  1.0005511e-01
 -1.0008860e-01
 -1.0002735e-01
  1.0019258e-01
 -1.9268709e+00
 -1.6053784e-01
 -1.0070275e-01
  5.2445519e-01
  4.4618511e-01
  1.0000300e-01
  4.8856404e-01
  1.0339668e+00
  1.2785749e+00
  3.3470106e-01
  1.0007115e-01
 -1.0013416e-01
 -1.0000099e-01
 -1.0009849e-01
 -1.0003663e-01
  2.0103688e+00
 -1.0007046e-01
  1.9814949e-01
 -4.2983997e-01
  1.0003529e-01
  3.2096124e-01
  1.0004757e-01
  7.2423613e-01
 -1.0018170e-01
 -4.9218187e-01
 -1.0006853e-01
  1.5732983e+00
 -1.7854480e+00
 -1.7697310e-01
 -7.0860076e-01
  1.5641974e-01
 -1.0006925e-01
 -1.2263901e+00
 -5.5547273e-01
  1.4168512e+00
  1.0007385e-01
 -7.3424882e-01
  1.0021925e-01
  1.0040404e-01
  9.8506218e-01
  1.6221793e-01
 -1.0001431e-01
  1.8224570e-01
  6.9877356e-01
  2.7242513e+00
 -3.8961554e-01
 -1.2480566e-01
 -1.0000098e-01
  5.2034628e-01
  1.4603136e-01
 -5.4278940e-01
 -3.7895328e-01
 -1.0000303e-01
  3.8076797e-01
 -1.0000101e-01
 -5.9262663e-01
 -1.0014977e-01
  1.2911731e+00
  5.4881233e-01
  2.5686264e+00
 -9.6259040e-01
 -1.1372389e-01
  2.8979704e-01
  1.4976250e+00
 -1.0002892e-01
  1.0000262e-01
 -9.9914479e-01
 -1.0010702e-01
 -1.0030138e-01
 -1.0002889e-01
  1.0005565e-01
  1.0010327e-01
  1.0006701e-01
 -1.0109116e-01
  1.0011864e-01
  2.8068981e-01
  1.0003930e-01
  1.2296489e+00
  1.9809531e+00
  1.0001444e-01
 -8.8703412e-01
 -1.0005812e-01
 -1.0023710e-01
  2.3396486e-01
 -8.7161493e-01
 -1.8214417e-01
  2.0113208e+00
  4.3481961e-01
  1.1745547e-01
  7.7130467e-01
  1.0310005e+00
  1.0003625e-01
  1.0000654e-01
  1.0000592e-01
  1.0006735e-01
 -1.0035359e-01
 -2.4425852e+00
 -1.0022907e-01
 -8.7566501e-01
  8.2491219e-01
 -1.0001277e-01
 -1.0000795e-01
 -5.6646711e-01
  1.4441201e-01
  1.8480718e+00
  3.6492616e-01
  1.0004254e-01
 -1.9670224e-01
  1.2472148e+00
  2.4630594e-01
  5.0993127e-01
  3.6791009e-01
 -1.0007706e-01
  9.2781615e-01
  2.1356441e-01
  1.0007352e-01
  9.1111499e-01
 -3.1072369e-01
  1.1990429e-01
 -3.1790012e-01
 -1.0555791e+00
 -6.7990434e-01
 -1.0923805e-01
  5.1394928e-01
  2.0607466e-01
 -1.4630988e-01
  2.7820249e+00
  1.0000523e-01
  1.1085140e-01
 -7.8449255e-01
  1.3932383e+00
  2.5029719e+00
 -1.0120142e-01
  5.7948399e-01
  1.0001092e-01
  1.0767670e-01
 -3.3265606e-01
 -4.3766600e-01
  5.0533643e+00
 -1.4189973e+00
 -8.1092745e-01
  1.0034214e+00
 -9.5179749e-01
 -1.8847433e+00
  2.0787437e+00
  1.0006019e-01
 -1.0017006e-01
  5.6499887e-01
  1.0002514e-01
 -1.0005671e-01
 -2.1016405e+00
 -1.4059567e-01
 -5.4310155e-01
 -2.2368879e+00
 -1.1280572e-01
  1.0005375e-01
  1.2511709e-01
 -1.0000221e-01
  3.8796550e-01
  3.6567605e+00
  2.3831823e-01
  9.3529809e-01
  1.2948484e+00
  1.0002269e-01
  1.0000186e-01
  1.9891036e-01
  1.0007800e-01
 -2.8682673e-01
 -1.2716320e+00
 -2.9613703e-01
  8.8081163e-01
  6.0331535e-01
 -1.0011760e-01
  3.6471671e-01
  6.6706628e-01
  5.8720559e-01
  5.9157896e-01
 -9.9218571e-01
 -5.4850882e-01
 -2.0946033e+00
 -2.3594739e+00
 -1.0245804e-01
 -7.0038491e-01
  7.2894865e-01
 -6.1363798e-01
  9.4984382e-01
 -4.1646042e-01
  5.5871665e-01
 -3.1100231e-01
  1.6895915e+00
 -5.0007588e-01
  5.5585116e-01
 -1.6258283e+00
 -1.0003152e-01
 -4.4468737e-01
 -1.0767355e+00
  2.5391011e+00
  8.4882230e-01
 -1.9024697e-01
 -6.1535203e-01
 -2.4460047e-01
 -1.3248323e+00
  9.7466654e-01
  1.5698724e+00
  2.3527536e-01
 -1.0000490e-01
 -2.5603166e+00
 -1.0000387e-01
 -1.0008804e-01
 -1.0240227e+00
 -9.8951930e-01
  1.0006224e-01
 -9.0868187e-01
 -1.8627983e+00
 -1.0609784e+00
 -1.8460407e+00
 -1.3246336e+00
 -1.0003328e-01
  1.0002187e-01
  1.2392248e+00
  1.0015941e-01
  7.6325798e-01
 -7.4764585e-01
  1.0013028e-01
 -1.0807503e+00
 -5.4037350e-01
  1.0005061e-01
  1.0006008e-01
  1.0017332e-01
 -1.0030756e-01
 -1.0000028e-01
  1.0024570e-01
 -1.0000255e-01
 -1.3282863e+00
 -1.0005806e-01
 -1.0004164e-01
  1.0002818e-01
  1.1800101e+00
  1.0011435e-01
  8.1833643e-01
 -1.0001602e-01
  1.0007969e-01
  4.3301448e-01
  1.0001418e-01
  1.0000434e-01
  1.0003547e-01
  1.0022443e-01
 -1.0022006e-01
  3.2582002e+00
 -4.1269678e-01
  1.0000378e-01
 -3.1147792e+00
 -1.0034785e-01
 -1.0030583e-01
  1.0003843e-01
  4.2386630e-01
  1.0004534e-01
  1.0463460e-01
 -1.0006889e-01
 -1.0000414e-01
 -5.1502323e-01
 -1.0015093e-01
  1.0006204e-01
  1.0046218e-01
  2.8947076e-01
 -1.0003632e-01
 -1.5653384e+00
  1.8183990e+00
  1.0001680e-01
  2.3770268e+00
 -8.2452399e-01
 -1.0003055e-01
 -1.0000383e-01
  3.1280136e-01
  1.0015498e-01
 -1.0000238e-01
 -1.0000467e-01
  1.0070360e-01
 -1.4283080e+00
  2.0901725e-01
  1.0001387e-01
  1.0006636e-01
  3.8485539e-01
  1.0007303e-01
  1.0014247e-01
  1.5399100e-01
 -3.4247142e-01
 -2.3561339e+00
  1.0004710e-01
 -1.0027742e-01
 -1.0052069e-01
  5.5324048e-01
  1.0000551e-01
  3.5453621e-01
  4.1093180e-01
  1.7794329e-01
 -8.4412020e-01
  1.0016566e-01
 -1.0031523e-01
 -1.6976383e+00
 -1.0025014e-01
 -3.4698647e-01
 -8.0410904e-01
 -6.5893459e-01
  1.0001884e-01
 -1.5163517e-01
  1.7672894e+00
 -1.0000357e-01
 -1.0006338e-01
 -1.0201993e-01
 -1.0013749e-01
 -1.0002147e-01
  1.0007579e-01
  1.0027239e-01
  1.0009852e-01
  1.0001098e-01
 -1.0002914e-01
 -1.0558448e+00
  1.0006003e-01
 -1.9289128e-01
 -1.0446763e+00
  1.8054026e+00
 -4.1279313e-01
 -6.9397050e-01
 -1.0000821e-01
 -1.0005615e-01
 -2.8251818e-01
 -4.2191476e-01
 -1.0029274e-01
 -8.5866702e-01
  4.1065577e-01
 -1.0004573e-01
 -9.7162557e-01
  1.0024519e-01
 -1.0003330e-01
 -2.7409711e-01
 -1.0001546e-01
 -1.0054887e-01
 -5.1846987e-01
 -1.0010568e-01
 -6.6232282e-01
 -1.4219544e+00
  8.7481570e-01
 -1.0014588e-01
 -8.2248545e-01
 -8.5525775e-01
 -1.0001124e-01
 -1.0296950e-01
 -1.3727568e+00
  1.0189682e-01
 -7.8549600e-01
  5.1498371e-01
 -1.0003130e-01
 -3.0023849e-01
  1.0002366e-01
 -1.0054988e-01
  1.0010865e-01
  1.0959774e-01
  1.0003796e-01
 -9.3816417e-01
 -1.0001697e-01
 -1.0007707e-01
 -3.4473029e-01
  1.0027236e-01
 -1.0000642e-01
  1.0000028e-01
  1.8967521e+00
  1.0005828e-01
  1.0000539e-01
 -1.0006465e-01
 -1.0012113e-01
 -8.9725232e-01
 -1.3441634e-01
 -1.0000288e-01
 -1.0020379e-01
  8.4784603e-01
 -1.0019194e-01
 -6.5473300e-01
  1.2145441e+00
  1.0005378e-01
  1.0000782e-01
  1.0003541e-01
  1.0014725e-01
 -1.0010439e-01
 -1.1946959e+00
  2.2385986e+00
  9.4872433e-01
 -2.7936047e-01
  1.0011351e-01
  1.0011264e-01
 -1.0003544e-01
  1.0000449e-01
  1.0006168e-01
 -1.0006703e-01
  1.0003989e-01
 -1.0008428e-01
 -1.0010272e-01
 -1.0002173e-01
  1.0000252e-01
  1.0002206e-01
  1.0001411e-01
  1.0020141e-01
  1.0003195e-01
  8.5999572e-01
 -4.5171160e-01
  1.0000325e-01
  1.0001625e-01
  1.0023229e-01
  1.0009088e-01
  1.0000948e-01
  1.0002138e-01
 -2.3235245e+00
  9.2961550e-01
  1.0003362e-01
 -1.0000069e-01
 -1.0012055e-01
 -1.0003365e-01
  1.0001129e-01
  1.0005329e-01
  1.0064983e-01
  3.2464391e-01
  7.2823805e-01
  1.0005790e-01
 -1.0016467e-01
  1.0008387e-01
  1.0006446e-01
 -1.0050631e-01
  1.0007379e-01
  1.0002901e-01
  2.6854503e-01
  8.1270051e-01
 -1.8834026e+00
 -1.0000255e-01
 -1.0009146e-01
 -1.0001601e-01
  1.0028705e-01
  1.0006603e-01
  1.0000157e-01
  3.7441725e-01
  5.7397485e-01
 -1.9318565e+00
 -1.7017275e-01
  1.0002075e-01
  1.0011356e-01
  1.0003893e-01
  1.0002854e-01
  1.0007893e-01
  1.8604797e-01
  1.2010770e+00
 -5.4653496e-01
  1.0000939e-01
 -1.0000201e-01
 -1.0007013e-01
  1.0002536e-01
  1.0011642e-01
 -1.0005084e-01
  8.7507039e-01
  1.1946076e+00
 -5.8746958e-01
 -1.0048722e-01
  1.0000465e-01
  1.0005336e-01
  1.0017225e-01
  1.0008933e-01
 -1.0004906e-01
 -1.3092128e+00
  6.4132768e-01
 -1.2881114e+00
  1.5123779e-01
 -1.0014505e-01
 -1.0005234e-01
 -1.0001797e-01
 -1.0015585e-01
 -1.0012381e-01
 -1.0012665e-01
  1.0000062e-01
  1.0000090e-01
  1.0000591e-01
 -1.0000858e-01
 -1.0004284e-01
  1.0001922e-01
  2.5237760e-01
  1.0057973e-01
 -2.7306101e+00
 -1.0001020e-01
  1.0003643e-01
  1.0160770e-01
 -1.0001754e-01
  1.0009889e-01
  1.0018951e-01
 -1.0011568e-01
 -5.0997090e-01
 -2.8089056e+00
  1.1219600e-01
 -1.3881715e-01
  1.0012109e-01
  1.0000424e-01
 -1.0006177e-01
  1.0002509e-01
  4.5785606e-01
  2.5138122e-01
 -1.0429195e+00
  1.0008726e-01
 -9.7718006e-01
 -1.0006024e-01
  1.0002556e-01
  1.0064863e-01
 -1.0009421e-01
 -1.0002768e-01
  1.0000427e-01
  4.2520723e-01
  5.7232445e-01
 -3.5594705e-01
  1.3587649e-01
 -1.0003858e-01
 -1.0005008e-01
  1.0002591e-01
  2.6216671e-01
 -1.0000392e-01
  3.3993515e-01
  1.0000560e-01
 -3.6109892e-01
 -1.0000226e-01
  1.0000446e-01
  1.0002360e-01
 -1.0001194e-01
  1.0005997e-01
 -1.0000238e-01
  2.3224863e-01
  2.7581963e-01
  1.0002801e-01
  6.7079645e-01
 -1.0003529e-01
 -1.0004650e-01
  1.0040598e-01
  1.0000095e-01
  1.0004528e-01
  1.6790137e-01
  1.0024656e-01
  5.3542483e-01
 -1.0004544e-01
  1.7245078e+00
 -1.0001612e-01
 -1.0010331e-01
 -1.4775936e-01
  1.0044542e-01
  3.6902802e+00
 -3.0790955e-01
 -1.6574044e+00
 -1.0001891e-01
  1.0023233e-01
 -1.0001562e-01
  1.0003059e-01
 -1.0000312e-01
 -1.0003092e-01
  1.0002883e-01
 -1.0007238e-01
 -1.0002665e-01
  1.0081746e-01
  1.4094013e+00
 -1.0017857e-01
 -1.0001992e-01
 -1.0002771e-01
  3.5439768e-01
  1.1589570e+00
 -1.2807256e-01
 -5.8536839e-01
  4.4363347e-01
  1.0026995e-01
 -1.0000569e-01
  1.0000335e-01
 -1.0053054e-01
 -1.0622702e-01
 -3.8307524e-01
 -1.0001324e-01
  1.0666437e+00
  1.0107516e-01
  7.5047427e-01
 -1.0001838e-01
 -1.0007112e-01
 -1.0002059e-01
  4.5492142e-01
  9.3958902e-01
  1.0002301e-01
  1.7501733e+00
  4.3465778e-01
  5.7833529e-01
 -1.0000229e-01
  1.0003214e-01
 -1.4903985e-01
 -1.0004832e-01
 -1.9505305e+00
 -1.0048846e-01
 -1.6372191e+00
  6.9361174e-01
  4.1353795e-01
 -1.0002607e-01
 -1.0025903e-01
 -1.0001970e-01
  1.0008459e-01
 -1.0000880e-01
  1.0001948e-01
  9.5422035e-01
 -1.0003232e-01
  6.2187564e-01
 -1.0009686e-01
  1.0003431e-01
 -1.0001273e-01
  1.0000427e-01
  6.6690564e-01
 -4.6562117e-01
  1.0392127e+00
  1.7323352e+00
  4.8272803e-01
 -1.0000261e-01
 -1.0000675e-01
 -1.0001738e-01
  1.0001575e-01
  6.6112804e-01
  1.0000119e-01
  1.5872738e-01
 -1.0000405e-01
 -1.0002024e-01
 -1.0023033e-01
  1.0001250e-01
  1.0004829e-01
 -1.0023155e-01
  1.0000329e-01
 -1.0004318e-01
 -5.3060228e-01
  1.9268614e+00
  1.0000443e-01
  1.0017470e-01
  1.0019645e-01
  1.0001786e-01
 -1.0013977e-01
 -1.0004184e-01
  1.0000131e-01
 -1.0027950e-01
  1.0004468e-01
 -1.0002077e-01
 -1.0000490e-01
  1.0033263e-01
  1.0003524e-01
 -1.0003582e-01
 -1.4655872e-01
 -1.0997134e-01
  1.0000243e-01
  2.0561213e+00
  1.0024330e-01
  1.0028625e-01
  1.0004035e-01
  1.0001102e-01
 -1.0000479e-01
  1.0000312e-01
  1.0052996e-01
 -1.7695228e+00
  1.0063902e-01
 -1.0004698e-01
 -1.0003459e-01
  1.0016274e-01
  1.0003978e-01
 -1.0003554e-01
 -1.0014591e-01
 -3.3513343e-01
  1.0009723e-01
  1.4764532e+00
  1.0012306e-01
 -1.0002357e-01
  1.0040003e-01
  1.0000161e-01
  1.0000018e-01
  4.4380760e-01
  1.0001533e-01
  1.0419776e+00
  3.7791246e-01
 -1.0056053e-01
 -1.0000843e-01
  1.0005776e-01
  1.0001861e-01
  1.0027543e-01
 -3.0796126e-01
 -6.0196954e-01
  1.0001684e-01
  1.2237120e+00
  1.0003798e-01
 -1.0021336e-01
  1.0000241e-01
  1.0003010e-01
 -1.0008807e-01
 -1.0001979e-01
  1.0000688e-01
 -1.4274648e+00
  6.5731645e-01
 -1.0005877e-01
 -1.0000634e-01
  1.0000217e-01
  1.0008319e-01
 -1.0001495e-01
 -7.0371407e-01
 -5.7402736e-01
  1.0003123e-01
  1.8674313e+00
  1.0001467e-01
 -1.0002340e-01
 -1.0171459e-01
 -1.0016424e-01
 -1.0073783e-01
 -8.4502912e-01
  1.1529460e-01
  1.6428621e+00
  1.0000230e-01
 -1.0014465e-01
  1.0007060e-01
 -1.0002889e-01
 -1.0000884e-01
 -1.0003304e-01
 -1.0001287e-01
 -1.0000171e-01
 -1.0001147e-01
  1.0016925e-01
  1.0008563e-01
 -1.0003349e-01
  2.9587239e-01
 -1.0022628e-01
  1.0008044e-01
 -3.6729664e-01
  3.2546747e-01
  5.4594481e-01
 -2.3119754e-01
  1.0014369e-01
  1.0011540e-01
  1.0002080e-01
 -1.0009433e-01
 -1.0611584e-01
  2.7809915e-01
 -1.0000198e-01
 -1.0003083e-01
 -1.0027878e-01
  1.0027970e-01
 -1.0017252e-01
  4.2696181e-01
  1.0000733e-01
  1.0001030e-01
  1.0798777e+00
  5.0781864e-01
  7.8296411e-01
 -2.9068497e-01
  1.0000362e-01
  1.0001902e-01
  1.0002134e-01
 -1.0024258e-01
 -1.8376175e-01
 -5.9624618e-01
 -1.0001257e-01
 -1.0000286e-01
 -1.0023737e-01
 -1.0001650e-01
 -1.0031816e-01
  3.0516270e-01
  1.0001626e-01
 -1.0003539e-01
 -9.1503048e-01
  4.1383642e-01
 -1.0000820e-01
 -1.0018042e-01
  1.0020693e-01
  1.0001321e-01
  1.0000079e-01
 -1.0001742e-01
  1.0013170e-01
 -2.2574058e-01
 -1.0001578e-01
  1.3349850e+00
 -1.0000879e-01
 -1.0001156e-01
 -1.0000446e-01
  3.9854199e-01
 -1.0002811e-01
  1.0002419e-01
 -5.1349747e-01
  1.0024584e-01
  1.0116276e+00
 -1.0001736e-01
  2.6244445e-02
  2.6244445e-02
  2.6244445e-02
  2.6244445e-02
  2.6244445e-02
  2.6244445e-02
  2.6244445e-02
  2.6244445e-02
  2.6244445e-02
  1.2631857e+00
  1.2631857e+00
  1.2631857e+00
  1.2631857e+00
  1.2631857e+00
  1.2631857e+00
  1.2631857e+00
  2.9592264e-01
  2.9592264e-01
  2.9592264e-01
  2.9592264e-01
  2.9592264e-01
  2.9592264e-01
  2.9592264e-01
  3.0859670e-01
  3.0859670e-01
  3.0859670e-01
  3.0859670e-01
  3.0859670e-01
  3.0859670e-01
  3.0859670e-01
  5.0496344e-02
  5.0496344e-02
  5.0496344e-02
  5.0496344e-02
  5.0496344e-02
  5.0496344e-02
  5.0496344e-02
