nep4_zbl 2 C H 
zbl 0.5 1
cutoff 8 4 374 54
n_max 8 6
basis_size 12 12
l_max 4 2 0
ANN 50 0
  6.2051315e-02
 -6.2322048e-05
  3.0837375e-05
  2.0665402e-05
 -2.3104849e-05
  1.5537311e-04
  2.8172535e-05
 -2.4211602e-05
 -7.6630000e-05
 -1.2194547e-05
 -7.0471060e-06
 -2.1369056e-05
 -1.5408566e-05
  3.5331341e-06
  5.4266302e-06
  1.7139935e-05
  1.6687463e-05
  9.0446101e-06
  2.0857537e-06
 -1.6379799e-05
  2.6712851e-06
  1.6094726e-05
 -2.5587633e-06
  3.6070036e-05
  1.7117060e-05
 -8.6310400e-05
 -3.9520783e-05
 -4.1201834e-05
 -2.8035274e-05
  9.8611003e-05
  1.3587868e-04
  1.9779525e-05
 -4.1371008e-05
  1.2447892e-05
 -1.1808001e-05
  1.3900831e-05
 -4.8148459e-06
  3.5339122e-05
 -4.4595832e-05
  1.5910250e-06
  2.0105560e-06
 -2.6015448e-07
 -7.4717573e-06
  1.0902825e-05
  1.3405288e-05
 -1.6359458e-05
 -7.5177020e-05
 -1.6581596e-05
 -2.4698362e-05
  1.1963431e-05
 -2.6655257e-06
 -5.5446671e-06
 -2.2636470e-05
  9.4266819e-05
  2.1077535e-06
 -8.5534781e-01
 -7.8330348e-05
 -4.1516732e-06
 -8.1436485e-07
  2.3778008e-05
 -1.6931900e-06
  1.7968383e-05
 -5.5732535e-06
 -2.8050697e-05
  1.2107871e-05
  1.7036731e-05
 -8.1354528e-06
  1.9522620e-06
 -2.7375938e-06
 -4.5559613e-05
  3.1834694e-05
 -2.3245297e-05
  1.6713735e-05
 -2.7365459e-05
  3.6255701e-06
  8.3227460e-05
  4.5771958e-06
  3.3229720e-05
  5.3420710e-05
  3.7370305e-06
 -1.2064592e-05
  8.3386276e-06
 -6.3734376e-05
 -6.3503167e-06
 -4.7585081e-06
 -1.3339025e-05
  6.4133113e-04
  8.0317886e-06
 -2.2543823e-06
  1.1271052e-05
 -3.7039856e-05
  3.9686819e-07
  1.3965861e-05
  3.9877259e-06
 -1.2444209e-05
  4.7590660e-05
 -1.5144501e-05
 -8.6470091e-06
  2.6096826e-04
  4.0860734e-05
  8.0042937e-06
 -4.7245566e-04
 -2.1052449e-05
  8.2648404e-07
 -9.7174825e-06
 -3.6864982e-05
 -1.6778466e-05
  7.7706145e-06
  2.5122201e-05
  3.1619773e-05
  2.0666375e-05
 -9.7896718e-06
  6.3145038e-05
 -2.5763233e-05
  5.9624130e-05
  7.3117894e-07
 -3.2549709e-05
  4.7404383e-06
 -1.7363878e-04
  2.2044493e-05
  2.3113633e-05
  1.4287097e-05
 -3.3066419e-05
  1.3880984e-07
 -1.2344768e-05
  2.6837577e-06
 -2.7172839e-06
  7.7191789e-06
 -5.2888231e-06
 -2.0202842e-05
  1.1362913e-05
 -1.1221302e-06
  7.0733744e-01
 -9.6777849e-06
  7.4090647e-05
  2.1166207e-02
 -5.4073631e-04
  2.8818103e-02
  8.6664855e-02
 -3.3760483e-03
 -1.1483917e-01
 -1.5235286e+00
  5.0580347e-01
  9.8914541e-03
 -3.8897038e-01
 -2.6829861e-02
 -1.5089574e+00
  4.5878854e-01
 -2.8054031e-02
  6.7326707e-01
 -1.7432466e-03
  9.1847472e-02
  1.4363916e-04
  4.6903451e-04
  8.4080428e-01
  6.0390331e-02
 -1.0894841e-03
  4.1607478e-01
  2.1808094e-04
 -2.4552958e-03
 -4.5600238e-01
  3.7784564e-01
 -3.9062318e-01
  5.4071218e-02
  1.2775189e-01
  5.8775954e-04
 -3.8460544e-01
 -1.0250589e-02
  1.0182194e-01
  2.1735691e-01
  1.6731134e-05
 -2.3225582e-01
 -4.5388818e-02
 -4.3378863e-05
  2.3581604e-05
  1.6500716e-01
  4.2739352e-06
 -2.0344673e-06
 -8.3414352e-06
  2.3748831e-05
 -4.5240144e-05
  1.8323517e-01
  1.4600368e-05
 -4.4659400e-06
  9.5563573e-06
  8.4562344e-06
 -3.0359133e-05
 -2.1250515e-05
  2.7328759e-05
 -3.0573949e-05
 -1.0926849e-05
  4.3534794e-05
 -2.2723159e-04
  5.5805376e-05
 -2.3542928e-07
  8.8388251e-06
  2.0655096e-05
  1.8564604e-05
  8.5435058e-05
 -1.1979345e-05
 -3.3384686e-06
 -1.7970828e-05
  6.4080009e-06
  7.8910416e-06
 -8.7113858e-06
  5.7088342e-05
  1.4531225e-05
 -1.3351611e-05
 -3.0811985e-05
 -1.8995175e-05
 -1.9061936e-05
  1.1960009e-05
  4.6502399e-05
  2.2468728e-05
  1.0068231e-05
  1.3207450e-06
  9.7971076e-07
  3.0727635e-06
 -1.8122410e-05
  3.5052959e-05
  7.1808726e-01
  8.9574423e-06
 -3.8216858e-05
 -1.2536390e-01
  4.0631264e-04
 -7.7597374e-01
 -2.7515620e-04
  3.7643558e-01
 -3.2151067e-01
 -2.2256157e-01
 -1.0384945e+00
  3.4333803e-05
 -2.7463013e-01
 -1.9195481e-01
  3.1482053e-01
  2.5815773e-01
 -1.4155228e+00
  7.2729307e-01
 -1.8782718e-01
 -1.4200230e+00
  6.8702258e-02
 -1.2359953e-02
 -2.3224888e+00
  3.0681673e-01
 -1.3652710e-02
 -4.0025169e-01
  4.2282775e-01
 -8.5235189e-04
  2.7237037e-01
 -3.5864869e-01
  4.3458756e-02
  6.6525795e-02
  3.6844140e-01
 -9.6778816e-01
  4.6253136e-01
  9.5639706e-01
 -4.1564810e-01
  2.3221280e-02
 -5.3327312e-05
  2.9531748e-03
  4.7029883e-01
 -9.5306503e-05
  1.1928642e-04
  2.5712031e-01
  1.3983490e-01
  2.5338964e-05
  2.3061733e-05
 -1.0370960e-05
 -1.5833610e-05
 -7.9131705e-06
  2.2566737e-06
  7.1152390e-06
 -1.4189379e-05
  7.1340175e-05
 -3.2400752e-05
  4.0676645e-05
 -1.3502719e-06
  1.2699080e-05
  1.8749464e-05
 -5.5531918e-06
  4.7857070e-06
  6.8941040e-06
  5.9855529e-06
  1.2251349e-05
 -3.9300230e-05
  2.3716220e-05
  3.2729167e-05
  3.3129299e-06
 -2.5111609e-05
  2.5125089e-06
 -6.9478338e-06
  1.3870793e-05
  9.6067906e-06
 -1.0284358e-05
  1.7405127e-05
  1.0595139e-05
  2.0845648e-06
  1.9814981e-06
  3.0675976e-05
 -2.4847453e-04
 -2.9121652e-06
  4.0961145e-06
 -3.3052438e-05
  3.3634467e-05
 -5.0951985e-07
  5.0919618e-05
 -4.6820155e-06
 -1.4429263e-05
 -4.4242483e-02
  7.5753815e-02
 -9.2973307e-05
 -1.5104164e-02
  6.9817066e-02
 -3.7944755e-03
 -5.8075887e-01
  5.5152392e-01
  4.2914641e-01
  2.1599016e-01
 -2.5479889e-01
 -5.3678507e-01
 -4.2854282e-03
  5.6602383e-01
  3.3148992e-01
 -1.1537529e+00
  1.2821856e+00
 -1.4633764e-01
  3.3253917e-01
 -3.3765760e-01
  3.3826023e-01
  8.9415407e-01
 -2.4221127e+00
  9.6521300e-01
 -3.9537066e-01
  1.2876203e+00
 -3.2678912e-05
  1.0063178e-05
  1.2838714e+00
 -3.8223747e-02
  1.2084032e-01
 -5.1065129e-01
  4.4163838e-01
 -1.0070988e+00
  5.5536860e-01
 -1.9659866e-02
  1.9702373e+00
  8.7034382e-02
  1.9346053e-02
  4.8592481e-01
  1.2363245e-01
 -1.6695155e-03
  2.6621638e-05
  2.7158517e-01
 -8.4858884e-06
 -1.2304077e-05
 -4.4743192e-06
 -2.5074803e-06
  2.6668779e-06
  3.2916647e-01
 -1.8868237e-05
  1.2570419e-05
  3.2613934e-05
  5.1338640e-05
  1.0745837e-01
 -3.2151758e-05
  1.5243527e-05
 -1.0177083e-04
 -2.1348729e-05
  2.5256903e-05
 -8.3379513e-05
 -5.7307167e-05
  2.1456000e-05
  2.5958760e-05
  6.8492759e-06
 -3.8754915e-06
  4.9217240e-05
 -2.7175178e-05
  3.3591725e-06
  3.9043654e-05
 -1.8463621e-05
  6.3171574e-06
  9.9526682e-05
 -9.4531584e-05
  3.8042002e-05
 -5.6594621e-05
 -5.7007877e-05
  7.0333372e-05
 -1.1552185e-04
  1.1693766e-04
  1.7132466e-05
  6.7297833e-06
 -4.9345617e-06
  2.9204011e-05
 -7.7173945e-06
 -7.0371811e-05
  1.0177976e-05
  1.5614789e-04
 -2.0912372e-01
  4.5942626e-04
 -4.0669935e-03
  2.8688938e-03
  1.1198766e-01
  1.1328746e+00
 -1.3527926e+00
 -2.3469611e-05
 -1.2188101e+00
 -1.9922098e-03
 -1.1988610e+00
  3.2201575e-04
 -7.3953646e-01
  9.6231200e-02
 -9.9504375e-01
  1.9164929e-01
  1.6996318e-02
 -4.2092496e-01
 -7.6859540e-01
  7.9273120e-02
 -9.6012318e-01
 -7.8240234e-01
 -9.0580635e-02
  2.3270242e-01
  6.5317385e-02
  3.7039676e-01
  1.1021212e-01
  4.8365789e-03
 -5.9833797e-03
  9.3876161e-02
  5.5912840e-01
 -6.5977401e-01
  9.1512793e-01
 -3.4060251e-02
 -5.0212580e-01
 -3.3282187e-02
 -1.2412312e+00
  1.0119362e+00
 -3.5325825e-01
 -2.7955109e-01
  3.9699965e-04
  1.6375470e-01
  4.1718551e-05
  3.6057675e-01
 -4.5823291e-01
 -8.0194070e-05
  1.0358120e-01
  6.4926140e-02
 -2.1741383e-03
  7.4988375e-03
 -5.5871814e-01
 -5.3967303e-01
 -1.4288398e+00
  1.7776678e+00
  1.9456258e+00
 -2.6272973e-01
 -6.4431083e-01
  8.5362598e-02
  3.5758206e-01
  1.1193410e+00
 -2.4847686e+00
  7.6183897e-01
 -2.4213161e-01
  2.2774053e-01
  3.7241483e-01
  3.8533306e-01
  1.2194175e+00
 -2.2678394e+00
 -1.8412333e+00
  3.9945412e-01
 -1.4773824e+00
 -1.3781133e-01
 -7.1441448e-01
 -1.3865834e+00
 -1.7124702e-01
 -2.6296365e+00
  2.6904422e-01
 -1.4042201e+00
 -6.3298132e-05
 -1.4470981e-05
 -7.8308070e-01
 -1.6098872e+00
 -3.0113064e-04
 -1.1279898e+00
 -3.2368179e-02
  1.5091588e-03
  2.5852010e-01
  1.1305387e+00
 -2.3760326e-01
  5.4517991e-06
 -1.7082048e-04
 -2.5035405e-01
  1.0141779e-03
 -8.7839458e-04
 -1.6903109e-04
  2.5715443e-01
 -9.1180176e-01
  7.3128045e-01
  6.9479173e-01
 -5.8134083e-05
 -1.5945965e-01
 -2.0375155e-01
  4.5760220e-01
  4.5342678e-01
 -3.8586783e-01
  1.1379321e-01
 -1.0687485e-01
  2.6348081e-01
  1.2289803e-03
  3.1214983e-03
  4.5157388e-01
  3.6228070e-01
 -8.4175184e-02
 -1.7959611e-01
 -2.4953213e-02
  9.5496114e-07
  4.9390137e-06
 -1.2889384e-01
  1.9777113e-01
 -3.1679198e-01
 -1.3832574e-02
  6.4263803e-01
 -1.3891719e-01
 -5.8863893e-02
  6.2862672e-02
  9.9199133e-05
 -2.2166259e-05
  7.2849035e-04
 -9.5810155e-06
 -7.9459310e-02
  1.1979065e-05
  9.8725669e-02
 -3.2183819e-02
 -6.5617537e-06
 -9.2390979e-07
 -2.3141728e-01
  4.5880852e-06
 -4.9991161e-02
 -3.0669155e-05
  5.2616972e-02
  4.6989512e-01
  3.5191777e-03
  2.6726687e-01
  8.2520977e-02
  2.0026986e-01
 -2.9856002e-01
  1.0305324e-02
 -3.9864588e-01
 -9.5519018e-01
  8.8312634e-05
  1.6732317e-01
  1.1941320e-01
  9.8410361e-03
  2.6024616e-01
  1.1210001e-01
  7.6737630e-01
 -5.8268100e-01
  1.6939774e-01
 -5.0183775e-05
 -1.1305267e-04
  1.7915294e-05
 -5.3408479e-05
  4.8605561e-01
  1.0707730e-01
  1.8021298e-03
  9.3925875e-01
 -1.7289519e-03
  9.4153002e-06
  6.2381583e-01
 -6.0995515e-02
  2.2636954e-05
  1.0071790e-04
  5.5330263e-05
 -6.0822273e-04
 -8.5381207e-06
  3.8694376e-01
 -1.4228833e-05
  4.7773432e-05
  5.9439412e-06
  2.7165330e-05
  1.2825008e-06
 -9.8785549e-06
  5.4326611e-05
 -8.2672515e-05
 -2.7690463e-05
  4.3193109e-02
  7.8028330e-05
 -7.1632421e-05
 -3.5124456e-05
  1.1825416e-05
  8.1438047e-01
  6.7412704e-01
  1.6805427e-05
  7.7274215e-01
 -6.9476890e-05
  3.8375725e-05
  2.2952825e-05
  2.9239529e-05
 -1.3408727e-04
 -1.8951103e-05
 -2.2447036e-06
 -2.4947831e-05
 -9.3406970e-06
  1.9391946e-05
 -1.5813398e-06
  5.7278972e-05
  6.8969275e-05
 -7.9486254e-06
 -1.0582356e-05
  6.2526728e-05
 -5.1054332e-05
  1.5357589e-06
  3.5350502e-05
  1.5014829e-04
 -2.3716291e-05
 -2.9933024e-05
 -4.9367911e-05
 -1.0136536e-04
 -2.4439491e-05
 -6.2377010e-05
  3.1210118e-05
 -1.8724182e-07
 -2.6586453e-05
  6.9056932e-06
  1.6955939e-05
 -2.4250965e-05
  9.7810671e-06
  2.0080121e-05
 -2.3523287e-05
 -1.0469858e-04
  1.6755889e-04
  3.6093966e-06
  1.4378035e-05
 -7.7221630e-05
  1.0512997e-05
 -1.5768734e-05
 -4.1557047e-05
 -1.7281141e-05
 -1.6085949e-04
 -3.7933918e-05
 -4.5768968e-05
 -9.7476754e-05
 -1.6515922e-05
  6.2657084e-05
 -1.5669142e-05
 -1.7174213e-04
  6.7839619e-06
 -1.2902104e-05
  5.2356078e-05
 -6.8284418e-05
  1.0115605e-05
 -2.4094070e-05
 -1.2694878e-05
 -3.3167453e-05
  2.3115210e-05
  3.3437282e-05
  2.2932838e-04
 -7.0086180e-06
  7.1464201e-05
  2.1542615e-05
 -2.3127782e-06
  1.1427483e-05
 -5.6725221e-06
  6.8652596e-05
 -2.2033097e-01
  1.6968996e-05
 -5.0647057e-05
 -3.6179659e-01
  4.1516725e-04
 -1.5532713e-01
  4.6971213e-06
  1.4177209e-01
  1.3482958e-02
 -1.1012640e-01
  5.2795067e-02
  2.0602777e-06
 -2.3254248e-01
 -1.5169947e-03
 -1.6198495e-01
 -9.2766102e-04
 -8.5859776e-02
 -4.0704317e-02
 -3.1392136e-01
  9.7264056e-05
 -3.5832685e-03
 -2.8958538e-01
 -4.6821784e-05
 -4.2467755e-01
  1.3332878e-04
 -4.8340090e-02
 -1.5959565e-01
 -5.9496715e-06
  1.8408054e-02
 -1.1873248e-03
 -2.5765496e-01
  4.1574042e-02
 -1.7980565e-01
 -4.1552994e-02
 -1.1402268e-03
 -1.3534100e-01
  4.7134155e-01
 -1.7287849e-01
  3.7703366e-04
  3.3138047e-05
  5.6158779e-06
 -1.3152507e-04
  5.2469128e-05
  1.8071379e-04
  1.1407617e-02
  9.5388256e-02
  9.3800749e-04
 -2.2870600e-03
 -2.5924352e-01
  6.9716716e-01
 -2.2000311e-01
 -3.5472811e-04
  7.3068947e-01
 -2.3462369e+00
  3.9131895e-01
 -4.4255900e-01
 -2.1452149e-03
  7.5647116e-01
 -7.9617791e-02
 -2.7983568e+00
 -3.2806936e-01
 -1.2333009e-02
  9.7644046e-02
  9.7156072e-01
  1.0906155e+00
  2.0258849e+00
 -1.8947657e+00
 -4.5678523e-01
 -6.8271033e-02
  2.8740534e-01
  7.4918443e-01
  2.3117986e-04
 -4.2784509e-01
  2.1389220e+00
 -6.7046267e-01
 -7.7617861e-02
  9.1285217e-01
  5.2010441e-01
  4.5933486e-03
  7.9393327e-02
  2.3858774e-02
 -2.0976651e-01
  2.2397529e-04
 -1.0719422e-04
  3.0477049e-05
 -7.9734041e-04
  7.0265099e-02
  2.0625880e-01
  5.0822742e-02
  4.5679324e-05
  6.5955714e-06
  2.1820858e-01
 -1.2398061e-01
 -1.4766178e-03
  2.3343209e-02
 -1.8104651e-03
 -2.5526965e-01
 -1.1450738e-01
 -1.0279464e+00
 -8.0456964e-05
 -4.2316720e-02
 -2.3115572e-02
  3.7831250e-03
  1.9096339e-01
  1.1173121e-03
 -6.1929140e-02
 -1.4181723e-02
 -1.0814537e-01
 -6.7921798e-03
 -7.5510015e-06
 -5.2826357e-01
 -9.7465411e-02
 -1.1609115e-01
 -3.2260200e-01
 -7.7935606e-03
 -4.2328620e-06
 -1.9300636e-02
 -5.6270510e-05
  1.5455134e-01
 -1.7277589e-01
 -1.2512705e-01
 -3.8115356e-02
  1.7340695e-02
  7.4975869e-06
 -5.6916807e-02
  9.7666685e-05
  3.4728757e-05
 -1.6366376e-04
  1.1010013e-04
 -1.0351118e-05
 -2.6068145e-05
 -3.5147223e-01
  3.5315296e-01
  2.6619123e-04
 -3.3766758e-02
  1.6223301e-07
  5.1802187e-04
 -5.9695363e-01
  1.6393016e-01
  3.0740694e-06
 -1.3719943e+00
 -9.5384473e-01
  1.1968711e-02
  3.8067592e-05
  1.1441784e+00
  5.6416154e-02
 -1.1439027e+00
 -1.7986751e+00
  7.9234934e-01
 -1.0094479e+00
 -1.3670734e-01
 -2.1394396e-01
 -8.0623364e-01
 -4.4419789e-01
 -8.1153160e-01
  3.1307217e-01
 -4.6758259e-06
 -5.2254223e-03
 -5.2422540e-05
  2.7888238e-05
 -1.9939591e-03
 -2.7795804e-01
 -1.1892729e-01
 -1.1193672e+00
  4.0079540e-01
  3.0290142e-01
  9.3489600e-04
 -4.9478683e-01
  4.2720547e-01
 -6.3266657e-02
  2.8509583e-05
  2.2334765e-05
  4.0912675e-03
 -2.6690641e-05
 -1.3491011e-05
 -3.7980612e-02
  9.1427141e-01
 -7.2288958e-06
 -7.8300908e-03
  3.2147673e-01
  1.8847879e-05
 -1.8728159e-03
  1.3804220e-02
 -3.5629984e-02
 -2.1936984e+00
 -9.5033363e-02
  9.7454810e-01
 -1.6234803e+00
 -6.7185569e-01
  5.5758506e-02
  7.3129833e-01
  9.8801637e-01
 -3.2139707e-01
 -4.0209973e-01
 -1.8548745e+00
  4.2991999e-01
 -3.9445076e-02
 -1.2416743e-03
  3.1332615e-01
  2.7587530e-01
 -1.4465105e-05
  8.5707074e-01
  2.8073648e-01
 -4.5252418e-06
 -4.7836667e-01
  3.7038811e-03
  4.9822110e-01
  1.1014252e+00
 -7.7782100e-01
 -8.1551206e-01
  2.2266008e-06
 -8.3503440e-02
 -1.4393840e+00
  1.1362052e+00
 -1.2055526e-05
 -3.5836385e-06
  2.8003751e-06
 -2.1582244e-05
 -3.5178670e-04
 -2.4362729e+00
  1.3049191e-01
 -1.4928544e-04
  6.3108935e-05
  2.3013017e-04
 -3.0080017e-05
  5.0038844e-01
  4.7828573e-05
 -1.4606936e-01
  3.4769544e-01
 -8.0431974e-04
  1.2604136e+00
 -1.2160760e+00
  7.5656784e-01
  2.2958049e-01
  4.6033439e-01
 -2.7140910e-03
  1.2380388e-01
 -8.8945472e-01
 -5.0656581e-01
  7.3814255e-05
 -1.6513203e-01
 -4.3220236e-03
 -1.3446290e+00
 -1.9881010e-05
  1.2525854e-05
 -4.8752591e-01
  1.0827578e-05
 -2.9207757e-01
 -3.0074969e-01
 -4.1283784e-06
 -1.9693580e-02
  3.2035136e-01
 -8.1321889e-01
 -6.3702500e-01
  4.4514975e-04
 -1.2406917e-06
  2.4527456e-01
 -3.7960649e-01
  3.7383925e-05
 -5.4158800e-04
 -1.3667672e-05
  2.9981646e-05
 -6.2973078e-05
 -1.4439048e+00
  6.9334823e-01
  2.2639839e-01
  4.0958837e-02
 -3.6114103e-01
  7.3805487e-01
  1.7863712e-01
  4.4351199e-01
 -5.7457019e-02
 -2.2008733e-01
  1.7629908e+00
  4.3105060e-01
 -1.0979096e+00
  1.5315233e+00
 -2.3786010e-01
  1.0653838e+00
 -2.5213385e-01
  1.3556228e+00
  6.0881644e-01
 -8.0992532e-01
 -2.4719247e-01
 -5.7318944e-01
 -4.7354317e-01
  5.2470159e-02
  4.9725404e-01
  2.0753512e-01
  4.5481282e-01
  3.4249387e+00
 -3.4695739e-01
 -8.9175898e-01
 -1.4291772e+00
  7.9711825e-01
  1.2429986e+00
  1.4212775e+00
  4.6336851e-01
 -2.5358793e-01
 -3.1221523e+00
 -4.7008204e-01
 -9.2114681e-01
  3.6217185e-05
  1.0318887e-04
  9.6176040e-01
 -4.3035111e-01
  5.3932222e-06
  7.0206892e-01
 -2.0465453e-05
  1.3169492e-06
 -2.1354341e-05
 -6.3673906e-05
 -3.6117945e-06
  3.7912509e-05
 -5.7885372e-06
  7.2165913e-06
  1.5106155e-01
  1.2448990e-04
 -5.2323171e-06
 -5.3469375e-06
  4.7741240e-05
 -1.1956547e-06
  1.1190195e+00
  4.1855958e-05
 -3.7932556e-02
 -3.2188171e-05
  6.4117470e-05
  6.0591872e-05
  1.4294378e-05
  5.5292669e-05
  7.1900295e-06
  5.5079522e-07
 -1.6817186e-05
  4.9448903e-05
 -1.6871178e-05
 -3.3090721e-06
  1.0752759e-05
 -2.2319614e-06
 -2.4508704e-06
  1.0539979e-04
  2.5455467e-05
  4.8643691e-05
 -1.6945256e-06
  1.2902828e-05
  3.9293635e-01
 -2.0567879e-06
  3.1213505e-05
  8.3639876e-05
 -3.0178724e-05
 -1.9168359e-05
  4.0720879e-06
 -6.5538838e-06
  1.4289941e-04
  4.5935808e-06
 -1.7952111e-06
  2.1215052e-05
 -5.1882012e-07
 -6.6741602e-05
  1.7336564e-05
  6.4482365e-06
 -2.7363840e-06
 -3.7225600e-05
 -1.5393895e-05
  2.8659963e-06
 -3.1724998e-05
  2.3062498e-04
 -1.2250138e-01
  1.3118888e-01
  9.0638682e-02
  1.9830586e-01
 -1.9646484e-06
 -7.4438335e-06
  2.3531111e-05
 -2.1306696e-05
 -2.1745311e-05
 -1.2676300e-05
  1.3229077e-05
 -2.2941384e-05
  2.0785255e-05
 -8.1462995e-06
 -4.3158752e-06
  3.0117053e-05
  8.2580857e-07
 -1.2018461e-05
 -6.6301072e-05
  3.5546160e-05
 -2.1371297e-06
  1.2640494e-04
  1.5064240e-05
  3.4851611e-05
 -3.5473208e-06
  7.5908629e-06
  4.5246241e-05
 -3.4571078e-06
  1.4771290e-04
 -1.8738563e-05
  8.5171330e-01
  4.7501308e-04
 -8.0793403e-02
  2.0169549e-01
 -4.6967041e-01
 -1.3361977e-02
  5.9238893e-01
 -2.2539765e-02
 -2.5263140e-01
 -3.9925966e-01
 -7.5754547e-01
  9.3248658e-02
 -1.0319560e-02
 -4.4926722e-02
 -8.0456264e-02
 -2.4206488e-01
  6.4454436e-01
 -2.1150808e-01
 -6.8253201e-01
 -1.5842411e-01
  3.4778677e-02
  6.1029928e-05
 -4.6326217e-01
  4.4772819e-06
 -1.2083478e-01
 -1.9399393e-01
 -2.8977260e-01
 -1.9854795e-06
 -2.7157681e-04
 -9.4142355e-02
  3.9497527e-01
 -2.7412456e-01
 -2.9455269e-02
 -2.1661432e-02
 -1.6158288e-05
  5.4172885e-01
 -7.8940243e-02
  1.6449800e-01
  5.3573571e-02
 -1.3089782e-01
  8.1224105e-05
  6.6058252e-05
  5.2229992e-05
 -1.8512490e-01
 -8.1833833e-01
  2.6318737e-06
 -4.9302289e-06
 -5.3586757e-01
  2.7340297e-03
  4.2224687e-02
  2.4996769e-01
 -5.5689499e-05
 -1.9239628e-04
  2.7961767e-01
  5.0624621e-01
  6.5673529e-03
  1.6567638e+00
  6.8173293e-05
 -1.8492657e+00
  1.8305724e+00
  1.9158208e-01
 -1.1563944e+00
 -1.6750206e-01
 -5.1733962e-04
  2.7135020e-01
 -6.0216963e-01
 -3.5206742e+00
  6.0913599e-01
  6.0043001e-01
 -3.1767774e-01
 -4.1148221e-01
 -6.1639535e-01
 -1.3215708e-05
  6.3348740e-01
  2.2853551e-04
 -2.6655576e-01
 -4.5411471e-02
 -1.4456613e-04
 -1.5935525e-01
 -8.7198341e-01
  6.6881031e-01
 -3.4610301e-01
  1.0229922e-01
 -1.7440838e-01
  1.2554817e-03
 -9.5657319e-02
  6.6347625e-06
 -7.4761435e-02
 -8.9079686e-02
 -4.4091172e-05
  1.3498486e-02
  1.8144557e-03
 -3.9212384e-05
  1.8212274e-01
  1.9755641e-04
 -7.8227438e-02
  4.5926796e-04
  1.8382814e+00
  2.7204370e-01
 -3.0423216e-05
 -9.7239953e-01
  4.6910916e-02
  2.0292003e-01
 -2.6564076e+00
  1.8747510e-02
  1.3596295e+00
 -1.4625825e-01
 -2.3508178e-02
  4.7403750e-01
 -4.2036200e-01
 -7.1898617e-02
  2.8877100e-01
 -1.2129210e-04
 -1.7144464e-01
  5.6364644e-01
 -3.5330194e-01
  1.1904577e-01
  6.6511023e-01
  7.2310370e-01
  4.8162785e-01
 -1.4278836e+00
 -4.4215724e-04
  3.7966841e-01
 -1.2787476e-05
  4.6426755e-01
 -1.1634593e-01
 -2.7396291e-01
  1.0113358e-04
 -2.5414008e-01
 -2.2721427e-04
 -4.5162985e-01
 -1.0676315e+00
  3.3333895e-04
  4.2643141e-02
  1.8742684e-01
  4.2808148e-05
 -4.0464285e-01
 -6.5308869e-01
 -3.2935422e-02
 -7.1643051e-05
  1.1612312e-01
  1.4190302e+00
 -2.0468969e+00
  8.1693006e-01
  1.0040778e+00
 -4.9861312e-01
  1.4871016e+00
  2.4146557e+00
  3.6162937e+00
 -1.4173001e-01
  4.2942137e-01
 -3.3404627e-01
 -7.4175549e-01
 -3.9941609e+00
  2.8556769e+00
  1.1199841e-04
  1.3373842e+00
 -2.9325658e-01
 -7.6299804e-01
  2.2864138e-01
  1.3245864e-01
  2.3732994e+00
  3.8994544e+00
 -1.5668860e-01
 -1.6442786e+00
 -4.6122897e-01
  5.2672553e-05
 -3.6253265e-01
 -2.8359878e-01
  1.0504261e+00
 -5.9025217e-04
 -5.5492550e-01
 -1.3814345e-01
  6.1862671e-01
 -5.8988231e-01
 -2.3864939e+00
 -6.9020181e-03
 -6.3460266e-06
 -6.3865933e-05
 -9.2458431e-06
  5.4615116e-06
 -2.3051480e-06
  6.5181169e-08
  9.5796480e-05
  8.0793351e-04
  1.1138752e-03
  1.2395559e-05
  1.4558624e-05
  4.2373154e-04
 -4.2463627e-05
 -5.3143237e-02
  4.0265617e-01
 -2.0373380e-04
 -1.1206279e-05
  2.4551341e-06
  5.1352428e-04
 -2.8267403e-05
  7.9649108e-06
 -1.0331628e+00
 -1.0638026e-04
 -1.0233848e-05
 -1.4816176e-05
  2.1979613e-05
 -4.3781271e-05
  9.2223374e-05
 -4.5758850e-05
 -5.8107031e-05
  6.7051456e-05
  5.3023225e-05
  2.3499031e-04
 -8.7012435e-05
 -1.3609806e-05
  8.2505558e-06
 -6.5581653e-06
  4.4145127e-06
  6.8277436e-06
  5.4011984e-05
 -4.4821201e-05
  9.6856820e-06
  1.5062078e-05
 -5.1362254e-02
 -9.6221447e-07
  1.4948459e-05
 -1.2080225e-05
 -7.0843947e-05
 -7.6300859e-01
 -1.7549022e-01
  1.3139503e-05
  3.7782446e-02
  1.1887091e+00
 -2.4983531e-02
 -5.1616908e-06
  1.4209384e+00
 -1.1474922e+00
 -1.6272885e+00
  9.1840290e-03
  2.3174200e+00
  8.0056810e-01
  2.8291328e-03
 -2.5618300e-02
  4.4488600e-01
  1.8343114e+00
  2.3839171e-01
  2.5979087e+00
  9.6505511e-01
 -3.4644258e-01
  6.3754994e-01
  1.3291161e-01
  2.3611721e-01
 -5.7059187e-01
  3.2336372e-03
  4.1035151e-01
  1.0381294e+00
 -1.0371752e-03
 -9.4882222e-03
 -1.2879020e-04
 -8.3826566e-01
  2.1922684e+00
 -2.8771069e-04
  9.0689900e-05
  7.4561283e-02
  7.9682686e-05
  5.0037301e-01
  2.2548909e-01
 -3.4695083e-06
  1.3778677e-05
  8.1258995e-06
  2.6187918e-06
  4.1282525e-05
 -1.2447282e-05
  1.4289286e-05
 -2.8721288e-06
  2.4082667e-06
 -7.9675892e-06
 -1.3929523e-05
 -7.1272357e-06
  3.6359438e-06
 -4.2389558e-05
 -6.0416332e-06
 -1.1565904e-04
  2.4638053e-05
  1.5053610e-05
  1.4529367e-07
 -1.2964726e-05
 -2.1983665e-06
  1.0239648e-05
 -1.8946191e-06
  4.8173384e-05
 -1.4879706e-05
 -1.2316750e-06
  3.8753960e-06
  1.8439709e-06
 -8.8563756e-05
  2.5549198e-06
 -6.2705785e-06
 -7.1108785e-05
 -1.8262479e-05
 -7.3914061e-06
  2.3618208e-05
 -3.4886696e-05
  2.7573958e-06
 -6.7255300e-05
 -1.0481929e-05
  2.4958648e-05
 -6.1799412e-08
  1.4337460e-05
 -3.9652473e-06
  2.7358092e-05
  1.1328418e+00
 -2.5553336e-05
  8.4684134e-01
  1.8775706e-01
  1.7422488e-01
  7.2387564e-01
  3.9839795e-01
 -6.7080513e-02
 -1.0311737e-01
 -6.6132540e-01
  4.4078055e-01
 -6.2094069e-01
  3.0041981e-01
  3.1484209e-02
  1.5875340e+00
 -3.5794890e-01
 -1.8587750e+00
 -1.1027609e+00
 -3.1692770e-01
  1.5501838e-02
 -1.0777055e+00
 -2.2937772e+00
  1.0438941e+00
 -1.7518951e+00
  2.8582537e+00
  2.2313898e+00
 -2.0176773e-01
 -6.3926498e-03
 -2.2706851e-01
  3.6463308e-01
 -2.7893227e-01
  1.4733227e+00
 -1.2724211e+00
  1.2516516e+00
  3.3116335e-01
 -1.1737211e+00
  1.6482807e+00
 -2.1505342e+00
 -1.4330459e-01
 -1.4250080e-01
  2.6116011e-01
  2.9228651e-05
  3.4099061e-04
 -4.4928563e-01
 -7.9321235e-01
  5.7499841e-02
  3.0847274e-02
 -2.6728764e-01
 -9.4930995e-01
 -1.7413273e+00
  4.3274337e-01
  8.9890385e-01
  6.6437209e-01
 -4.5093966e-01
  1.8399547e-01
 -3.7436810e-01
  5.9406251e-01
  4.7829247e-01
  9.4223475e-01
  8.4222597e-01
 -1.4152867e+00
 -3.0503449e+00
 -2.7885112e-01
 -3.2258508e-01
  2.7613494e-01
  1.2124926e+00
 -5.5199248e-01
 -7.7788794e-01
 -2.3396335e+00
  8.8269800e-02
 -4.7587284e-01
  9.0875648e-02
  1.0522852e+00
  8.9041509e-02
 -1.4071330e+00
 -4.4747248e+00
  1.0004601e-01
  2.7413240e-01
 -5.7323694e-01
  2.7751310e+00
  1.4304912e+00
  9.3556112e-01
  5.5316269e-01
  5.9221995e-01
 -7.3126775e-01
  4.4891797e-03
 -3.5014287e-05
  6.5114731e-01
 -3.1972940e-03
 -8.8287787e-05
 -7.3362464e-01
 -3.0202153e-01
  7.2236627e-01
  1.6066085e-01
 -5.7804263e-01
 -1.3236672e-01
  2.7359018e-01
 -7.3316790e-02
 -6.0748619e-01
  1.6423510e+00
  3.7161863e-01
 -3.1365842e-01
 -9.0409577e-01
 -1.0791382e+00
  8.9055777e-01
  1.0249064e+00
 -2.3540945e+00
  3.4489155e-02
  1.3164878e-01
 -2.6229465e-01
 -5.0701731e-01
 -1.4674809e+00
  3.4298402e-01
  3.4010615e-02
 -6.8096542e-01
 -3.5507447e-01
  1.9636838e-02
  1.2263044e-01
  2.4993434e+00
  1.9195621e+00
  3.0188930e-01
  4.4325238e-01
  3.9349612e-05
  1.1927916e-03
 -4.7688645e-01
 -7.5063777e-01
 -9.0897876e-05
  9.6689302e-01
 -2.1564010e-06
 -2.3641346e-01
 -6.0585719e-01
  5.4741516e-03
  2.5760621e-06
 -1.0336892e-04
  7.3828182e-06
  1.5070524e-04
  3.3868494e-04
  3.4255721e-05
 -7.1799682e-06
 -1.0422650e-05
 -7.0321745e-05
 -2.6821127e-04
 -4.3708252e-07
 -5.1506440e-06
 -1.3451091e-05
 -4.6422967e-05
  3.0073389e-01
  8.4208269e-03
  1.2711491e-04
  2.9382577e-06
  1.7030374e-05
 -1.3387042e-05
  3.7641177e-05
 -1.1773193e-05
  3.9025017e-05
 -5.7500310e-04
 -3.5742174e-05
 -2.9188351e-04
 -1.1113612e-05
 -1.9828592e-06
 -7.4191121e-05
  1.2250216e-05
 -1.0646711e-05
 -1.7246415e-04
  4.1525636e-06
  1.2801503e-05
  3.7647118e-05
  1.9055324e-05
 -9.1092443e-06
  2.9795056e-05
 -3.9111283e-06
  3.8365990e-05
  2.0303471e-06
  5.2608761e-05
 -1.2131058e-05
 -6.8910842e-05
  3.5365606e-06
 -4.4710996e-05
 -1.3752279e-05
  2.1468347e-06
  5.8681189e-06
  1.9513143e-07
 -1.9966717e-06
  4.0528674e-05
  1.5055594e-01
 -4.5978442e-05
 -3.6015003e-06
  1.8119416e-06
  7.4944379e-05
 -2.2741695e-04
 -3.0553040e-01
 -1.1773668e-04
 -7.9828733e-06
 -3.1793341e-05
  5.3224353e-06
  2.9984041e-05
 -4.8019094e-05
  2.8459344e-05
  4.3938173e-05
 -8.6862419e-06
 -6.3072279e-05
  3.6178299e-05
 -3.5707788e-05
  6.6406596e-05
  3.4293516e-05
  8.9160940e-06
 -3.7520873e-05
 -1.0706613e-05
  3.4363951e-05
  1.6341005e-06
 -1.0282019e-04
 -3.3309225e-06
  2.2383461e-05
 -2.8343054e-06
 -1.5067338e-05
 -3.3349033e-06
 -6.3020598e-05
 -8.1940607e-06
  1.0559965e-05
 -3.5957095e-05
  1.3941484e-05
  1.1847294e-05
 -4.6700210e-05
 -1.3666200e-05
 -1.4620034e-05
 -2.5632065e-05
  6.4325995e-06
  1.1798815e-05
  1.4290425e-05
  2.0916759e-06
  2.0906269e-05
 -3.4247259e-05
 -3.1060044e-06
  1.2101270e-05
  8.8806537e-06
 -7.7354362e-06
  1.4356901e-05
  9.6042007e-02
 -6.4828062e-05
 -1.3462632e-05
 -7.8660560e-06
  6.6067230e-07
 -7.9456186e-06
  2.4128381e-06
 -1.0139217e-05
  1.6377500e-05
  4.5991728e-06
 -7.3916794e-06
 -1.5575624e-04
 -4.3483618e-05
 -1.0774080e-06
 -5.3960510e-05
  1.4518630e-05
 -4.3464282e-05
  3.0549381e-06
 -1.0807817e-05
 -6.2996428e-06
  1.2512042e-05
 -5.1026182e-06
 -1.1190090e-05
  1.5124819e-05
 -1.4380778e-05
  4.3386743e-05
  6.6467466e-05
  1.0728086e-05
 -4.2834340e-06
  1.1371282e-04
 -7.6519091e-06
  4.4087541e-05
 -1.3849511e-05
 -5.0712060e-05
 -1.1521885e-05
 -4.6483465e-06
  4.7393164e-06
  1.9219799e-05
 -1.0829913e-05
 -4.5962206e-06
  1.1937791e-05
 -3.3038647e-05
  1.4694024e-05
 -3.5709738e-05
 -4.4735531e-05
  6.4896667e-05
  7.9581596e-06
  5.7839570e-06
 -9.2384346e-07
 -1.2797622e-05
  3.9145611e-06
  1.4644942e-06
 -6.5403656e-05
 -8.9252942e-05
 -5.0726885e-05
  3.2382020e-05
 -6.4701740e-06
 -3.3803870e-05
 -2.1702817e-05
  7.0153656e-06
 -2.8844420e-06
 -3.1670761e-06
  1.2092546e-05
  4.3644075e-05
 -1.0984802e-05
  1.4961746e-06
  1.6749544e-05
  8.0435821e-06
  4.4214512e-06
 -2.7828111e-05
  1.0736465e-05
  5.9195358e-02
  7.0456381e-06
 -5.3112674e-01
 -3.4467804e-01
 -6.2392151e-05
 -5.7631664e-02
 -2.4867949e-01
  2.2074120e-01
 -6.4087933e-01
 -2.8675485e-01
  8.1452513e-01
 -6.0927314e-01
  1.0202719e+00
 -2.5975201e-05
 -1.2363619e+00
 -2.5758272e-01
 -6.7981440e-01
 -6.4607793e-01
 -9.1288525e-01
  7.8068870e-01
  6.9336076e-03
 -1.6358849e-01
  7.2554165e-01
 -5.1226322e-02
  1.6046450e-01
 -1.8866022e-01
 -4.7522911e-04
 -1.2851317e-01
  1.1782800e-01
 -6.2354559e-01
 -1.7918150e+00
  1.2960988e-01
 -2.5269598e-01
 -4.6215823e-01
  3.4766456e-01
 -1.2289806e-01
 -3.6485948e-02
 -4.1965187e-01
 -1.1779795e-05
 -3.7064317e-05
  4.7406799e-01
  2.3989303e-05
 -1.2937217e-06
 -5.0337565e-01
  1.6395831e-04
  1.3740134e-04
 -7.3393778e-05
 -1.0202667e-03
 -7.8932516e-02
 -5.1522333e-02
 -2.4010392e-04
  8.3842585e-03
  1.3150211e-01
 -1.7580231e+00
  3.2200620e-01
 -1.7840461e-01
  3.6202678e-01
  1.4867080e-05
 -9.5849627e-01
 -1.0653015e-01
  4.9489584e-02
 -2.1395390e-01
  9.0595894e-02
  6.5561719e-02
 -2.3261175e-01
 -1.4699618e-03
 -1.6852883e-01
 -1.7044362e-01
 -1.0260608e-03
 -4.9221486e-01
 -2.2586029e-05
 -4.3316282e-05
  3.2755502e-02
 -1.0921690e+00
  1.5905531e-01
  1.2563767e-01
 -1.7151589e-02
  1.4545581e-02
  3.5714940e-05
 -2.5046147e-05
 -8.3993804e-01
 -1.0937019e-01
  5.4342902e-01
  1.9172595e-04
 -1.3191648e-05
  5.5932609e-04
  6.5894906e-06
  6.2967604e-01
 -2.6431841e-01
 -2.9972945e-05
  8.0345526e-06
  1.0175212e-05
  4.8435701e-05
 -3.6080281e-05
 -3.2827713e-05
 -6.5640736e-05
  4.8597792e-07
  8.2041133e-06
  1.2427801e-04
  4.2936549e-06
 -1.5475820e-05
 -6.0570856e-06
  1.4627793e-05
  4.0413238e-06
 -3.0913368e-06
 -1.4001369e-05
  1.1903718e-04
  1.4627045e-05
 -3.8373433e-05
  1.7903878e-05
  1.0113735e-04
  2.9777830e-06
  2.6780281e-05
  1.0779088e-05
 -1.5052932e-05
  3.8909366e-05
 -3.2396405e-05
  3.1956261e-05
  2.1172666e-05
  1.4530104e-05
  3.6681092e-06
  5.3782605e-05
  9.8429155e-06
 -1.0427024e-05
  6.3360776e-06
  6.0088903e-05
 -1.4155034e-05
 -7.2271258e-05
  7.4991959e-07
 -4.9560099e-06
 -4.2660962e-05
  1.3132470e-05
  2.1864435e-04
 -1.8707272e-01
 -3.0625537e-01
 -1.4527862e-01
 -4.4752085e-01
 -4.5776516e-01
 -1.3416129e-01
  1.0026222e+00
  1.0848346e+00
  4.2722967e-01
 -1.1556501e+00
 -9.4709152e-01
  2.9133245e-01
  1.3330153e+00
  3.5068306e-01
 -3.3701448e+00
  4.3134344e-01
 -5.0789511e-01
  9.4613452e-03
 -1.1923852e+00
 -9.3434811e-02
  1.3225265e-01
 -5.7940666e-02
  5.7895166e-01
 -1.5981193e-01
  9.2048848e-01
  2.6472445e+00
  3.6087531e-06
 -6.3330346e-01
  2.2605760e-01
  9.3840234e-02
 -5.2750897e-01
  6.2348861e-01
  1.1642837e-01
 -3.6966932e-01
  2.8269768e-01
  7.4607119e-02
 -2.2757767e-02
 -1.2353686e-05
 -5.8035994e-01
 -5.3483453e-03
 -1.5843312e-01
  2.5468343e-01
 -3.2451323e-01
  6.1176455e-04
  5.6045024e-05
  7.5662538e-05
  1.9427844e-04
  9.6092062e-06
  6.9290421e-05
  5.0124476e-05
  1.1555551e-05
 -1.2673398e-04
  5.8306552e-05
  1.3090624e-04
 -1.7715116e-04
 -1.4691521e-05
  1.4682896e-05
  8.3500618e-06
 -4.4946628e-05
  6.4245869e-05
  1.0934819e-05
 -1.6740549e-05
 -2.6323128e-04
  2.2689643e-05
  2.4876412e-05
 -6.8515928e-06
  3.5376950e-05
  3.8018479e-06
 -3.4958171e-05
 -5.1259460e-05
 -4.0544888e-05
 -1.2364884e-05
 -1.7187324e-07
  6.2590193e-06
 -2.0369544e-05
  1.4459376e-05
 -4.4519518e-05
  6.1068320e-05
  8.8052948e-05
 -1.1533235e-04
 -1.3637944e-05
 -1.3199986e-05
 -5.3810677e-06
  1.3500247e-05
  6.8309972e-05
  1.3365827e-05
  8.3669411e-06
  1.0720917e-03
  3.4688223e-05
  2.4989740e-06
  8.9808709e-06
 -6.1833375e-06
  1.3774446e-05
  7.2190378e-05
 -3.3786513e-05
 -1.3158475e-05
 -9.9535346e-06
 -8.9605317e-05
 -8.8371444e-06
 -8.8484488e-02
  7.5070122e-05
 -6.0290819e-01
 -1.9452293e-01
  1.1386155e+00
 -1.3621113e-01
 -4.4357927e-05
 -5.5487086e-05
 -6.4622829e-05
 -2.1980250e-06
  3.0999818e-05
  2.8629867e-05
 -1.0501123e-05
 -8.1873422e-06
  4.5110970e-05
 -1.4420075e-06
 -2.0984146e-05
  2.9730202e-06
  2.5092450e-04
 -2.1428813e-04
 -2.1000289e-05
  1.4506117e-05
  1.4165085e-05
 -7.5155772e-06
  3.3335215e-05
  1.3408875e-05
 -5.2720079e-06
 -3.7936545e-05
  4.1518711e-06
 -8.9244177e-06
 -4.0179049e-05
  1.1823468e-05
 -1.3369775e-05
 -2.9080458e-05
 -1.4959648e-05
 -2.8280596e-05
  9.4244660e-06
  5.6680943e-07
  5.6457966e-06
  4.0679817e-05
  4.6336308e-07
 -4.1834028e-05
  4.5108984e-05
  7.2208736e-06
  1.4057376e-07
 -6.3045831e-05
 -2.7763655e-02
 -1.2199374e-01
  2.0928735e-06
 -3.7706886e-05
  1.0592501e-04
  3.2008589e-05
  2.0040010e-05
 -3.0066827e-05
  1.1671931e-01
 -2.3629891e-05
  6.2931031e-05
  1.6044706e-04
 -1.1024499e-06
  2.8944607e-05
  3.1475513e-05
 -7.3989846e-05
  5.7944726e-05
  3.6756184e-05
 -1.5191416e-05
  1.8015742e-05
 -1.2030155e-05
  3.5057950e-05
  1.6298507e-05
  4.1743144e-05
 -8.2152419e-06
 -9.8974473e-05
 -1.3567727e-05
  4.4586511e-07
 -8.2624229e-06
 -3.8181129e-06
 -2.8831003e-02
 -5.0157100e-02
  3.8624468e-01
 -7.5641632e-01
  4.7131546e-04
 -1.0790848e+00
  3.2574156e-01
  7.9242903e-01
  1.1516474e-01
  7.6449698e-01
  5.6138593e-01
 -1.4325589e-01
  9.1454849e-02
 -5.6141090e-01
  4.6048558e-01
 -1.7140476e-01
 -3.4880096e-01
 -8.4887594e-02
  1.1078900e+00
 -1.4388199e-01
  2.3139694e-01
  2.6532068e+00
 -3.1740520e+00
 -5.5326629e-01
  1.7118376e+00
 -6.9054651e-01
  1.0837717e+00
 -1.2630444e-03
  1.7137747e+00
 -5.5964243e-01
 -9.0889014e-02
 -2.0997353e+00
  1.1488739e+00
  2.0762372e-01
 -5.8475131e-01
  9.4296575e-01
 -1.6087281e+00
  1.7424388e-02
  8.5657775e-05
  3.1553167e-01
 -2.4443604e-02
 -2.4031107e-01
  2.5559333e-05
  1.6337560e+00
 -3.0292642e-05
 -2.9409046e-05
  6.5160448e-06
 -1.8607051e-04
  1.4050455e-04
  3.0028588e-05
 -9.6218528e-06
  1.5287836e-04
  2.8623504e-05
  1.0509003e-05
 -1.6378732e-05
 -2.4741763e-05
  1.9480729e-05
 -8.4512048e-06
 -4.2926562e-01
 -5.4713957e-05
 -1.7645802e-04
  2.3460696e-05
  6.8986810e-06
  5.0883915e-05
  2.8931926e-04
  1.8026431e-05
 -2.1529342e-05
 -2.0128393e-05
  1.1986302e-05
 -3.2886663e-05
  2.2876062e-05
 -7.1224413e-06
 -9.8215758e-05
 -1.3891414e-04
 -2.8785526e-05
  1.5687006e-05
 -1.6909245e-05
  2.1960801e-05
 -3.0299867e-05
  1.8593708e-05
  2.2547633e-06
 -1.4147506e-04
  6.8766036e-05
  7.8095043e-05
 -2.7442322e-05
 -3.0044950e-05
 -5.2914776e-05
  2.0062338e-04
 -1.7880318e-05
 -8.5403801e-05
  1.4252390e-05
 -3.4571153e-06
 -2.6233492e-06
  3.7366549e-06
  2.0936393e-05
 -2.0975780e-05
 -2.7138411e-05
  2.5864028e-05
  2.2548960e-05
 -5.2023432e-05
 -1.7740953e-06
  1.9381219e-05
 -5.0964863e-05
  2.8671911e-05
  3.0149216e-05
  1.8554641e-05
 -2.4255711e-05
 -1.7588220e-04
 -1.5305472e-05
  2.4993620e-05
  2.6017829e-05
  2.3029092e-05
 -6.2778240e-06
  4.2706329e-06
  8.8389525e-06
  9.0010863e-06
  1.1673929e-05
 -8.3455161e-06
  9.0374866e-05
 -5.5474115e-06
  2.1818532e-05
 -2.9624458e-05
 -2.4473849e-05
 -1.9881189e-05
  2.9444263e-05
 -2.1409784e-05
  1.9008607e-05
 -5.2407780e-05
 -1.7829596e-05
 -2.6822534e-05
 -2.3975249e-06
 -8.1491480e-06
 -2.7606197e-06
  1.7122595e-05
 -2.3016506e-05
  3.0075111e-05
  1.3022470e-05
 -1.7259323e-05
 -2.9872421e-05
 -1.4586389e-05
 -2.6383808e-05
  2.6654432e-05
  3.9691440e-06
  1.8012117e-05
 -9.3624194e-06
  8.3737490e-05
 -1.5727088e-05
 -2.9210223e-05
 -5.9197851e-06
 -7.1046859e-05
 -1.5521220e-05
 -2.1150498e-05
  8.7682973e-05
  2.2616034e-06
 -6.7831543e-06
 -2.0344783e-05
 -1.7362685e-05
 -9.2107166e-06
  8.8083543e-05
 -6.7970234e-07
 -1.1921050e-05
 -3.7427294e-06
 -2.7202430e-05
 -3.0471345e-05
  2.1644131e-05
  9.4164734e-06
 -2.9482942e-05
 -1.6457612e-05
  2.7304357e-05
  7.1145687e-06
 -4.9262885e-06
 -1.2777002e-05
 -7.0759990e-05
  1.9538844e-05
 -2.8671277e-05
 -1.7184109e-05
 -1.7479957e-05
 -3.0338659e-05
 -2.5070349e-05
 -6.9962989e-05
  2.3505710e-05
 -1.4823529e-05
  3.0121670e-05
  5.4916611e-05
 -8.8866636e-06
 -3.9131305e-04
 -1.9780473e-05
  2.0783851e-05
 -2.6511247e-05
  2.3297894e-06
 -5.7993435e-05
 -3.9285364e-06
 -2.4372481e-05
 -5.4355693e-05
 -5.8886471e-06
 -3.5644716e-05
 -6.3420135e-05
  2.1286434e-05
 -3.0419997e-05
  1.2719245e-05
 -7.4646005e-06
  1.0947932e-05
  2.4257630e-05
  2.2365051e-05
  1.6962258e-05
 -5.0879662e-06
  2.7945820e-05
  6.9853741e-05
 -2.4560873e-05
  1.6195328e-05
 -6.4525942e-05
 -1.3943446e-04
 -3.3390072e-05
 -2.5840711e-05
 -1.7655724e-05
 -1.3128623e-05
  1.0754655e-05
 -2.6208414e-05
 -1.7344779e-05
 -1.3338549e-04
 -5.9653390e-05
 -1.9592910e-05
  1.5089273e-05
 -1.1125251e+00
 -2.9449622e-05
 -4.3261454e-01
  8.8476263e-05
  1.4012948e+00
 -2.7893055e-05
  9.3134500e-02
 -1.5439379e+00
 -3.2981053e-02
  1.1504688e-02
  1.7119395e+00
  1.8975203e-04
 -9.0838438e-01
  3.4294388e-01
 -1.1870947e+00
 -4.2447037e-01
  6.3928998e-01
  4.0425029e-01
  1.2087289e+00
  2.7691564e-02
  2.9558410e-07
 -1.2888869e+00
 -6.1279458e-01
  5.7379842e-01
  2.2957938e+00
 -1.1263589e+00
  2.1356151e+00
 -1.3576494e-05
 -4.5248041e-01
  6.9888300e-01
  8.0061352e-01
  1.7814866e-05
 -3.9583541e-05
  1.9901203e-05
 -2.7139582e-05
 -1.8477477e+00
 -1.8227873e+00
 -1.1087137e-04
 -4.6652862e-01
 -8.4948690e-05
 -8.2769020e-06
  2.6927401e-05
 -1.4385550e+00
  2.6433539e-05
  2.3375096e-05
  1.2420293e-05
  2.6608852e-05
 -1.0666511e-01
 -2.9628852e-02
  3.5482209e-02
 -1.1244671e+00
 -4.3006288e-03
  1.3787125e+00
 -5.0936193e-05
  1.7541194e+00
  1.2597105e-01
 -6.0737342e-01
 -1.4419458e+00
  5.4066497e-01
  3.3649063e-01
 -1.6445360e-01
 -2.0261133e-02
  7.3895103e-01
 -1.2425325e+00
 -7.0895249e-01
 -7.6814973e-01
 -3.5279900e-01
 -2.8476137e-01
  9.0645850e-01
  1.0766303e-01
 -6.3743114e-02
 -6.3494742e-01
  4.5943651e-01
 -1.2810419e+00
 -2.6605648e-01
  4.1720358e-01
 -9.3739587e-01
 -2.5393429e-05
 -1.0834488e+00
  1.2954131e+00
  1.2710453e+00
 -1.3411328e-01
  5.1106676e-02
  1.2967875e-05
 -1.9224472e-06
  6.7917717e-01
  6.2417185e-01
  2.1696541e-02
  1.2381908e+00
 -1.2498546e-01
 -1.5281500e-01
  1.1163343e-01
  5.7199132e-01
  1.2916693e-01
  6.0505041e-05
 -6.9058267e-05
  3.9104566e-02
 -1.3443660e-04
  1.5706928e-05
 -2.7374106e-05
 -1.7107255e-05
  2.9694311e-05
 -1.0408159e-01
  1.9051440e-06
  1.4891373e-05
 -1.7423397e-05
 -2.5544654e-05
  8.4671497e-05
 -5.3983746e-05
  2.1810769e-05
  2.1524477e-04
  3.0032747e-05
  1.2228132e-05
 -6.4536314e-03
 -2.2051983e-05
 -1.9847625e-05
 -2.7692546e-05
  2.9219003e-05
 -2.2522190e-05
 -6.5970664e-05
 -2.6211615e-05
 -2.3294362e-05
 -8.0034242e-06
 -1.3615663e-05
  4.6777363e-06
  7.9937861e-05
 -1.1625046e-04
  1.5833618e-06
  3.0365220e-05
 -7.6955206e-05
 -4.2623956e-06
 -2.8086364e-05
  1.9304975e-05
 -2.8854580e-05
  3.5942080e-06
 -8.7001070e-05
 -2.9065628e-05
  1.0915826e-05
 -7.7762641e-05
  3.0311076e-05
 -8.2908788e-05
  1.0519314e-01
 -1.6553600e-05
  1.7922845e-01
  4.5365257e-05
  2.2718088e-05
  2.5389649e-05
  2.8694878e-05
  1.4237810e-05
 -8.9486472e-05
 -2.4010678e-05
  2.8908600e-03
 -3.6253728e-05
 -2.1878816e-02
 -2.2851577e-02
 -8.7129883e-05
  5.6116443e-02
  1.1128525e-02
 -1.5150084e-05
 -1.6830342e-01
  1.2156736e-05
  7.6125609e-05
 -2.7018075e-05
 -2.4530354e-05
 -2.2668223e-06
 -7.4367970e-05
 -1.4755657e-04
  8.2163286e-05
 -5.0253801e-02
  3.8026235e-06
  6.4759835e-05
 -1.1269013e-05
  9.8538220e-02
  6.6373101e-04
  1.6938366e-05
 -1.3688049e-01
 -8.4461544e-06
 -8.3073479e-05
 -2.6043677e-05
  1.3445588e-05
  1.2727602e-05
  2.8084422e-05
 -2.0137491e-05
  1.8167661e-05
  2.2551973e-05
 -5.9488717e-05
  9.0658132e-06
  1.3558545e-06
 -2.7607028e-05
  8.4633339e-06
  6.1944834e-06
  1.9525965e-05
  1.0121393e-05
  2.8852224e-05
 -1.0176515e-06
 -1.4902531e-06
  5.3312519e-06
  2.5508827e-05
  8.0894250e-05
  2.5186540e-05
 -2.2753798e-05
  2.4414199e-05
  8.7350752e-05
  1.8990089e-05
 -1.8173398e-05
  1.3070153e-04
  4.2516131e-06
  1.3010680e-05
  2.9814904e-05
  1.0874300e-04
 -1.8675821e-05
  1.2943548e-05
  4.0962143e-05
  1.1646529e-05
  1.5197362e-05
  3.6194724e-06
  1.3874791e-05
  1.3899265e-04
  2.9778052e-05
  6.0516337e-05
  1.6292415e-05
 -2.5715108e-05
 -1.6521455e-05
  5.6593621e-05
 -7.9951378e-06
  8.7907865e-06
  1.8160501e-05
  2.6263087e-05
 -2.8520149e-05
 -1.9791966e-02
 -1.0219985e-05
 -4.7198015e-01
 -1.2837117e-05
  2.9030680e-05
  8.3087309e-07
 -1.8940143e-05
 -2.3019247e-05
 -1.2917051e-05
 -1.8316599e-02
 -1.4718760e-04
 -1.0189147e-01
  2.8286224e-05
  6.9890454e-02
  1.4306723e-04
 -4.0957555e-02
 -5.5388027e-01
 -1.8466109e-05
 -1.4196553e-04
 -1.3265033e-04
  1.8602249e-01
  3.1005195e-05
  1.2218352e-05
 -2.4936007e-05
  9.5492741e-03
 -5.9233276e-05
  2.2814607e-05
  1.5551328e-05
  2.6351645e-05
 -2.7167593e-04
 -1.0597878e-05
  1.1836222e+00
 -4.1928715e-03
  2.3613607e-05
  5.1299711e-03
  1.9623185e-05
  6.6008157e-05
 -3.2921048e-04
 -1.1788622e-04
 -2.9707888e-05
  2.0360612e-05
 -8.1127539e-05
 -1.9599818e-06
  1.1868273e-04
 -3.2369752e-04
  2.4945004e-05
 -5.8280723e-03
  1.3959192e-07
 -1.9711524e-05
  5.6182175e-06
 -2.9805466e-05
 -2.7740898e-05
 -9.4321598e-07
 -7.8582627e-05
 -6.3217781e-04
  2.2056299e-06
  2.1228012e-04
  4.4169235e-03
  2.6890631e-05
  2.7570677e-05
 -4.9023129e-02
  3.8299240e-06
  1.9557712e-05
 -8.2409053e-05
 -6.1807700e-06
  2.6357942e-05
 -6.5428278e-05
 -1.2866524e-05
  8.0935606e-05
 -6.9424591e-06
  6.9388584e-06
  1.5703324e-03
  2.7509695e-05
 -5.1234725e-05
  9.0256282e-05
 -1.8561792e-05
  2.2173188e-05
  4.3514799e-05
  2.2261474e-05
 -4.3065542e-05
 -7.2920426e-05
  3.8295169e-05
  2.2663951e-05
 -1.3482409e-05
  2.6906351e-05
  7.6149704e-06
 -1.5351146e-05
 -3.0321817e-05
  3.0810047e-06
  2.9466084e-05
 -2.3650040e-05
 -1.5221187e-05
  3.0131267e-07
  2.4185894e-05
  2.8862414e-05
  2.6606327e-05
  1.7682372e-05
 -3.0013234e-05
  2.5926251e-05
  2.2735472e-05
 -3.3184397e-06
 -4.6332316e-06
  1.3349951e-05
 -1.3968237e-05
 -1.8212169e-05
 -7.3759897e-05
 -1.8682703e-04
  6.2332069e-06
 -1.7847281e-04
 -2.8541130e-05
 -2.7804770e-05
 -9.2834498e-06
  2.6205216e-05
  2.8197184e-05
 -2.8832115e-05
 -7.8370076e-06
 -1.1383308e-05
  9.7781822e-06
  7.9126744e-07
  1.2736245e-05
 -1.3966662e-04
  2.4445297e-05
  3.0525480e-05
 -2.8301781e-06
  2.8947683e-05
 -2.7829599e-05
 -2.1308209e-05
  1.9903267e-05
 -2.9767928e-06
 -6.4521123e-07
 -8.0780410e-06
 -1.0996830e-05
  1.2562675e-05
 -5.4773718e-06
  3.0328712e-05
 -1.9537123e-05
  2.8688871e-06
  1.4386307e-05
 -2.4736994e-05
  2.7494523e-05
 -2.4851080e-04
  1.8193228e-05
 -2.2652023e-06
 -1.1306487e-05
 -2.9839761e-05
  2.0959907e-05
 -1.0907074e-05
 -2.0077394e-05
  1.4618054e-05
  3.0278048e-05
  1.1815494e-05
 -2.9319050e-05
 -4.7219743e-05
 -1.4240264e-04
 -5.6943168e-06
  3.5929759e-06
 -4.9659637e-05
  3.6466820e-06
 -4.5778734e-06
  7.7800592e-05
  7.6752076e-06
 -4.4723980e-05
  4.6916130e-06
 -5.0346480e-06
 -1.8218996e-05
  3.0175013e-05
  2.8136563e-05
 -2.3907098e-05
  1.5473928e-05
  1.6234852e-05
  2.7271335e-06
 -9.2435530e-06
 -2.5125855e-05
  1.5549937e-05
 -8.8081679e-06
 -1.6170996e-05
 -2.7297625e-02
  1.2736790e-06
 -3.8897688e-06
  9.0789603e-05
  4.6973319e-06
  1.4782885e-04
  2.4921467e-06
  2.4317137e-06
 -1.3233240e-05
 -4.3230111e-06
 -2.0376034e-03
  2.6578823e-04
  1.4297420e-05
 -1.2278740e-01
  2.8525219e-05
  8.5874390e-06
  1.9794040e-04
  1.3425271e-05
 -3.8964404e-06
 -1.9798408e-06
 -2.7229291e-05
  1.5581136e-05
  1.9735114e-06
 -6.8777576e-05
 -2.5275808e-06
 -3.0093903e-05
  1.6500797e-05
  1.5443034e-01
  2.8640556e-05
 -2.5569378e-05
  2.9207145e-05
  1.1309909e-05
 -2.4402460e-05
  4.9994273e-06
  4.4424556e-05
 -2.7903874e-05
  1.3696557e-05
  7.5905482e-05
 -2.0981791e-04
 -3.0371538e-04
 -1.6655005e-05
  3.0506470e-05
 -8.1201306e-06
 -8.9752873e-05
  3.0358124e-01
  2.9828798e-05
 -2.3585895e-01
 -8.7094028e-05
  1.7894830e-05
  8.0913458e-05
 -2.9762741e-05
  1.5661602e-01
 -1.2310549e-05
 -1.2244229e-01
  4.0236267e-01
  1.1573183e-01
 -8.1197709e-01
  1.6165152e-01
 -1.4363701e-02
 -2.7097452e-03
  7.7740505e-02
  2.0518543e-01
 -5.6489706e-01
  6.3577253e-01
  1.0337929e-02
 -4.3094253e-05
  3.6223996e-02
  4.7091052e-02
  2.4832135e-01
  5.1232964e-01
  2.1282121e-05
  5.3060335e-01
 -1.8184757e-05
  1.8813336e-01
 -1.6927981e-01
  2.3658697e-01
  5.5988397e-02
  1.9575175e-05
  1.6927966e-01
 -1.6431923e-05
  6.6514140e-01
  2.7555680e-02
  4.9466968e-02
  5.8052176e-01
 -1.8333436e-05
  1.4345488e-02
  3.0411604e-06
 -8.7073849e-06
 -5.7012435e-06
 -2.7548338e-06
 -5.7259382e-05
  4.5200167e-07
 -8.5487001e-05
 -6.6913199e-06
 -6.0708389e-06
  1.4321509e-05
 -2.0934505e-05
 -4.8283318e-06
  8.6818502e-05
  1.9098561e-04
 -7.2132936e-04
  1.7137605e-05
 -1.4039959e-05
 -9.4486113e-06
 -4.3647465e-06
  3.0187442e-05
  8.2391225e-06
 -3.0130863e-05
  1.5698903e-05
 -3.2708685e-06
  1.6115697e-05
 -1.2149749e-05
 -2.7319513e-05
 -9.5364558e-06
  1.5202808e-05
  2.2521715e-05
  2.0616211e-05
  1.5912054e-05
  4.9630435e-06
  1.7582053e-05
  2.1853803e-05
  2.4516059e-05
 -5.2291987e-05
 -1.3933540e-05
 -3.0339779e-05
 -2.3143637e-05
 -2.9768222e-05
 -4.2929614e-06
 -3.0289390e-05
  6.3088948e-05
 -1.8704663e-05
 -1.1617113e-05
  2.6696833e-05
 -1.3855650e-05
  2.0255298e-05
  2.3486176e-05
  2.1878388e-05
 -3.0335721e-05
 -6.4137125e-06
  1.5829904e-05
  5.4803269e-05
  2.0781893e-07
  1.0706714e-05
  8.1819540e-05
 -2.6209747e-05
 -1.9655513e-06
  7.0697394e-07
 -1.0169104e-05
 -1.5260875e-05
 -2.5319507e-05
  2.5716205e-05
 -2.5792120e-05
  8.0132613e-06
 -2.4716575e-05
  7.5369840e-06
  2.2545497e-05
 -9.6773579e-07
 -2.6129219e-05
 -2.6815508e-06
 -2.3149960e-05
 -1.3970623e-05
 -1.0451779e-05
 -3.8121020e-06
  3.0184325e-05
 -1.8503892e-05
 -1.3099656e-05
 -2.5237206e-04
  1.0973249e-05
 -2.7872706e-05
 -2.6796270e-06
 -1.1139935e-05
  2.9045616e-05
 -2.9306844e-05
 -5.1606661e-05
 -9.0714075e-06
 -1.9923122e-05
 -9.8191679e-01
  1.0602877e+00
 -1.0343195e+00
 -1.1470727e-05
 -9.1663569e-06
  2.9560326e-05
  1.3997263e-01
 -3.0908966e-01
  2.8834454e-05
 -1.6235546e+00
 -3.2495600e-01
 -9.1039783e-01
  9.0872447e-05
 -3.1291470e-01
  3.0486095e-05
  4.9931192e-01
  3.7280195e-03
  8.0170482e-01
 -2.3581433e+00
 -3.0019975e-01
 -9.4215292e-01
 -3.0318111e-05
 -7.3652613e-01
  9.3746805e-01
 -5.0338066e-01
 -1.6585997e+00
  5.1849938e-06
 -2.3810366e-01
 -2.0215487e-04
 -1.5577253e+00
  1.2777287e-01
  4.8061732e-02
 -3.2553768e-01
  1.9334923e-01
 -5.6856674e-01
  3.7005535e-05
 -7.3487848e-01
 -2.4586631e-04
 -1.6321753e-01
 -1.3850865e-01
 -2.4860274e-06
  1.2977847e-01
 -2.2151053e-05
 -3.1176111e-01
 -3.2623512e-01
  8.2414786e-05
 -9.5283575e-02
 -8.7444705e-06
  5.4548957e-05
  9.3794151e-06
  1.8213059e-04
  1.9768646e-05
  1.6127222e-05
 -5.1068835e-02
 -1.4597001e-02
 -1.9202641e-06
  2.1148300e-05
 -1.4039657e-01
  2.4845009e-05
  2.5662905e-02
 -1.0004069e-03
 -1.1989314e-02
 -2.7749848e-05
  2.7582508e-05
  4.3969203e-02
  2.5746100e-05
  1.2351796e-05
  7.1565839e-05
  4.5722726e-04
 -1.9748370e-05
 -2.8648996e-05
  9.0263829e-02
  2.4426801e-05
 -5.4530142e-06
  6.8359725e-05
  8.5674947e-05
 -1.6625953e-03
  3.0231302e-05
  8.6341500e-03
 -2.6922105e-05
  1.6955421e-05
 -6.3665888e-05
  2.8131310e-05
  8.3383449e-05
  5.6068211e-06
 -5.1963957e-06
 -3.3724522e-05
 -1.7769597e-05
  2.7660921e-05
 -1.8046017e-05
  5.5601931e-06
  2.1644264e-05
  2.8389532e-05
 -7.4988779e-06
 -2.8277749e-05
  6.3619705e-06
  2.3513254e-05
 -1.0569802e-05
  1.3870760e-05
 -2.8176819e-05
 -2.8266508e-05
 -2.4309744e-05
 -4.5511174e-06
  2.9825811e-05
 -1.9902196e-05
  2.0059735e-05
  1.9987676e-05
 -2.9771851e-05
 -3.0495388e-05
 -3.7436623e-06
 -2.3073803e-06
 -7.3132014e-07
  3.0963324e-04
 -1.1803963e-06
  9.5988560e-07
  2.1415557e-05
  7.5150572e-05
 -3.0858866e-06
  7.1291921e-05
  1.5627706e-05
  2.7691705e-05
 -1.6874117e-05
 -3.0161684e-05
  3.0228972e-05
  2.6966612e-05
  2.8045908e-05
 -2.9988627e-05
  1.6461927e-05
 -2.0012154e-05
  1.2632260e-05
  1.6215889e-05
  2.8502320e-05
 -1.2096211e-04
  8.1928636e-05
  2.9552350e-05
  2.4367044e-05
  8.4200929e-06
 -1.3134514e-05
 -3.0396579e-05
  2.8959443e-05
 -3.0518149e-05
 -3.1444213e-06
  3.1079187e-06
 -2.6742291e-06
 -2.4981449e-05
 -1.9217418e-05
  1.5161770e-04
 -2.8506287e-05
 -2.3316647e-05
  7.3283096e-05
 -1.4064663e-05
  3.5044725e-06
 -2.7038786e-05
  8.5791326e-06
  2.7858940e-05
 -2.9501858e-05
 -9.8129867e-06
  1.9707380e-05
  1.6172349e-05
  9.4872612e-06
 -2.0609159e-05
  1.5498676e-05
  2.0081106e-04
  9.0827140e-05
 -6.0861355e-05
 -4.5090237e-06
  1.0467593e-07
  2.1088423e-05
 -5.1560760e-06
  1.5433056e-05
  3.0240621e-05
  1.6611091e-07
  2.0872556e-04
  1.1537862e-06
 -2.5603587e-05
 -1.0999761e-05
 -7.8436002e-05
  1.2076836e-05
 -3.0281113e-05
 -2.4508906e-06
 -2.6729560e-05
 -2.9756087e-05
  1.3037664e-05
  2.3620667e-05
  1.6438164e-05
  1.9265079e-05
 -1.3362046e-05
 -1.6856609e-05
  2.1686916e-05
 -2.7312637e-05
  1.8844004e-05
  2.6936200e-06
 -2.3941395e-05
  1.6090942e-05
 -1.2974130e-06
  1.5498523e-05
 -2.9461364e-05
  5.7164402e-07
 -4.8926227e-06
  2.9023500e-05
  2.3873752e-05
  1.5174314e-05
  2.3438557e-05
  2.3643046e-05
 -3.0341414e-05
 -8.0707223e-06
  6.5874615e-06
 -2.9760382e-05
 -6.9652844e-05
 -1.4633156e-05
 -2.7578835e-05
 -1.7816727e-05
 -2.8744806e-05
 -7.7317200e-06
 -2.3168919e-05
  1.9640631e-04
  2.5358822e-05
 -2.4461440e-05
 -1.6120950e-05
  2.6441432e-05
  6.4702995e-02
 -1.3023682e-04
  3.2558240e-02
  4.6342771e-07
  2.7265665e-05
  9.5684427e-06
 -1.7374192e-05
  2.9562314e-05
 -2.4624547e-05
 -8.1422046e-02
  3.3598619e-03
  1.2004190e-05
 -8.4113992e-05
 -3.6830441e-03
 -2.9716441e-05
 -5.5000437e-05
  5.0080915e-05
 -2.9335319e-04
 -7.8324716e-05
 -8.1140224e-06
  1.9636985e-04
  2.6888149e-05
 -4.4684962e-06
  1.2080215e-05
 -2.2556795e-05
 -1.2954573e-04
 -2.7420781e-05
 -5.3456812e-03
 -2.5554684e-05
 -2.1917840e-05
  2.1952499e-05
  2.7755983e-05
 -1.2912480e-05
 -1.0226046e-05
 -2.3709479e-05
 -3.6256402e-05
  7.0608471e-06
 -1.0709941e-04
  1.0139309e-05
 -1.9412801e-05
  1.7795226e-05
 -8.1373182e-06
 -4.9899691e-06
 -2.0175063e-05
 -7.7839577e-01
  2.0545263e-05
  1.8572912e-01
  2.7029688e-05
 -1.6856658e-05
  3.0379777e-05
 -1.3963498e-04
 -3.0659983e-05
 -3.0284345e-05
 -4.0768513e-01
 -1.2526748e-01
 -1.4813951e-01
 -8.4760628e-05
  1.6219799e-01
  2.5677924e-05
 -6.1250907e-01
 -3.4454305e-02
  5.3044685e-05
  2.1967582e-05
 -2.9595900e-05
 -8.2231414e-01
  9.6585491e-06
 -2.2833037e-06
 -2.6027146e-05
  6.0635652e-02
  1.9397054e-04
  9.5996630e-01
  2.1358667e-01
 -1.1981568e-06
  1.4987116e-05
 -1.2616427e-07
  1.2443429e-04
 -1.1557688e-04
  7.8926518e-05
 -8.0181897e-05
  3.7928494e-06
  2.2615948e-05
  2.8296188e-05
 -8.9186769e-06
  2.5283034e-05
 -3.0005838e-05
 -9.4385096e-06
 -1.7743938e-05
  1.6277985e-05
 -2.0169236e-05
 -1.0023547e-05
 -1.9500309e-05
 -6.1345439e-05
  3.0074318e-05
 -6.3681969e-06
  4.7292338e-06
  6.0996361e-05
 -4.1069510e-05
  2.0369460e-05
  1.3495031e-05
 -1.5972873e-05
 -2.7283108e-05
  1.3445622e-04
 -1.3968953e-05
  2.1497330e-05
 -1.5100166e-04
 -2.8664981e-05
 -2.8369390e-05
 -5.7035772e-06
 -2.4241361e-05
 -2.1188798e-05
  1.5686315e-05
  8.7439941e-05
  2.8618262e-05
  2.8987442e-05
 -6.2485429e-05
  1.9369179e-05
  2.1852111e-05
  2.6077128e-05
 -2.9764562e-05
 -1.0936440e-05
  2.4397837e-05
 -1.4467963e-05
  1.2642934e-04
  2.2769056e-05
 -8.5015117e-06
  1.3359368e-06
 -3.0108509e-05
  2.9897490e-05
 -1.4637218e-05
  1.9169993e-05
  2.6665439e-05
 -1.6059263e-05
  2.0667730e-05
 -2.1882297e-05
 -2.9819037e-05
 -2.0872627e-05
  2.7993503e-05
  8.9151334e-05
 -1.8155921e-04
  2.6137037e-05
  3.2239036e-06
  2.2541706e-05
 -7.7437253e-05
 -8.0432510e-05
  1.9531728e-04
  8.3058412e-06
  2.8000904e-05
  2.3048444e-05
 -2.3482722e-05
 -2.2704246e-05
  7.9621877e-06
  2.1034746e-05
 -2.1774174e-05
 -2.9042141e-05
 -2.2005876e-05
 -5.9004793e-05
  3.5117486e-05
  9.1471629e-05
 -2.4848030e-05
 -2.2489143e-05
  2.8952660e-05
 -1.9118717e-05
 -2.4518997e-05
  1.8491768e-05
 -4.9550149e-06
 -1.1774093e-05
 -8.1247572e-07
  2.3674565e-05
 -5.4130637e-06
  2.4617124e-05
  2.4838055e-05
  7.1771078e-06
  2.4900761e-05
 -7.2663497e-05
  1.7369041e-05
 -3.0455529e-05
 -2.2634730e-02
 -2.1559910e-05
 -2.6229670e-04
 -8.8490960e-06
 -1.2888056e-06
  8.9628757e-06
  9.6885797e-06
  2.7278231e-05
 -1.8402721e-05
  3.4076669e-03
  2.8504896e-01
  2.0338829e+00
 -8.9281557e-06
 -2.3341253e-01
  8.0451144e-05
  5.9354614e-02
  6.5272331e-01
 -2.9274681e-01
  2.4185166e-01
  1.5317593e-05
 -3.0839405e-04
 -3.4394456e-05
 -2.8933340e-01
 -1.4735241e-01
  1.1660227e-05
 -1.1906430e+00
 -3.8151557e-06
  2.9432338e-01
  2.3158811e-05
 -2.7657822e-01
  8.8928127e-06
  2.5833137e-03
  2.9025303e-05
 -4.8919652e-02
  3.3476320e-01
 -2.1322917e-06
  3.0315492e-05
  2.4765352e-05
  1.5028933e-04
 -4.5155178e-04
 -4.0476966e-06
  6.4553766e-05
  2.3698798e-05
  2.4768597e-05
  1.4926988e-05
 -5.3670165e-06
  2.5095076e-05
 -1.6950329e-05
  4.9109399e-06
 -1.3570421e-05
 -4.4631038e-06
 -7.3693453e-05
 -3.8478767e-05
 -2.0697730e-06
  2.2094731e-05
  2.1462092e-05
 -2.2246890e-05
 -5.7878156e-06
 -2.9089828e-05
 -5.4460364e-05
 -6.6659632e-06
 -1.3960050e-05
  5.5936985e-06
 -1.1627160e-05
 -2.6895437e-05
 -2.7021077e-05
 -2.3471890e-05
 -4.9052283e-05
  8.5540014e-06
 -1.2455051e-05
 -3.2006495e-04
  2.9455233e-04
 -2.6324627e-05
  1.8053775e-05
  1.6513965e-06
  2.9805909e-05
  2.8812485e-05
 -2.4334113e-05
  8.4804647e-05
  1.2684529e-05
 -7.7378727e-06
 -1.4647134e-05
 -1.3332046e-05
  2.9845829e-05
  7.3757335e-05
 -2.0983509e-05
 -2.8036602e-05
 -2.1847911e-05
 -1.0897387e-04
 -7.9926358e-06
 -2.9234432e-05
 -8.6574355e-06
  1.5219816e-05
  1.8459585e-05
 -2.7047188e-05
 -2.2628772e-05
 -1.5324169e-05
 -1.3058240e-04
 -6.3287013e-04
  1.3375309e-01
  3.0445270e-05
  2.8316874e-05
 -2.7542659e-05
  1.7902814e-05
  2.0741594e-05
  1.2621760e-05
  2.2805652e-05
  2.2272628e-05
 -7.9223057e-05
  1.9751310e-06
  1.6640903e-05
 -3.6705955e-05
 -1.8203242e-05
  2.9010500e-05
  2.9376297e-05
  7.7922712e-05
  2.6945188e-05
 -2.4346149e-05
 -2.8339053e-05
 -3.0515012e-05
  7.5059697e-06
  5.4392014e-05
 -2.5226340e-05
  2.5581081e-05
 -1.5456113e-05
  5.3954955e-05
 -2.4008572e-05
  2.8262199e-05
  2.9515308e-05
  2.2232621e-06
 -2.7610398e-05
  2.2981507e-05
  8.0487098e-06
 -6.5932500e-06
 -2.5926342e-05
 -1.0112769e-05
  4.8656250e-07
 -2.1965534e-05
 -6.8397101e-05
 -1.5862176e-01
  2.8679964e-05
 -2.4072091e-05
  1.4211361e-04
 -3.2172597e-05
  2.0829339e-05
  1.5821319e-05
 -3.0339026e-05
  1.8835241e-05
  9.0201764e-05
 -6.8205816e-05
  1.6474678e-05
  8.9505829e-06
 -2.7619493e-05
 -3.0331217e-05
 -1.9234700e-05
  8.4707062e-05
  1.6238057e-05
  7.9819038e-06
 -1.5137707e-06
 -1.0204852e-05
  2.1059325e-06
 -4.6876095e-05
 -6.7452484e-06
  2.9287585e-05
 -1.9726644e-05
  6.8312977e-05
 -2.3762414e-05
  2.8612274e-05
 -6.9325164e-05
  7.2087212e-05
  9.6741132e-06
  7.9962978e-05
 -7.8959438e-06
 -4.4444372e-05
  1.9224869e-06
  2.7650074e-05
  2.7772545e-05
 -2.0795758e-05
 -4.3614646e-06
  1.9315105e-05
 -2.5013264e-07
 -6.6601992e-06
  3.0101604e-05
 -2.4241088e-05
  2.7167433e-05
 -1.4781435e-05
 -6.6974064e-07
  6.0724717e-05
  5.3555366e-05
  1.4073179e-05
 -6.4805667e-05
  2.8211396e-05
  2.0232361e-05
  2.6149595e-05
  1.0729566e-05
 -9.1664497e-06
 -2.7268283e-05
 -2.2664301e-05
  2.3286946e-05
 -9.0881513e-05
 -1.0326696e-05
  2.6691587e-05
  1.5656176e-05
 -2.4572309e-05
 -2.0236677e-05
  2.4035009e-05
  2.3652698e-05
 -1.8186198e-05
 -7.7567194e-05
 -1.4098720e-05
 -2.7051232e-05
 -1.4969812e-05
 -8.1067643e-05
 -2.1611701e-05
 -2.2591064e-05
 -1.3991660e-05
 -8.9810797e-05
  8.7414213e-05
 -2.7625803e-05
 -2.7412205e-05
  1.4681844e-05
  3.0190851e-05
  2.9865410e-05
  3.9527226e-06
 -1.3587007e-05
  7.4097545e-05
 -1.8730585e-05
 -8.3430139e-05
  1.2625198e-06
  2.6438209e-05
  2.4372999e-05
 -1.5002357e-04
 -2.8340919e-05
  2.1587850e-05
 -2.8909484e-05
 -2.1541879e-05
  2.8071847e-05
  1.6622907e-05
 -5.3599939e-05
  1.3731122e-05
  8.6069733e-05
  2.4434636e-05
 -8.5861138e-06
 -2.1472663e-06
  2.7262784e-05
 -6.7036563e-06
  3.9263768e-06
 -1.7474049e-05
 -6.4438932e-06
  2.7666983e-05
  2.0934185e-05
  2.5108418e-05
  5.9390881e-05
  3.0417836e-05
 -2.7599359e-05
 -3.0047202e-05
  6.3210762e-05
  8.4144614e-07
  2.7013051e-05
 -2.8814537e-05
 -6.9033867e-06
  1.5631635e-05
 -2.7449860e-06
  8.6062348e-05
  4.1165814e-02
 -2.8933534e-01
  8.3661946e-03
  2.1862868e-05
 -3.0556932e-06
 -1.9270061e-05
  2.9846833e-05
  1.4246523e-02
 -5.2760071e-05
  2.2928179e-03
 -7.7172317e-02
 -8.8085635e-03
 -5.2314585e-01
 -1.4363095e-02
 -6.8940151e-01
 -5.6552852e-04
  2.2993982e-02
  1.2491712e-01
 -1.4792870e-02
  1.1859435e+00
 -8.5457992e-03
 -3.6153832e-01
 -1.1772441e-03
  2.0003757e-01
 -5.1136739e-03
 -3.4042537e-02
  7.8943330e-01
 -1.1595033e-01
 -1.6719183e-01
  1.3830806e-01
  2.5888612e-03
  2.7583244e-03
 -5.2264683e-02
  8.0961697e-02
 -7.9243109e-02
 -2.9106417e-01
 -2.8617296e-02
  3.8094346e-03
  5.2796848e-02
  1.1388443e-01
 -9.8990513e-06
  1.6414199e-03
  2.6371094e-04
  2.6058444e-01
 -1.2124311e-01
  2.7867083e-05
  4.4142178e-01
  1.3610880e-05
  2.8476839e-05
 -2.5372401e-05
 -2.7252827e-05
 -3.9474323e-01
  2.9376963e-05
  8.2900292e-01
 -6.4383480e-03
 -5.3653687e-01
  9.1948874e-02
  6.5178293e-01
  2.0618612e-04
 -5.3999257e-01
 -2.8800541e-01
 -6.6213262e-01
  5.3019375e-01
 -3.6177755e-04
 -4.5199436e-01
  2.8979499e-05
  2.1419357e-01
 -1.1034631e-02
  2.1046544e-03
 -4.0098503e-01
  2.1570888e-05
 -3.5958457e-01
  2.7055539e-05
 -8.9986724e-01
  2.0971413e-04
 -2.2225699e-01
 -7.7830590e-02
 -8.6239073e-05
 -6.0826710e-06
 -6.6330917e-06
  1.8797482e-05
 -9.9333156e-06
 -2.6944448e-04
 -1.1245020e-01
  1.6177934e-05
  2.6795803e-02
 -7.7676896e-06
 -2.8867451e-05
 -3.0729538e-01
 -1.9768306e-05
 -1.6075237e-05
  2.7954144e-05
 -8.3810854e-05
 -2.9492759e-05
  1.4297945e-04
  3.1192430e-05
 -1.3902818e-05
  1.0260166e-05
 -4.5428265e-04
  2.5298173e-02
  1.5863704e-03
  6.1175609e-03
  2.9836443e-05
  3.3485729e-05
 -2.3075456e-05
  6.2947052e-05
  2.9066781e-05
 -3.6559376e-04
  4.0995674e-06
  2.4221636e-05
 -7.7746517e-06
  1.1414391e-05
 -1.9966059e-05
 -5.2772695e-05
  5.7887930e-05
  2.1414617e-05
 -9.2818173e-06
 -2.7032767e-05
  7.1530034e-05
  3.0294936e-05
 -1.3135822e-04
  2.5009573e-05
  3.9569507e-03
  2.3395291e-06
 -1.2700542e-04
  2.9484348e-05
  2.0472604e-05
 -8.6418033e-05
 -1.4703298e-05
  6.6670636e-06
  3.0488582e-05
  1.5041377e-05
  2.2708788e-05
 -1.9740231e-05
  4.2781508e-06
  1.1855434e-05
  7.2522569e-05
 -9.7173261e-06
 -1.0211080e-04
  6.1438113e-05
  2.2927654e-05
 -1.4590971e-05
 -2.3092467e-05
  5.3712629e-05
  2.0768377e-06
  3.6786196e-07
 -2.4778574e-05
 -2.5758256e-05
 -1.8712746e-05
 -2.8771781e-05
 -1.8528735e-05
  7.0389491e-05
 -1.8726073e-01
 -7.1146540e-05
 -5.9322947e-06
  3.8752787e-06
  3.7773556e-05
  1.4428593e-05
  2.7563174e-05
  6.5945380e-05
  1.5296167e-05
 -2.5023170e-05
  2.4299972e-05
 -3.0002464e-05
 -1.2455320e-05
 -2.8666367e-05
 -2.8665823e-05
 -6.9261632e-06
  2.9908639e-05
  1.3486551e-04
  2.4996194e-05
  2.8325616e-05
  2.4703277e-05
 -8.2725628e-06
 -8.9865520e-05
  1.7853408e-05
  8.2481360e-01
  4.8905592e-02
 -6.0093172e-02
  8.2043734e-06
 -7.6160017e-05
 -1.0875610e-05
  1.5578215e-05
 -1.3408251e-04
 -7.2611474e-05
 -1.4687808e-01
  6.5586591e-01
  1.3726300e-01
 -1.4467502e-02
 -4.2543909e-01
  2.9853230e-05
 -2.0752959e+00
 -6.0029668e-01
  7.3915476e-01
 -2.5691277e-01
 -1.3718898e-05
  3.5437214e-01
  2.3585208e-05
 -9.4207042e-01
 -1.5933217e-01
  1.1780774e-01
  1.6075706e-01
  8.6256558e-05
  9.3868715e-01
  2.5624569e-05
 -6.4642084e-01
 -4.6348029e-01
 -2.9887414e-01
  3.3029047e-01
 -3.3132806e-01
  6.1865592e-01
  9.5350233e-06
 -1.9509080e-05
  2.9496387e-05
  1.1363402e-05
  2.4136074e-01
 -8.1305097e-06
 -4.1702531e-02
 -7.4199029e-08
 -2.2759541e-05
  1.5296495e-05
  9.4972193e-06
  7.8886522e-05
  2.1063852e-04
 -8.5494838e-05
 -8.4781517e-05
 -1.3600704e-05
 -2.5465702e-05
 -2.7208776e-05
  2.6378897e-05
  1.1401955e-05
 -2.0409691e-06
  2.0291862e-05
  2.3792785e-05
  1.1467107e-05
  2.6824860e-05
 -6.3537351e-05
  2.2815237e-05
 -9.0183617e-05
 -1.7616530e-05
  6.3926040e-05
 -7.7786935e-05
  3.9069696e-06
 -2.5962765e-05
  2.8438701e-05
 -2.0464813e-06
  2.3972523e-05
 -2.8939603e-05
  1.1971417e-05
  1.1101053e-05
  2.1033522e-05
  2.3153563e-05
 -1.5697344e-05
 -9.8900855e-05
  2.1849439e-05
  1.2223920e-05
  2.0660264e-05
 -2.9748635e-05
 -2.1545007e-05
 -2.5457588e-05
  3.7526494e-05
  2.8112680e-05
  3.0097056e-06
 -2.5561478e-05
  2.6170328e-05
  2.8175153e-05
 -3.7179229e-01
 -2.5630279e-05
 -1.4303329e-05
  3.8465919e-06
  6.7657907e-06
 -2.2166256e-05
  5.8897222e-06
  1.6622242e-05
  6.2905578e-06
  1.9568652e-04
 -9.8933942e-06
  9.1238151e-05
 -1.1442760e-05
 -1.2783615e-05
 -3.1511463e-05
  2.9032608e-05
  1.7421429e-05
 -1.7850291e-05
  3.0239265e-05
  6.8879735e-06
 -6.5255117e-05
  4.2080351e-06
 -1.0604020e-05
  3.8672501e-06
 -2.1759381e-05
 -1.7805445e-05
 -4.4015742e-06
 -6.1909319e-05
 -2.4836059e-05
  2.5107078e-05
 -8.0616801e-06
 -2.3805354e-05
  8.7927774e-06
 -1.8940789e-05
 -1.4575511e-05
  1.0512695e-04
 -1.6105798e-05
  1.2222581e-05
 -1.9638766e-05
 -1.4940169e-04
 -2.8487111e-05
 -2.9356801e-05
  1.3656395e-02
 -7.9062602e-06
  3.9711878e-02
  2.1266060e-05
  1.6494860e-06
  1.0926798e-05
  9.7864622e-06
  3.8518215e-06
 -1.8439516e-05
 -9.9957939e-03
 -2.4795048e-01
 -4.5133972e-01
 -1.6524886e-01
 -7.6009787e-04
 -5.6687122e-06
  5.2209213e-02
  2.2919858e+00
  8.0096900e-01
  5.6424104e-03
  2.5587911e-05
  4.6413071e-02
  3.1249094e-06
 -1.8433455e-04
  7.8426301e-01
  7.9425730e-02
 -8.1387851e-03
  9.0020221e-05
 -2.7701885e-02
 -1.8481946e-05
 -5.0566085e-02
  5.3585404e-01
  2.4016596e-01
  2.3335570e-01
 -8.5688320e-05
  8.9959532e-02
 -2.8364723e-06
  2.6820760e-04
  1.2869390e+00
 -1.8659836e-01
 -8.4318608e-02
  3.0183248e-05
 -1.3406338e-01
 -2.8642451e-05
 -4.8466745e-06
 -1.1951418e-04
  2.7442533e-05
 -2.0067313e-05
  1.8433504e-06
 -2.9528535e-05
  2.5037914e-05
 -7.8217354e-06
 -3.5143853e-06
 -4.5189845e-05
  7.0012283e-07
  2.1167814e-05
  3.0053518e-05
 -2.7312426e-05
 -2.8064337e-01
  5.8854503e-06
  1.5961760e-06
  1.8875269e-05
 -7.1916015e-06
 -1.5219947e-04
  1.7414963e-05
  1.1379930e-05
 -1.1776552e-05
  7.8128696e-06
 -2.9053037e-05
 -6.3106017e-05
 -2.9526022e-05
 -7.1047371e-06
  6.5547579e-06
 -1.6165219e-04
  6.5300669e-06
  2.5129988e-05
 -8.2230799e-05
  9.4974857e-06
 -1.4210424e-05
 -3.0425681e-05
 -2.7703407e-05
  8.8733996e-06
 -1.4657561e-05
  6.9721964e-06
  7.7220129e-06
  1.5028404e-05
  7.5316616e-06
  8.2781800e-05
  1.3053765e-04
  1.7723870e-01
  1.0160577e-05
 -2.1502222e-01
  8.1447342e-06
 -2.2789711e-05
  3.8874165e-07
  2.4335890e-05
  2.9690627e-05
 -1.4681222e-04
  2.1102832e-01
 -1.5746874e-01
  6.6918693e-02
 -3.3973783e-01
 -3.0752507e-01
  1.9777486e-05
 -9.7247577e-01
  4.3923658e-01
 -1.0298971e+00
  1.2465310e-01
  2.7208853e-05
 -3.6123565e-01
  1.5884169e-05
  2.4264078e-05
  7.5344688e-01
 -2.9872149e-02
  1.2256626e-01
  1.1746599e-04
 -1.4704165e+00
 -6.3400562e-06
 -8.5406512e-02
  1.1325062e-03
  8.0158003e-02
  9.3244396e-02
 -4.8823540e-06
 -6.1334121e-01
  2.2699569e-05
  8.7172949e-01
 -2.0095213e-04
 -2.2743285e-01
  4.1492549e-06
  2.4865500e-05
  2.2490594e-05
  1.2461065e-05
  9.8190685e-06
  2.9388648e-06
 -1.4836402e-05
 -2.7605864e-05
 -5.5692442e-05
 -1.7634322e-05
  1.9316667e-05
  2.1298052e-05
  4.4334988e-06
  1.0022316e-06
 -4.4894332e-05
  1.1163549e-05
  1.9812889e-05
  2.8109540e-05
  2.5955294e-05
 -1.4085391e-04
  6.2508111e-06
  4.8476927e-06
 -3.0228830e-05
 -2.9445724e-05
 -9.7453903e-06
 -2.6956699e-05
 -2.7658993e-05
  1.9542696e-05
  9.7277518e-07
 -1.5636173e-05
 -2.8177445e-05
 -3.0307512e-05
  2.5249115e-05
  8.1714250e-05
  3.1870134e-06
 -2.0211398e-06
  2.3330584e-05
  2.1897225e-05
  2.6203599e-05
 -2.5379593e-05
 -8.0340005e-06
 -1.5492347e-05
 -3.0471876e-05
  9.1545218e-05
 -2.2754732e-05
  1.5324125e-05
  1.0510246e-05
 -1.1532455e-05
 -2.5639672e-05
  4.6803944e-02
 -2.9857416e-05
 -1.5559783e-05
 -4.5694733e-06
 -2.9604651e-05
 -5.1348961e-05
  3.0330459e-05
  6.6174813e-05
 -2.2418020e-05
  8.0685779e-05
  4.2261165e-03
  1.7316751e-01
  1.4826175e-04
 -6.3919462e-04
  1.1186606e-05
 -7.7963901e-05
 -4.5406530e-03
 -2.4741760e-04
  1.9663014e-05
  7.3944590e-05
  1.4913221e-05
 -2.3019436e-05
 -1.6331735e-05
  1.4110780e-04
  6.8549821e-06
 -3.2481836e-04
  7.8708625e-05
 -1.2950090e-04
 -1.8152727e-05
  2.7229051e-05
  7.3792195e-05
  7.1581057e-03
 -2.9323424e-05
 -1.0394906e-05
 -1.9479815e-02
  1.3681635e-05
 -3.4059358e-06
 -2.9653207e-05
 -6.2625872e-07
 -1.0453984e-05
  1.5839918e-05
  1.2599151e-05
 -9.9874305e-06
  1.0918465e-05
 -1.8595720e-05
  2.7806893e-05
  2.7670035e-01
 -1.4636407e-05
  2.6068572e-05
 -2.8431235e-05
  2.7195674e-05
 -1.2695701e-05
 -2.5944617e-05
  4.4155099e-06
  3.4939041e-03
  7.8564422e-05
 -8.6860993e-05
 -2.6594091e-04
 -8.1294696e-05
  1.1051756e-05
 -9.1616384e-04
 -2.7325426e-05
  1.8056175e-05
 -1.1725256e-05
  3.0450672e-05
 -8.8068831e-05
 -1.6328224e-05
  1.5207563e-04
 -3.1288560e-06
 -2.8143650e-05
 -1.0341204e-05
 -1.9718127e-05
 -4.2946448e-04
 -2.1704103e-05
  5.5225387e-06
 -2.8563603e-05
  1.8110748e-05
 -5.0395585e-05
 -3.0507374e-05
 -4.2737560e-05
  1.8765291e-05
  3.0437743e-05
  6.1480064e-06
 -1.4646946e-05
  2.8634806e-05
  6.4402589e-06
 -1.4711071e-04
 -1.0066043e-05
  8.1966270e-04
 -2.3591592e-05
 -9.9775134e-06
 -1.8195789e-05
 -1.2916715e-06
 -7.8444573e-06
 -5.8204097e-01
  8.9011068e-05
 -2.4836094e-05
  5.5570779e-03
  6.5345783e-05
  1.6231383e+00
 -1.9981599e-05
 -1.7060765e-05
  1.1365281e-05
  2.9288136e-05
  1.8506859e-04
 -1.9142637e-04
 -6.2538597e-06
 -2.1974896e-05
  3.0510670e-05
 -2.4498127e-06
 -1.5251005e-04
  2.0257919e-04
  2.7137452e-05
 -2.4651912e-05
  1.3222546e-05
 -8.1491591e-05
  2.6170794e-05
  2.6033958e-05
 -3.0456060e-05
 -2.7706415e-06
  2.5958056e-05
  2.4763709e-05
  1.6586957e-05
 -2.4753883e-05
 -8.0759464e-06
 -4.3961157e-07
 -3.8433450e-06
 -2.8093191e-05
 -1.0859304e-05
  1.5472562e-05
 -1.7257895e-05
  1.5225892e-04
  2.7051665e-05
 -3.0299625e-05
 -2.7953907e-05
 -8.5449938e-06
  8.2720426e-06
  1.1254504e-04
 -9.0221556e-06
  2.0496849e-05
  1.6183976e-05
 -1.1279750e-05
 -2.8388993e-05
 -8.5236006e-06
  5.0609538e-05
  2.8691567e-05
 -1.4905669e-05
 -1.5091280e-05
 -6.1732368e-05
 -1.5079057e-05
  2.2217104e-05
  7.1880936e-06
 -8.4296829e-05
 -3.0261731e-06
 -2.5429214e-05
 -2.1224481e-05
  2.9843246e-05
  2.4984838e-05
 -8.5989675e-05
  1.2180145e-05
 -2.9373095e-05
 -1.6710772e-05
  1.2812773e-05
 -1.1433494e-07
  4.7048602e-06
 -2.5565627e-05
 -1.6016736e-06
 -6.7592277e-06
 -2.3706201e-05
  1.9946750e-05
  4.3400428e-06
 -3.3823399e-05
 -3.6795012e-05
  7.0066303e-06
  2.7383689e-05
  6.4998849e-06
 -1.5369687e-05
  2.2250573e-05
  2.7498501e-05
  1.2810046e-05
  2.2123721e-05
 -5.2905212e-05
  1.6120375e-05
  2.9821747e-05
  2.6684647e-05
  6.2035280e-05
 -2.9007122e-05
  9.7023367e-06
 -2.0847510e-05
  2.1227774e-05
  1.7150991e-05
 -1.6841487e-04
 -1.7278280e-05
  2.8225841e-05
 -7.6090096e-06
  3.0268573e-05
 -6.6465800e-05
  1.9473104e-05
  1.8211134e-05
  3.9288680e-05
  1.7075927e-05
 -4.1978117e-05
  2.8612130e-05
 -8.9566292e-06
 -2.4448386e-06
  1.4089256e-06
  8.8895802e-05
  1.2127272e-05
  2.5697518e-05
  3.3254955e-06
 -6.4764267e-06
 -8.2229026e-06
 -3.0483927e-05
 -6.4758033e-06
  2.0471154e-05
 -6.6995705e-07
 -5.2238116e-05
 -7.7207806e-05
  2.8434292e-07
 -2.8213368e-05
  1.8423516e-02
 -8.6695240e-05
 -1.3421431e-04
 -2.2327067e-05
 -1.8054858e-05
 -1.2272525e-05
  1.4835630e-04
  4.2169585e+00
 -1.4579522e-05
 -1.3573152e-04
  1.4384553e-03
 -8.0737474e-05
 -2.1071370e-05
 -2.5924714e-03
 -2.3416121e-04
  1.5581309e-05
  1.4386112e-04
 -4.9095892e-04
  1.4857840e-04
  7.6932040e-05
  7.7400167e-05
 -8.8890010e-05
  1.8319366e-05
  9.5917894e-06
 -2.4998992e-05
 -1.0234606e-05
 -2.3924379e-06
  6.7139423e-05
 -1.5397120e-05
  9.0511103e-06
  2.7774098e-05
  1.0661648e-05
  1.1859110e-02
 -1.4062729e-04
  2.5789614e-05
 -2.8172148e-05
 -2.6578031e-05
  3.6991207e-07
  8.8441775e-06
  4.3960987e-05
 -2.6624382e-05
 -5.8984435e-05
  1.0784154e-06
 -1.5214771e-05
 -2.7017524e-05
 -7.4033142e-06
 -1.9051800e-05
  7.8936304e-05
  2.6494341e-05
  8.3985078e-06
 -3.8862800e-06
 -1.0822319e-04
  2.5402114e-05
 -2.0546917e-04
  6.3366897e-06
 -2.2395216e-05
 -1.0884420e-04
 -3.0327263e-05
 -1.3145317e-05
  9.0138485e-05
  3.0801584e-05
  5.6194058e-06
 -9.8842338e-06
 -2.3876213e-05
  2.7956212e-05
  7.6418919e-06
  2.0057794e-05
  5.4322236e-06
 -5.2392825e-06
  1.7911936e-05
  2.0633655e-05
  2.3844759e-05
  2.6764994e-05
 -5.6384517e-05
  7.5637618e-06
 -1.6866465e-05
  8.7738563e-06
 -1.5137385e-04
  2.6000984e-05
  1.3042748e-05
 -3.0205044e-06
  8.3798168e-06
  2.8004652e-05
  4.1984381e-06
 -4.6552263e-06
  8.8681540e-05
  3.0394160e-05
 -2.9815108e-05
 -1.6082575e-05
  5.6849340e-06
  4.8247956e-02
  3.0352383e-05
  4.6733876e-06
 -1.6439291e-05
 -1.9231651e-05
  5.7610869e-06
  2.0264957e-05
 -1.3954320e-04
 -1.2332487e-03
  1.0344740e-05
  2.8169798e-05
  3.0144323e-05
  2.9365599e-05
 -6.2287516e-05
 -9.1424459e-05
  7.9011894e-05
 -1.1802965e-04
 -1.8325281e-05
  1.5124106e-05
  1.4587690e-04
  1.2114917e-05
 -2.9471360e-06
  2.5383788e-04
  5.6136549e-01
  7.5536132e-06
 -1.0183012e-06
 -2.5411055e-05
 -1.3765087e-05
  7.4113209e-06
  4.5963578e-05
 -9.8605196e-05
 -6.8274509e-05
  7.5183152e-03
 -1.2951889e-05
 -1.9523357e-05
 -2.6890115e-05
  8.9237525e-05
  2.9645767e-05
  2.4709358e-05
 -1.5201957e-06
 -7.5266507e-06
  7.4664647e-05
  5.6849992e-01
 -9.1480892e-05
 -3.2177576e-01
 -2.5909846e-03
 -2.7888073e-05
  2.8492643e-06
  3.1583497e-06
  1.1618967e-04
 -4.1283283e-06
 -3.4211251e-05
  2.0236093e-01
 -6.8054640e-01
 -9.8659478e-02
  3.2363400e-01
 -2.7546852e-05
 -3.9869893e-01
  1.8539329e-01
 -6.0778525e-02
  1.9945724e-04
  2.3707009e-05
 -7.7950889e-01
 -2.8820046e-05
  7.5586766e-05
  7.7234074e-02
  1.3084904e-02
 -1.4785360e-01
 -7.3402516e-06
 -1.6488120e-01
  9.0209040e-05
 -2.8437325e-05
 -1.1844399e-05
  6.7825273e-02
  4.3801367e-01
 -1.4972582e-05
 -8.7129185e-03
  1.3487226e-05
  3.2437063e-06
  1.3519834e-05
  1.5240465e-04
  4.2263690e-02
 -8.8612214e-06
  1.1169389e-04
 -1.0065419e-05
 -2.7920911e-05
  1.9791078e-05
  1.3582230e-05
 -5.2606714e-01
  8.2258885e-05
  5.3799481e-06
  1.6090027e-05
  2.1437585e-05
 -3.0746346e-03
  2.4318144e-05
  9.0951407e-03
  9.2594527e-02
  9.1000948e-05
  4.1628587e-05
 -4.9953935e-01
  9.0688271e-05
  2.2140560e-04
  1.7559360e-04
  5.2620238e-01
 -8.0217389e-05
 -1.0653426e-04
  9.4801992e-01
  2.8879625e-05
 -9.4814152e-02
 -5.3914541e-01
  2.4733559e-04
 -4.6913032e-05
 -1.0101441e-05
  6.5605998e-01
  6.8101355e-05
  7.3187280e-06
 -4.1655937e-04
 -1.7318681e-01
  8.6973829e-05
 -1.4547598e-05
  2.3737268e-05
  6.5324050e-05
  1.3987118e-04
 -2.8062834e-05
  2.9546598e-05
 -6.5849190e-06
 -2.0682795e-05
 -2.3549044e-04
  1.1976776e-05
 -2.0488444e-05
  2.3493918e-05
 -2.5596228e-06
 -2.7745362e-05
 -2.0781349e-04
 -5.3076665e-06
 -1.3477476e-05
 -1.1574056e-05
 -2.6117475e-05
  2.9629215e-05
 -2.7986691e-05
 -1.7148321e-05
 -1.6607046e-02
  3.1667505e-06
 -1.0323031e-05
  3.7477321e-06
  6.6610335e-07
 -6.9977679e-05
  5.9194622e-07
  2.4897423e-05
 -2.2173583e-05
  2.8245749e-05
 -2.8978371e-05
 -2.4822766e-05
  2.6026180e-05
 -2.6785874e-05
  2.0077105e-05
 -2.8074526e-05
  1.1313071e-05
  2.1841537e-05
  2.9083290e-05
 -1.9301579e-05
 -2.0444566e-05
  2.8201270e-05
 -2.1119196e-05
 -1.2851984e-05
  2.4194773e-05
 -1.0668750e-05
  6.8968402e-05
 -1.2717345e-05
  2.6397773e-05
  2.9959419e-05
  1.7847884e-05
  1.0494904e-04
 -8.1980645e-05
  1.5944530e-05
  7.2860621e-06
  1.1115770e-04
 -1.3791874e-05
  3.8105475e-07
 -2.5789173e-05
 -7.3011041e-05
  1.9645451e-05
  8.5364509e-06
 -2.5436398e-01
  8.9400295e-05
  1.9112646e-05
 -2.5976469e-05
  2.1517966e-05
 -2.7020276e-05
 -2.8247861e-05
  2.9123299e-05
  1.0907329e-05
 -1.1507043e-05
 -2.3571185e-05
  3.5820798e-05
 -8.6519140e-05
  1.4232224e-04
 -1.1068162e-05
  8.6389467e-05
 -2.6989283e-05
 -1.2066150e-05
 -6.4061023e-05
 -2.0417496e-05
  6.5220388e-06
 -8.9467758e-05
  2.2052796e-05
  2.1259419e-05
 -1.5612660e-06
 -2.4159472e-05
  3.3334109e-05
  2.4264233e-05
  7.9099991e-06
  1.8076526e-06
  2.0492809e-05
 -1.9023750e-05
  2.5703081e-05
 -3.3247539e-05
  9.0940041e-05
  1.7874454e-04
 -6.6741586e-06
  2.4414638e-05
  1.4642613e-04
 -6.1266903e-05
  1.3574755e-05
  2.1515427e-05
 -6.5675340e-05
  2.8805696e-05
  2.8704282e-05
 -5.2907280e-06
  2.0574971e-05
  2.3677236e-05
 -2.8895964e-05
  8.6188629e-05
 -6.9903981e-06
  6.4945848e-06
  1.7689643e-05
 -4.2814721e-05
 -2.2024757e-05
 -2.3669028e-05
 -2.3596483e-06
 -7.6877186e-06
  2.4570661e-05
  1.8926985e-05
 -9.2059490e-06
  5.4324137e-06
  2.0437188e-05
 -1.5720669e-05
  1.2894055e-05
 -2.3372406e-05
 -1.1452334e-05
 -1.2842946e-05
 -1.4467185e-05
  5.0754288e-06
 -2.7893948e-05
  2.3925448e-05
 -8.5538304e-05
 -9.2061164e-06
  9.1321845e-06
  2.1322645e-05
  1.0269752e-04
  1.9309742e-05
  2.4867113e-05
  5.2724540e-06
  7.7440098e-05
  1.0882037e-07
  7.3688972e-01
 -2.8675697e-05
  8.8171080e-05
 -1.6560547e-05
 -6.8160291e-05
  1.3021970e+00
  2.9472458e-05
  1.8586527e-04
 -2.4355965e+00
 -8.7640605e-05
 -8.3404608e-05
  2.9222167e-05
  2.7938131e-05
 -8.1440394e-06
 -5.9695274e-01
 -1.9937605e-05
 -1.1069767e-05
  9.2684388e-01
 -1.3067536e-05
  1.2902377e-05
  1.0844945e-05
 -1.3004083e-05
  4.3828626e-07
  9.9402081e-05
 -1.0340385e+00
 -7.2521696e-05
 -3.0374283e-06
 -6.5554297e-01
  1.6553344e-05
 -1.5775744e-05
 -2.0907198e-01
  1.4359210e-05
  5.2339721e-01
  1.7367576e-05
 -1.9696232e-05
  2.4354267e-05
  1.0237994e-05
 -7.3254421e-05
 -7.2863601e-05
  7.9535472e-01
 -2.5663745e-05
 -6.2286772e-06
  4.6095484e-01
 -2.6931587e-01
 -2.8931308e-05
  9.0099593e-06
 -1.1848739e-05
 -9.0842605e-02
  2.7730468e-01
 -2.6433555e-02
 -3.1228581e-01
 -1.6576095e-01
  2.1576167e-05
  3.6251161e-04
 -1.8425211e-01
  1.1777468e+00
  2.9496463e-05
  3.8805678e-02
 -1.9228183e+00
 -2.8553835e-01
  5.7752568e-06
 -2.1930702e-05
  3.2142638e-05
  1.3784258e-01
 -2.3568559e-01
  6.9477601e-06
 -1.6867576e-05
 -2.6835552e-01
  1.6435142e-06
 -1.3238522e-01
  8.2157090e-02
 -2.9481387e-05
  8.2387749e-05
  2.3791461e+00
 -4.6981984e-01
 -2.4269441e-01
  3.0478102e-05
 -4.7130263e-01
  2.1986811e-05
 -3.1514484e-02
  3.1147188e-01
  3.2525290e-02
  7.4480277e-01
  2.5012432e-05
  1.9454402e-01
  1.8959221e-01
  8.3645977e-02
 -9.4079724e-06
  2.1274500e-03
  3.4102416e-01
  4.9034211e-06
 -1.6806614e-01
  4.8477882e-01
 -2.8622362e-01
  7.1976661e-05
  5.4956339e-02
  2.0116371e-05
  1.8855506e+00
  3.2719612e-01
 -2.2765794e+00
 -1.3141836e-01
  2.2956449e-01
 -3.5580993e-01
 -1.2144867e-02
  3.4452663e-03
  5.7687046e-04
  1.1930423e+00
  3.4432277e-01
 -9.5514758e-03
 -9.8458164e-05
 -5.7171786e-01
 -6.5177217e-02
 -6.9103938e-01
 -3.6178190e-02
 -6.6430283e-01
 -5.8001126e-03
  1.3277581e+00
  6.5942115e-01
  2.8183747e-05
 -6.5353457e-03
  1.8331908e-01
  6.6424400e-02
 -8.9602655e-01
 -1.5039042e-01
 -1.5184200e-04
 -1.1932550e-01
 -3.1137082e-01
  1.4287405e+00
  4.1921085e-01
  2.3831029e-01
  2.2077705e-01
 -1.1182839e-01
  1.8141948e-02
  5.4411583e-02
 -9.0588545e-03
 -3.1289521e-01
 -2.7143002e-01
  2.3709565e-05
 -8.5894275e-01
 -5.3279287e-01
  2.3256175e-01
 -1.0526943e-02
  9.5405348e-02
 -7.8908181e-01
  3.7514022e-01
  9.2536932e-01
 -3.7347412e-01
  1.3065391e+00
  1.7193599e-01
  6.9829541e-01
  1.4344614e-04
 -2.6236659e-01
 -4.6863505e-01
 -3.3513111e-01
  1.2853309e-05
 -3.1776731e-06
 -7.0905092e-04
 -1.4884665e-06
  1.5928392e-05
  3.0350444e-05
  9.9447481e-02
  1.0467954e-04
  3.0293889e-02
 -1.3559811e-04
  4.5959941e-01
  2.3928182e-01
 -2.9786104e-05
 -1.1423084e-05
 -4.8361029e-03
 -2.9231861e-01
  1.1470749e-01
  3.4439567e-02
  2.6546981e-05
  8.1537619e-05
 -1.4513690e+00
 -1.4097513e-04
  7.4720448e-03
  1.0244371e+00
  1.8473605e-05
  2.3835164e-05
 -2.0600746e-05
 -1.3557154e-01
  2.8658689e-05
 -2.3062174e-05
  3.7631153e-06
 -9.7857798e-03
 -2.7610546e-05
  2.3860586e-05
  4.9134353e-01
  1.9764881e-01
  9.0365605e-03
  1.3757999e-01
  4.2699452e-04
 -2.6100624e-01
 -1.7251015e-05
  2.2611686e-05
 -1.4158781e-03
  1.0369793e-02
  1.0054246e-05
 -1.4933061e-05
  1.1310229e-05
 -2.3475424e-03
  2.2806960e-01
 -3.3315447e-01
 -5.4098094e-01
 -4.9355805e-01
  7.5359720e-05
 -6.7989517e-06
  2.7183347e-05
 -2.9953215e-05
  1.2035180e+00
  1.9908282e-05
 -1.8925777e-01
 -8.1935572e-03
  1.1150606e+00
  8.2667154e-01
 -1.9722925e-01
 -5.3442723e-01
  3.3346433e-04
  3.7068951e-01
  8.7326029e-05
  4.7920832e-05
 -5.8028978e-01
 -8.8379514e-01
 -7.3916996e-03
 -2.4743502e-01
 -1.2134146e-01
  2.7476645e-01
 -1.9161434e-01
 -4.7578895e-01
  2.9815283e-02
 -8.9413017e-01
  2.7202879e-05
  3.5485598e-05
 -8.2308549e-04
  5.1511991e-01
  5.6255237e-07
 -1.0609777e-01
 -9.8309040e-01
  1.5536252e-01
 -7.7048644e-02
 -1.9094847e-01
  6.0287464e-01
 -1.6941619e-01
 -7.0089459e-02
 -1.5698806e-05
  2.5570657e-02
 -2.7899971e-02
 -2.1073755e-04
 -2.1386066e-02
 -1.0912882e-01
  2.0460901e-01
  4.0297468e-06
  1.5039093e-04
 -1.7213526e-01
  2.0005388e+00
 -1.9944579e-05
  1.8886814e-05
 -2.1446056e+00
 -2.9512945e-01
 -3.9832346e-05
 -1.7896273e-04
  3.8562515e-01
 -3.0345860e-01
 -1.0947545e-05
 -5.8992977e-05
  7.1513861e-01
  4.1378495e-01
  1.6806413e-05
 -2.0840102e-06
 -5.4931857e-02
 -2.4660671e-01
  3.4020388e-05
 -2.7034368e-05
  4.3822920e-01
  2.1037123e+00
 -2.9928224e-05
  1.6194366e-05
 -4.5701931e-04
 -3.8106853e-01
  2.6377124e-05
 -1.7527242e-05
 -1.4295199e+00
  1.2205390e+00
 -2.4690809e-05
 -5.6853787e-06
 -5.9246534e-01
 -1.5997618e+00
  1.8655401e-05
 -1.9818171e-05
 -1.9535580e-01
  1.9543295e-05
  2.9766235e-05
 -8.5488991e-06
  3.7869260e-01
 -3.3114908e+00
 -5.9392944e-05
 -2.6279911e-06
 -2.1197461e-03
 -1.3909572e+00
  1.3381016e-04
 -2.7220723e-01
  4.5583755e-01
 -1.6151430e-01
  3.3044213e-04
 -9.0700967e-05
 -3.7000218e-01
 -2.1817867e-02
 -1.5840544e-05
 -8.2708211e-05
 -2.6765078e-05
  2.5576210e-05
 -2.5683245e-05
  2.5597491e-04
  4.4132656e-01
 -2.6157210e-05
  1.4135852e-05
  2.4711517e-05
  5.2045971e-01
 -2.5127596e-01
 -3.3300337e-05
  1.4048144e-04
 -1.8990742e-01
  4.3605438e-01
 -1.6593498e-05
  2.0364479e-05
  1.4609942e-02
 -5.7545662e-01
  5.2881828e-06
  7.6979893e-05
  4.7262034e-01
  9.1326612e-05
 -1.8513581e-05
  2.1556794e-05
 -7.6668359e-02
  1.0567232e+00
 -1.3475511e-05
 -2.5623258e-05
  3.8467665e-06
 -9.1961153e-02
 -6.9727203e-06
  3.2376356e-06
  7.4416775e-01
  1.1011089e-01
  2.0012696e-05
 -2.9842273e-05
  4.5884319e-02
  4.3814305e-02
 -1.3405422e-05
 -2.0613283e-05
 -1.0221811e-01
  2.3683554e-01
 -2.9765190e-05
  7.8813086e-05
  3.2615915e-02
  6.2228030e-01
 -7.3451811e-05
 -1.4268860e-06
  2.4068046e+00
 -1.3000727e+00
 -2.4275147e-05
 -6.3803236e-07
 -1.1065482e+00
 -5.2699512e-01
  3.5550016e-05
  5.6810772e-05
  2.2111223e+00
  4.3556622e-01
 -2.6474898e-05
 -7.4891759e-05
 -1.1000375e+00
  3.7604637e-02
 -2.1687923e-05
  2.2544511e-05
 -7.6686639e-01
 -1.2671224e+00
 -2.5418896e-04
  1.8491344e-05
  1.4751150e-04
 -2.8397582e+00
  2.0256213e-05
  8.1716034e-06
  1.2167151e+00
  3.4198153e-01
  2.5764605e-04
 -1.4086536e-06
 -7.9237282e-01
 -2.2282036e-01
  1.3020977e-01
 -1.4505222e-05
 -1.5479792e+00
  2.4182785e+00
 -5.0459221e-06
 -2.8566898e-05
  2.2119464e-01
  5.8969921e-01
 -1.2355583e-05
  2.2900160e-05
  1.2795504e+00
  3.5414711e-01
 -5.5755550e-06
 -3.5598398e-05
  9.1635126e-01
  4.6835127e-01
 -9.7239911e-07
 -2.9509534e-05
 -1.3658757e-02
  2.5896466e-01
  4.1125850e-06
 -1.3323704e-05
 -1.3152755e+00
 -6.2461756e-04
  4.3574232e-01
 -1.5484035e-05
 -1.3784029e-05
 -3.3481698e-05
  6.6327743e-08
 -8.1818260e-05
 -3.4181806e-01
 -2.1325491e-02
  7.5424791e-06
  2.3614566e-05
 -1.7517127e-01
  3.6651865e-01
  3.2645594e-06
 -1.5955917e-05
 -4.2786229e-01
 -8.6349342e-03
  2.7277281e-05
 -8.8831905e-05
 -1.4712395e-01
  1.5313592e-05
  1.6947408e-05
 -1.3973014e-06
 -3.5633034e-01
  4.4257841e-01
 -8.7895547e-05
  3.0471774e-05
  4.9926966e-01
 -3.5946500e-01
 -1.1384346e-05
  5.1547622e-06
 -3.7692085e-01
 -1.5425783e-01
 -2.9671579e-05
 -1.4637118e-04
 -6.2208346e-05
  6.3821328e-01
 -2.5408317e-05
 -2.3427541e-05
  8.5942462e-02
 -1.6782198e-03
 -2.0498945e-05
 -1.9241988e-05
  1.5599051e-05
 -6.2666845e-01
  6.8410867e-05
  2.4940222e-05
 -3.9263340e-04
 -9.7757857e-03
 -2.5191304e-04
  2.1652672e-06
  4.0684452e-05
 -1.8695515e-01
 -6.8906516e-02
  2.3656771e-01
  9.1282415e-01
  4.0114686e-01
  2.6867064e-04
  3.0665323e-02
  3.4029177e-01
 -3.0551319e+00
 -2.8565422e-05
  1.4244448e-04
  1.5911713e-01
  3.8964368e-02
 -7.8935000e-06
 -3.4280318e-01
  5.0951451e-01
  4.5536616e-01
  1.8579287e-02
  4.1785967e-02
  3.1522062e-01
  1.4323603e+00
 -2.3848766e-05
  2.8316500e-03
  3.7916487e-01
  1.2935643e-01
  1.4733165e-03
 -5.1404573e-02
 -1.1707153e+00
 -7.3956525e-01
  1.3210042e-01
  4.0181276e-01
  4.9928868e-01
  1.8094245e+00
  5.8640554e-03
  1.4276038e-02
 -1.3594925e+00
 -6.0177907e-02
  7.8352597e-05
  1.8042067e-01
 -3.2631791e-01
  7.9736792e-02
  4.0176374e-06
 -1.5587647e-02
 -1.5659362e+00
  2.2969110e-01
  1.5554612e-03
  1.8359907e-01
  2.4380057e-01
 -5.8953887e-01
  1.1117475e-01
  1.6562248e-02
 -9.2136025e-01
 -4.2190459e-01
 -2.0182995e-01
  2.3418794e-05
  8.3517981e-01
  7.3906228e-02
 -2.6690461e-05
  2.5971516e-05
 -5.5522323e-01
  1.8814553e-01
  2.8317887e-05
 -2.8372191e-05
  1.8702163e+00
 -1.6101143e+00
 -3.0691754e-05
 -2.0158628e-05
  2.4409938e+00
 -6.7213386e-01
 -2.3902605e-06
 -4.0121395e-06
  8.0105174e-01
 -2.9444245e-01
 -1.6752241e-05
 -8.0580488e-05
 -8.3871454e-01
 -3.9351159e-01
 -1.6121898e-05
  2.8093942e-05
  8.5292572e-01
  8.0666715e-01
 -1.2154366e-05
  2.7501866e-05
  1.2290486e-01
  1.4171151e-03
  8.2242077e-06
 -1.4933161e-05
  2.1216002e+00
  1.4701569e+00
 -3.0467965e-05
 -2.0370948e-05
  1.3057153e+00
 -2.3603957e+00
 -1.8681363e-05
  1.1873103e-05
  2.1203704e+00
 -1.3832537e+00
 -2.8499180e-05
  1.9300192e-05
 -3.9906618e-01
  1.1803271e+00
 -3.7111397e-05
 -2.8436505e-05
 -3.2350826e-01
  5.4270130e-01
 -2.5094178e+00
 -1.8399006e+00
  1.7244050e-02
 -4.9590788e+00
 -9.4023846e-02
 -1.7930493e+00
 -5.6740922e-01
  4.0310149e+00
  4.9252227e-01
  1.0170295e+00
 -2.9806960e+00
  1.5772011e+00
 -1.3097754e+00
 -3.0035958e-01
  6.8770993e-01
 -2.1164238e+00
  2.3530874e-01
 -1.7867373e+00
 -1.1037178e+00
 -3.6215502e-01
  1.7087045e+00
 -6.9873941e-01
 -1.7467341e+00
  1.7474345e+00
 -1.6829611e-01
  1.3391541e-01
  9.4658637e-01
 -2.2778237e+00
  5.3135514e-01
  3.8943070e-01
  9.5366275e-01
 -3.0412903e+00
  5.3142136e-01
  5.0438619e-01
 -1.6520735e+00
 -4.3614600e-03
 -1.2444851e+00
  1.2956148e-01
 -4.3029475e-01
  1.0716120e+00
 -2.9095659e-01
 -6.8612248e-01
  1.9966425e+00
 -7.4318832e-01
  5.0322258e-01
 -7.9361296e-01
  1.4182871e-02
 -1.0995940e+00
 -1.4118811e-01
 -2.6197913e-01
 -1.0804991e+00
 -7.6139636e-02
  8.4717906e-01
 -1.6626681e+00
  3.3071797e+00
 -3.3130064e+00
  1.0852815e-01
 -1.6980466e-03
 -7.3069793e-01
  1.1425763e+00
  2.7462625e-05
 -4.2508632e-02
  9.7839975e-01
  1.5209794e+00
  8.6019441e-02
 -1.3816715e+00
  4.6167260e-01
 -4.3166950e-01
  1.4883234e-01
 -3.9549282e-01
 -1.8036014e+00
 -3.3710990e-02
  1.3836507e+00
 -4.3459289e-02
 -2.7345195e+00
  8.7544519e-01
  5.2335780e-02
 -6.1390686e-01
  1.8453999e+00
  1.4425068e-02
 -1.0333488e-01
 -1.0091245e+00
  1.1090662e+00
 -1.4034070e+00
  6.1178583e-01
 -3.1638798e-01
 -5.2808052e-01
 -1.5683216e+00
  7.6820350e-01
 -6.2512332e-01
 -1.3558007e+00
 -6.6425532e-01
  1.7503312e+00
 -9.0203077e-01
  1.3864080e+00
  1.4761086e-01
 -1.6634817e-01
 -6.0073698e-01
  2.3291833e+00
  5.5923724e-01
 -9.4269417e-02
 -3.3879302e-02
  1.7301158e+00
  1.8696113e+00
  5.1366776e-01
 -1.7346521e-01
 -2.1433780e+00
 -2.7480233e+00
  1.1564347e+00
 -3.9574165e-02
  2.1524956e+00
  6.6604441e-01
 -7.4325490e-01
 -1.1462981e-04
  1.6688514e-01
  1.8102561e+00
  7.0435381e-01
  2.8085068e-01
 -2.2674093e+00
 -1.5988114e+00
  2.2309864e+00
 -9.4423354e-02
  2.3992484e+00
 -1.4256895e+00
  4.2791411e-01
 -6.6268229e-01
  1.4256958e+00
  1.0013522e+00
  7.7902012e-02
  1.0411935e+00
 -4.1279063e+00
 -1.8361175e-01
 -1.3794675e-01
 -7.3095274e-01
 -1.9782224e-01
 -2.1928465e+00
  1.5557991e+00
 -1.0159390e+00
  2.2356174e+00
 -9.5258379e-01
  4.3502402e-01
 -5.6426305e-02
 -1.5774195e+00
  2.7253777e-01
  2.3942972e-02
  3.9300090e-01
 -2.5680597e+00
 -7.0478976e-02
  1.3027680e+00
 -3.5351503e-01
 -1.6562931e-01
 -4.3784752e-01
  2.1548830e-01
 -4.6436748e-01
  1.8816125e+00
  1.7900780e+00
 -6.0409249e-04
 -5.7704419e-02
 -1.8780452e-01
  3.2394593e+00
 -1.2278676e+00
 -5.9475742e-02
  9.8573703e-01
 -5.3563380e+00
  9.4298124e-01
  3.2388151e-01
  1.5415892e-01
 -3.1613991e+00
  6.9338787e-01
 -9.7799711e-02
 -2.8142253e-01
  1.6331960e+00
 -1.7783859e+00
 -3.3095399e-01
  3.8590283e+00
  6.5757543e-02
 -1.4479594e-01
 -4.0967515e-01
 -7.8118867e-01
 -3.0648255e-01
  2.0648510e+00
 -5.2429008e-01
 -1.3983042e+00
  1.9102960e+00
 -2.0110981e-01
  4.8003396e-01
 -6.7376500e-01
  2.5680540e+00
 -7.4358237e-01
  1.3286567e-01
 -2.4807396e+00
  1.6934699e+00
  3.3779788e-01
  2.2582451e-03
 -1.4675577e+00
  7.9533863e-01
  2.7005741e-01
 -1.2176341e-01
  4.4869852e-01
  2.8131079e-02
 -1.9268470e-01
 -5.0405376e-03
 -8.0600083e-01
 -4.4812000e-01
  1.2569979e-01
  6.0322272e-05
 -1.4872710e+00
 -3.5996523e-01
  3.9714828e-01
 -3.8030398e-01
  4.4681120e-01
 -1.0895106e+00
  1.5384268e+00
 -5.2538060e-04
 -3.8629091e-01
  6.7748590e-03
 -2.0013349e-01
 -3.0416550e-04
 -4.6355879e-01
  4.0621767e+00
 -3.6368003e-01
 -6.6238785e-01
  9.6393488e-02
 -9.4866389e-01
  3.7485917e+00
 -6.7644125e-01
 -1.1014994e+00
 -6.6754144e-01
  2.5591238e+00
 -1.1361164e+00
  1.2209721e+00
  2.5021832e+00
 -5.6536806e-01
 -3.4941804e-01
  1.9619255e-01
  7.9606587e-01
 -7.1441299e-01
 -3.8676333e-01
  2.7350087e+00
 -1.3331902e+00
  2.6128119e-01
 -3.3575436e-01
 -1.1520349e+00
 -8.1140995e-01
  8.4075916e-01
 -4.9546123e-01
  3.8848495e-01
 -7.1459508e-01
  7.0463568e-01
 -3.7991765e-01
  1.0513449e+00
  1.4202733e-01
 -4.7421902e-02
 -3.7896666e-01
  5.4472262e-01
  2.3002812e-01
 -3.4185734e-01
 -1.3579966e-01
 -3.9751494e-01
  1.1821572e+00
  5.7929370e-05
  3.5633017e-05
 -1.6226131e+00
  2.4407296e-01
 -6.5764878e-04
 -2.9782581e-04
  2.1511061e+00
  2.3140171e+00
  4.6079580e-02
  1.5256710e-03
 -2.0460668e+00
  1.3860957e-01
 -9.7412163e-01
 -4.5304674e-01
 -3.7288594e-01
 -1.2945547e+00
  3.1694481e-01
 -1.5572591e-01
 -2.6033161e+00
 -2.8128703e+00
  4.4860758e-02
  1.5289301e-01
 -2.7995505e+00
 -5.3291321e-01
 -3.9492457e-05
 -5.5400032e-01
  2.4426901e+00
  5.3159660e-01
 -1.8261351e-04
 -4.0466025e-02
 -2.2308342e-01
  1.1661482e+00
  2.5485020e-05
  2.7410373e-01
 -1.0214473e+00
 -7.1452880e-01
 -3.1951380e-01
  1.9420865e-01
  7.5739719e-02
 -1.2001342e+00
  1.0508297e-01
 -4.9993464e-01
 -4.1658404e-01
 -6.1718458e-01
  5.5602420e-02
 -7.6732826e-01
 -1.2339418e+00
  3.8267800e-01
  3.2287860e-01
  4.8022070e-03
  1.5968298e+00
 -2.2353637e+00
 -2.2655652e-01
 -1.0224805e+00
  1.7134677e+00
 -1.1796870e+00
 -9.2492801e-01
  2.1462486e+00
 -4.2778482e+00
  1.0435027e+00
  4.2510936e-01
 -2.2799408e+00
  2.6269090e+00
 -4.3979535e-01
  3.3647025e-01
 -1.0374105e+00
  1.0773579e+00
 -2.4152756e+00
 -1.2706882e+00
  2.8453450e+00
 -3.7067025e+00
  1.1027303e+00
 -8.6829495e-01
  8.0896986e-01
 -6.4519918e-01
  3.2436657e+00
  2.1916486e-01
 -4.1522127e-01
  1.0930934e+00
 -7.8917995e-02
  1.0709881e+00
 -3.6051577e-01
  6.9938201e-01
 -2.7216556e+00
 -2.1761279e+00
  3.8519254e-01
  4.6697628e-01
 -3.9381438e-01
 -2.1034212e-01
  1.1827360e+00
  1.6211581e+00
  2.0354016e+00
  1.1986944e-02
  1.0979549e+00
  1.1256210e+00
  1.7836537e+00
  1.9420747e-01
  5.3314137e-01
  5.3315520e-01
  5.0378561e-01
 -6.0941577e-01
 -8.2334075e-03
  2.2974503e-03
  2.2974503e-03
  2.2974503e-03
  2.2974503e-03
  2.2974503e-03
  2.2974503e-03
  2.2974503e-03
  2.2974503e-03
  2.2974503e-03
  1.7128343e-02
  1.7128343e-02
  1.7128343e-02
  1.7128343e-02
  1.7128343e-02
  1.7128343e-02
  1.7128343e-02
  6.2660319e-03
  6.2660319e-03
  6.2660319e-03
  6.2660319e-03
  6.2660319e-03
  6.2660319e-03
  6.2660319e-03
  3.2248213e-03
  3.2248213e-03
  3.2248213e-03
  3.2248213e-03
  3.2248213e-03
  3.2248213e-03
  3.2248213e-03
  3.4007665e-03
  3.4007665e-03
  3.4007665e-03
  3.4007665e-03
  3.4007665e-03
  3.4007665e-03
  3.4007665e-03
  1.4493351e-03
  1.4493351e-03
  1.4493351e-03
  1.4493351e-03
  1.4493351e-03
  1.4493351e-03
  1.4493351e-03
